{"learner":{"attributes":{},"feature_names":["day_of_week","hour_of_day"],"feature_types":[],"gradient_booster":{"model":{"cats":{"enc":[],"feature_segments":[],"sorted_idx":[]},"gbtree_model_param":{"num_parallel_tree":"1","num_trees":"50"},"iteration_indptr":[0,1,2,3,4,5,6,7,8,9,10,11,12,13,14,15,16,17,18,19,20,21,22,23,24,25,26,27,28,29,30,31,32,33,34,35,36,37,38,39,40,41,42,43,44,45,46,47,48,49,50],"tree_info":[0,0,0,0,0,0,0,0,0,0,0,0,0,0,0,0,0,0,0,0,0,0,0,0,0,0,0,0,0,0,0,0,0,0,0,0,0,0,0,0,0,0,0,0,0,0,0,0,0,0],"trees":[{"base_weights":[4.6050903E-7,-1.0499599E1,1.2601343E0,-1.10104265E1,-6.92697E0,2.87056E0,-4.3006988E0,-1.2216293E0,-9.411343E-1,-2.662168E-1,-8.7502396E-1,-2.0766654E0,3.6133904E0,-2.428613E0,-6.9064984E0,2.1888255E-1,-7.419052E-1,4.1838923E-1,8.627053E-2,-4.854559E-1,-9.27754E-2,-1.0092568E0,-5.2673566E-1],"categories":[],"categories_nodes":[],"categories_segments":[],"categories_sizes":[],"default_left":[0,0,0,0,0,0,0,0,0,0,0,0,0,0,0,0,0,0,0,0,0,0,0],"id":0,"left_children":[1,3,5,7,9,11,13,-1,-1,-1,-1,15,17,19,21,-1,-1,-1,-1,-1,-1,-1,-1],"loss_changes":[6.8403766E4,9.3477734E2,4.135005E4,8.163867E2,5.365691E2,1.3163822E4,5.042E3,0E0,0E0,0E0,0E0,1.0680977E4,4.8815312E3,2.1983032E3,2.2081484E3,0E0,0E0,0E0,0E0,0E0,0E0,0E0,0E0],"parents":[2147483647,0,0,1,1,2,2,3,3,4,4,5,5,6,6,11,11,12,12,13,13,14,14],"right_children":[2,4,6,8,10,12,14,-1,-1,-1,-1,16,18,20,22,-1,-1,-1,-1,-1,-1,-1,-1],"split_conditions":[4E0,3E0,2E1,5E0,2E0,7E0,2.2E1,-1.2216293E0,-9.411343E-1,-2.662168E-1,-8.7502396E-1,5E0,1.8E1,4E0,4E0,2.1888255E-1,-7.419052E-1,4.1838923E-1,8.627053E-2,-4.854559E-1,-9.27754E-2,-1.0092568E0,-5.2673566E-1],"split_indices":[1,1,1,0,0,1,1,0,0,0,0,0,1,0,0,0,0,0,0,0,0,0,0],"split_type":[0,0,0,0,0,0,0,0,0,0,0,0,0,0,0,0,0,0,0,0,0,0,0],"sum_hessian":[5.168E3,5.53E2,4.615E3,4.82E2,7.1E1,3.579E3,1.036E3,2.71E2,2.11E2,2.2E1,4.9E1,4.67E2,3.112E3,6.04E2,4.32E2,2.6E2,2.07E2,2.577E3,5.35E2,2.3E2,3.74E2,1.45E2,2.87E2],"tree_param":{"num_deleted":"0","num_feature":"2","num_nodes":"23","size_leaf_vector":"1"}},{"base_weights":[-1.0513456E-3,-9.455604E0,1.133659E0,-9.913862E0,-6.2501235E0,2.583499E0,-3.872668E0,-1.0999154E0,-8.4746474E-1,-2.4075256E-1,-7.892716E-1,-1.8701166E0,3.2522137E0,-2.1867077E0,-6.219396E0,1.9707812E-1,-6.680714E-1,3.7656656E-1,7.765961E-2,-4.3712053E-1,-8.35226E-2,-9.090225E-1,-4.7424504E-1],"categories":[],"categories_nodes":[],"categories_segments":[],"categories_sizes":[],"default_left":[0,0,0,0,0,0,0,0,0,0,0,0,0,0,0,0,0,0,0,0,0,0,0],"id":1,"left_children":[1,3,5,7,9,11,13,-1,-1,-1,-1,15,17,19,21,-1,-1,-1,-1,-1,-1,-1,-1],"loss_changes":[5.5464668E4,7.5183203E2,3.3514656E4,6.6121484E2,4.3544946E2,1.0668033E4,4.0892793E3,0E0,0E0,0E0,0E0,8.660409E3,3.954039E3,1.7824958E3,1.7928359E3,0E0,0E0,0E0,0E0,0E0,0E0,0E0,0E0],"parents":[2147483647,0,0,1,1,2,2,3,3,4,4,5,5,6,6,11,11,12,12,13,13,14,14],"right_children":[2,4,6,8,10,12,14,-1,-1,-1,-1,16,18,20,22,-1,-1,-1,-1,-1,-1,-1,-1],"split_conditions":[4E0,3E0,2E1,5E0,2E0,7E0,2.2E1,-1.0999154E0,-8.4746474E-1,-2.4075256E-1,-7.892716E-1,5E0,1.8E1,4E0,4E0,1.9707812E-1,-6.680714E-1,3.7656656E-1,7.765961E-2,-4.3712053E-1,-8.35226E-2,-9.090225E-1,-4.7424504E-1],"split_indices":[1,1,1,0,0,1,1,0,0,0,0,0,1,0,0,0,0,0,0,0,0,0,0],"split_type":[0,0,0,0,0,0,0,0,0,0,0,0,0,0,0,0,0,0,0,0,0,0,0],"sum_hessian":[5.168E3,5.53E2,4.615E3,4.82E2,7.1E1,3.579E3,1.036E3,2.71E2,2.11E2,2.2E1,4.9E1,4.67E2,3.112E3,6.04E2,4.32E2,2.6E2,2.07E2,2.577E3,5.35E2,2.3E2,3.74E2,1.45E2,2.87E2],"tree_param":{"num_deleted":"0","num_feature":"2","num_nodes":"23","size_leaf_vector":"1"}},{"base_weights":[-1.8940092E-3,-8.515417E0,1.0198767E0,-8.926508E0,-5.639417E0,2.5485864E0,-2.848258E0,-9.903283E-1,-7.6311803E0,-2.1772408E-1,-7.1192306E-1,-1.6841109E0,3.2446997E0,-1.4845198E0,-5.6006513E0,-6.8068224E-1,-7.965147E-1,1.7744587E-1,-6.015854E-1,4.1225266E-1,2.3639718E-1,-3.4147823E-1,-3.7290677E-2,-8.187429E-1,-4.2698517E-1],"categories":[],"categories_nodes":[],"categories_segments":[],"categories_sizes":[],"default_left":[0,0,0,0,0,0,0,0,0,0,0,0,0,0,0,0,0,0,0,0,0,0,0,0,0],"id":2,"left_children":[1,3,5,7,9,11,13,-1,15,-1,-1,17,19,21,23,-1,-1,-1,-1,-1,-1,-1,-1,-1,-1],"loss_changes":[4.4973137E4,6.0465234E2,2.7302842E4,5.3553516E2,3.5338257E2,9.755223E3,4.9013213E3,0E0,4.147461E0,0E0,0E0,7.022079E3,2.1874805E3,1.8783643E3,1.4556357E3,0E0,0E0,0E0,0E0,0E0,0E0,0E0,0E0,0E0,0E0],"parents":[2147483647,0,0,1,1,2,2,3,3,4,4,5,5,6,6,8,8,11,11,12,12,13,13,14,14],"right_children":[2,4,6,8,10,12,14,-1,16,-1,-1,18,20,22,24,-1,-1,-1,-1,-1,-1,-1,-1,-1,-1],"split_conditions":[4E0,3E0,1.9E1,5E0,2E0,7E0,2.2E1,-9.903283E-1,1E0,-2.1772408E-1,-7.1192306E-1,5E0,5E0,4E0,4E0,-6.8068224E-1,-7.965147E-1,1.7744587E-1,-6.015854E-1,4.1225266E-1,2.3639718E-1,-3.4147823E-1,-3.7290677E-2,-8.187429E-1,-4.2698517E-1],"split_indices":[1,1,1,0,0,1,1,0,1,0,0,0,0,0,0,0,0,0,0,0,0,0,0,0,0],"split_type":[0,0,0,0,0,0,0,0,0,0,0,0,0,0,0,0,0,0,0,0,0,0,0,0,0],"sum_hessian":[5.168E3,5.53E2,4.615E3,4.82E2,7.1E1,3.308E3,1.307E3,2.71E2,2.11E2,2.2E1,4.9E1,4.67E2,2.841E3,8.75E2,4.32E2,6.7E1,1.44E2,2.6E2,2.07E2,1.421E3,1.42E3,3.19E2,5.56E2,1.45E2,2.87E2],"tree_param":{"num_deleted":"0","num_feature":"2","num_nodes":"25","size_leaf_vector":"1"}},{"base_weights":[-2.6325788E-3,-7.670008E0,9.175859E-1,-8.038966E0,-5.0883875E0,2.100026E0,-3.1653962E0,-8.9165956E-1,-6.8750305E0,-1.9689833E-1,-6.4215463E-1,-2.3743474E0,2.5626729E0,-1.8160268E0,-5.043463E0,-6.13615E-1,-7.174126E-1,4.6145067E-2,-6.158616E-1,2.9486495E-1,6.0640544E-2,-3.5959768E-1,-7.147348E-2,-7.374294E-1,-3.8443497E-1],"categories":[],"categories_nodes":[],"categories_segments":[],"categories_sizes":[],"default_left":[0,0,0,0,0,0,0,0,0,0,0,0,0,0,0,0,0,0,0,0,0,0,0,0,0],"id":3,"left_children":[1,3,5,7,9,11,13,-1,15,-1,-1,17,19,21,23,-1,-1,-1,-1,-1,-1,-1,-1,-1,-1],"loss_changes":[3.6477746E4,4.8678516E2,2.2292146E4,4.320879E2,2.867798E2,7.416882E3,2.6188125E3,0E0,2.8291016E0,0E0,0E0,3.6085994E3,2.4484258E3,1.1833779E3,1.1818564E3,0E0,0E0,0E0,0E0,0E0,0E0,0E0,0E0,0E0,0E0],"parents":[2147483647,0,0,1,1,2,2,3,3,4,4,5,5,6,6,8,8,11,11,12,12,13,13,14,14],"right_children":[2,4,6,8,10,12,14,-1,16,-1,-1,18,20,22,24,-1,-1,-1,-1,-1,-1,-1,-1,-1,-1],"split_conditions":[4E0,3E0,2E1,5E0,2E0,6E0,2.2E1,-8.9165956E-1,1E0,-1.9689833E-1,-6.4215463E-1,5E0,1.8E1,4E0,4E0,-6.13615E-1,-7.174126E-1,4.6145067E-2,-6.158616E-1,2.9486495E-1,6.0640544E-2,-3.5959768E-1,-7.147348E-2,-7.374294E-1,-3.8443497E-1],"split_indices":[1,1,1,0,0,1,1,0,1,0,0,0,1,0,0,0,0,0,0,0,0,0,0,0,0],"split_type":[0,0,0,0,0,0,0,0,0,0,0,0,0,0,0,0,0,0,0,0,0,0,0,0,0],"sum_hessian":[5.168E3,5.53E2,4.615E3,4.82E2,7.1E1,3.579E3,1.036E3,2.71E2,2.11E2,2.2E1,4.9E1,3.35E2,3.244E3,6.04E2,4.32E2,6.7E1,1.44E2,1.92E2,1.43E2,2.709E3,5.35E2,2.3E2,3.74E2,1.45E2,2.87E2],"tree_param":{"num_deleted":"0","num_feature":"2","num_nodes":"25","size_leaf_vector":"1"}},{"base_weights":[-3.303375E-3,-6.9085336E0,8.2544464E-1,-7.2396708E0,-4.5912023E0,2.0714965E0,-2.3274686E0,-8.0282146E-1,-6.1938057E0,-1.7806455E-1,-5.7922345E-1,-1.4305242E0,2.647455E0,-1.2303305E0,-4.541708E0,-5.531559E-1,-6.46166E-1,1.4869241E-1,-5.084483E-1,3.438802E-1,1.8536879E-1,-2.8327763E-1,-3.0750653E-2,-6.6419154E-1,-3.4612498E-1],"categories":[],"categories_nodes":[],"categories_segments":[],"categories_sizes":[],"default_left":[0,0,0,0,0,0,0,0,0,0,0,0,0,0,0,0,0,0,0,0,0,0,0,0,0],"id":4,"left_children":[1,3,5,7,9,11,13,-1,15,-1,-1,17,19,21,23,-1,-1,-1,-1,-1,-1,-1,-1,-1,-1],"loss_changes":[2.9586318E4,3.91875E2,1.813967E4,3.4860938E2,2.3272693E2,6.6781025E3,3.1719707E3,0E0,1.862793E0,0E0,0E0,4.9965513E3,1.7788125E3,1.2945361E3,9.5956836E2,0E0,0E0,0E0,0E0,0E0,0E0,0E0,0E0,0E0,0E0],"parents":[2147483647,0,0,1,1,2,2,3,3,4,4,5,5,6,6,8,8,11,11,12,12,13,13,14,14],"right_children":[2,4,6,8,10,12,14,-1,16,-1,-1,18,20,22,24,-1,-1,-1,-1,-1,-1,-1,-1,-1,-1],"split_conditions":[4E0,3E0,1.9E1,5E0,2E0,7E0,2.2E1,-8.0282146E-1,1E0,-1.7806455E-1,-5.7922345E-1,5E0,5E0,4E0,4E0,-5.531559E-1,-6.46166E-1,1.4869241E-1,-5.084483E-1,3.438802E-1,1.8536879E-1,-2.8327763E-1,-3.0750653E-2,-6.6419154E-1,-3.4612498E-1],"split_indices":[1,1,1,0,0,1,1,0,1,0,0,0,0,0,0,0,0,0,0,0,0,0,0,0,0],"split_type":[0,0,0,0,0,0,0,0,0,0,0,0,0,0,0,0,0,0,0,0,0,0,0,0,0],"sum_hessian":[5.168E3,5.53E2,4.615E3,4.82E2,7.1E1,3.308E3,1.307E3,2.71E2,2.11E2,2.2E1,4.9E1,4.67E2,2.841E3,8.75E2,4.32E2,6.7E1,1.44E2,2.6E2,2.07E2,1.421E3,1.42E3,3.19E2,5.56E2,1.45E2,2.87E2],"tree_param":{"num_deleted":"0","num_feature":"2","num_nodes":"25","size_leaf_vector":"1"}},{"base_weights":[-3.7304272E-3,-6.2226615E0,7.4264985E-1,-6.5198493E0,-4.1426E0,1.5477568E0,-3.2682033E0,-7.228345E-1,-5.5800824E0,-1.610323E-1,-5.224595E-1,-2.007182E0,1.8876176E0,-5.244267E0,-2.2309492E0,-4.9865374E-1,-5.819951E-1,2.6762282E-2,-5.0421137E-1,2.301179E-1,-4.0627193E-2,-4.3026567E-1,-5.982273E-1,-1.3737962E-1,-5.507701E-1],"categories":[],"categories_nodes":[],"categories_segments":[],"categories_sizes":[],"default_left":[0,0,0,0,0,0,0,0,0,0,0,0,0,0,0,0,0,0,0,0,0,0,0,0,0],"id":5,"left_children":[1,3,5,7,9,11,13,-1,15,-1,-1,17,19,21,23,-1,-1,-1,-1,-1,-1,-1,-1,-1,-1],"loss_changes":[2.3997504E4,3.1545703E2,1.4910885E4,2.8125586E2,1.8886035E2,4.649259E3,1.5706523E3,0E0,1.1616211E0,0E0,0E0,2.3210518E3,3.3307441E3,1.5841309E2,1.419242E3,0E0,0E0,0E0,0E0,0E0,0E0,0E0,0E0,0E0,0E0],"parents":[2147483647,0,0,1,1,2,2,3,3,4,4,5,5,6,6,8,8,11,11,12,12,13,13,14,14],"right_children":[2,4,6,8,10,12,14,-1,16,-1,-1,18,20,22,24,-1,-1,-1,-1,-1,-1,-1,-1,-1,-1],"split_conditions":[4E0,3E0,2.1E1,5E0,2E0,6E0,4E0,-7.228345E-1,1E0,-1.610323E-1,-5.224595E-1,5E0,1.9E1,2.2E1,7E0,-4.9865374E-1,-5.819951E-1,2.6762282E-2,-5.0421137E-1,2.301179E-1,-4.0627193E-2,-4.3026567E-1,-5.982273E-1,-1.3737962E-1,-5.507701E-1],"split_indices":[1,1,1,0,0,1,0,0,1,0,0,0,1,1,0,0,0,0,0,0,0,0,0,0,0],"split_type":[0,0,0,0,0,0,0,0,0,0,0,0,0,0,0,0,0,0,0,0,0,0,0,0,0],"sum_hessian":[5.168E3,5.53E2,4.615E3,4.82E2,7.1E1,3.844E3,7.71E2,2.71E2,2.11E2,2.2E1,4.9E1,3.35E2,3.509E3,2.64E2,5.07E2,6.7E1,1.44E2,1.92E2,1.43E2,2.973E3,5.36E2,1.19E2,1.45E2,4.03E2,1.04E2],"tree_param":{"num_deleted":"0","num_feature":"2","num_nodes":"25","size_leaf_vector":"1"}},{"base_weights":[-4.226437E-3,-5.604884E0,6.679505E-1,-5.8715982E0,-3.7378325E0,1.3929061E0,-2.9436066E0,-6.508168E-1,-5.0271716E0,-1.456292E-1,-4.7125846E-1,-1.8078846E0,1.6989096E0,-4.723721E0,-2.009209E0,-4.4952175E-1,-5.24197E-1,2.4099927E-2,-4.5414034E-1,2.1808796E-1,6.615368E-3,-3.8759768E-1,-5.388143E-1,-1.23675644E-1,-4.9621764E-1],"categories":[],"categories_nodes":[],"categories_segments":[],"categories_sizes":[],"default_left":[0,0,0,0,0,0,0,0,0,0,0,0,0,0,0,0,0,0,0,0,0,0,0,0,0],"id":6,"left_children":[1,3,5,7,9,11,13,-1,15,-1,-1,17,19,21,23,-1,-1,-1,-1,-1,-1,-1,-1,-1,-1],"loss_changes":[1.9463133E4,2.5392578E2,1.2089795E4,2.2691211E2,1.532605E2,3.7690713E3,1.2746045E3,0E0,6.6015625E-1,0E0,0E0,1.8829169E3,2.7620127E3,1.283794E2,1.1526245E3,0E0,0E0,0E0,0E0,0E0,0E0,0E0,0E0,0E0,0E0],"parents":[2147483647,0,0,1,1,2,2,3,3,4,4,5,5,6,6,8,8,11,11,12,12,13,13,14,14],"right_children":[2,4,6,8,10,12,14,-1,16,-1,-1,18,20,22,24,-1,-1,-1,-1,-1,-1,-1,-1,-1,-1],"split_conditions":[4E0,3E0,2.1E1,5E0,2E0,6E0,4E0,-6.508168E-1,1E0,-1.456292E-1,-4.7125846E-1,5E0,1.8E1,2.2E1,7E0,-4.4952175E-1,-5.24197E-1,2.4099927E-2,-4.5414034E-1,2.1808796E-1,6.615368E-3,-3.8759768E-1,-5.388143E-1,-1.23675644E-1,-4.9621764E-1],"split_indices":[1,1,1,0,0,1,0,0,1,0,0,0,1,1,0,0,0,0,0,0,0,0,0,0,0],"split_type":[0,0,0,0,0,0,0,0,0,0,0,0,0,0,0,0,0,0,0,0,0,0,0,0,0],"sum_hessian":[5.168E3,5.53E2,4.615E3,4.82E2,7.1E1,3.844E3,7.71E2,2.71E2,2.11E2,2.2E1,4.9E1,3.35E2,3.509E3,2.64E2,5.07E2,6.7E1,1.44E2,1.92E2,1.43E2,2.709E3,8E2,1.19E2,1.45E2,4.03E2,1.04E2],"tree_param":{"num_deleted":"0","num_feature":"2","num_nodes":"25","size_leaf_vector":"1"}},{"base_weights":[-4.576524E-3,-5.048442E0,6.007757E-1,-5.2878017E0,-3.3726172E0,1.3886582E0,-2.1197836E0,-5.859744E-1,-4.5290475E0,-1.3169947E-1,-4.2507514E-1,-5.914886E-1,1.9269899E0,-1.1857772E0,-3.4199088E0,-4.0523058E-1,-4.7213885E-1,1.9310567E-1,-3.69162E-1,2.4286704E-1,6.469835E-2,-2.5182185E-1,-3.6183145E-2,-4.8530194E-1,-2.6815268E-1],"categories":[],"categories_nodes":[],"categories_segments":[],"categories_sizes":[],"default_left":[0,0,0,0,0,0,0,0,0,0,0,0,0,0,0,0,0,0,0,0,0,0,0,0,0],"id":7,"left_children":[1,3,5,7,9,11,13,-1,15,-1,-1,17,19,21,23,-1,-1,-1,-1,-1,-1,-1,-1,-1,-1],"loss_changes":[1.5785619E4,2.0438965E2,9.897253E3,1.8306543E2,1.2436987E2,3.817334E3,1.2551997E3,0E0,3.076172E-1,0E0,0E0,5.9974185E3,1.8060928E3,6.632935E2,4.451797E2,0E0,0E0,0E0,0E0,0E0,0E0,0E0,0E0,0E0,0E0],"parents":[2147483647,0,0,1,1,2,2,3,3,4,4,5,5,6,6,8,8,11,11,12,12,13,13,14,14],"right_children":[2,4,6,8,10,12,14,-1,16,-1,-1,18,20,22,24,-1,-1,-1,-1,-1,-1,-1,-1,-1,-1],"split_conditions":[4E0,3E0,2E1,5E0,2E0,9E0,2.2E1,-5.859744E-1,1E0,-1.3169947E-1,-4.2507514E-1,5E0,1.7E1,4E0,4E0,-4.0523058E-1,-4.7213885E-1,1.9310567E-1,-3.69162E-1,2.4286704E-1,6.469835E-2,-2.5182185E-1,-3.6183145E-2,-4.8530194E-1,-2.6815268E-1],"split_indices":[1,1,1,0,0,1,1,0,1,0,0,0,1,0,0,0,0,0,0,0,0,0,0,0,0],"split_type":[0,0,0,0,0,0,0,0,0,0,0,0,0,0,0,0,0,0,0,0,0,0,0,0,0],"sum_hessian":[5.168E3,5.53E2,4.615E3,4.82E2,7.1E1,3.579E3,1.036E3,2.71E2,2.11E2,2.2E1,4.9E1,7.65E2,2.814E3,6.04E2,4.32E2,6.7E1,1.44E2,4.22E2,3.43E2,2.021E3,7.93E2,2.3E2,3.74E2,1.45E2,2.87E2],"tree_param":{"num_deleted":"0","num_feature":"2","num_nodes":"25","size_leaf_vector":"1"}},{"base_weights":[-4.685726E-3,-4.547244E0,5.4050106E-1,-4.7620516E0,-3.0430882E0,1.372139E0,-1.5638036E0,-5.2759237E0,-4.0802817E0,-1.1910211E-1,-3.8341776E-1,-5.325697E-1,1.9451085E0,-8.127432E-1,-3.0796583E0,-5.463437E-1,-4.7105432E-1,-3.653035E-1,-4.252506E-1,1.7384075E-1,-3.3235314E-1,1.22202195E-1,2.4110973E-1,-3.3511817E-1,-4.324093E-2,-4.3710414E-1,-2.4143057E-1],"categories":[],"categories_nodes":[],"categories_segments":[],"categories_sizes":[],"default_left":[0,0,0,0,0,0,0,0,0,0,0,0,0,0,0,0,0,0,0,0,0,0,0,0,0,0,0],"id":8,"left_children":[1,3,5,7,9,11,13,15,17,-1,-1,19,21,23,25,-1,-1,-1,-1,-1,-1,-1,-1,-1,-1,-1,-1],"loss_changes":[1.2803707E4,1.6450781E2,8.0802354E3,1.4768945E2,1.00924255E2,3.6122812E3,1.4866531E3,3.100586E0,6.4697266E-2,0E0,0E0,4.8608467E3,8.542549E2,8.442888E2,3.614912E2,0E0,0E0,0E0,0E0,0E0,0E0,0E0,0E0,0E0,0E0,0E0,0E0],"parents":[2147483647,0,0,1,1,2,2,3,3,4,4,5,5,6,6,7,7,8,8,11,11,12,12,13,13,14,14],"right_children":[2,4,6,8,10,12,14,16,18,-1,-1,20,22,24,26,-1,-1,-1,-1,-1,-1,-1,-1,-1,-1,-1,-1],"split_conditions":[4E0,3E0,1.9E1,5E0,2E0,9E0,2.2E1,2E0,1E0,-1.1910211E-1,-3.8341776E-1,5E0,1.3E1,2E0,4E0,-5.463437E-1,-4.7105432E-1,-3.653035E-1,-4.252506E-1,1.7384075E-1,-3.3235314E-1,1.22202195E-1,2.4110973E-1,-3.3511817E-1,-4.324093E-2,-4.3710414E-1,-2.4143057E-1],"split_indices":[1,1,1,0,0,1,1,1,1,0,0,0,1,0,0,0,0,0,0,0,0,0,0,0,0,0,0],"split_type":[0,0,0,0,0,0,0,0,0,0,0,0,0,0,0,0,0,0,0,0,0,0,0,0,0,0,0],"sum_hessian":[5.168E3,5.53E2,4.615E3,4.82E2,7.1E1,3.308E3,1.307E3,2.71E2,2.11E2,2.2E1,4.9E1,7.65E2,2.543E3,8.75E2,4.32E2,1.97E2,7.4E1,6.7E1,1.44E2,4.22E2,3.43E2,9.98E2,1.545E3,1.13E2,7.62E2,1.45E2,2.87E2],"tree_param":{"num_deleted":"0","num_feature":"2","num_nodes":"27","size_leaf_vector":"1"}},{"base_weights":[-4.8289895E-3,-3.1348004E0,6.4514756E-1,-4.2895894E0,-1.7566731E0,1.5480307E0,-1.4082315E0,-4.7520714E0,-3.6759827E-1,-2.4809891E-1,-3.428107E0,2.3305857E0,7.6179844E-1,-7.3190105E-1,-2.7732596E0,-4.9198523E-1,-4.245769E-1,-1.0586528E-1,3.3283714E-2,-2.5681895E-1,-4.2526838E-1,1.6517009E-1,2.9822502E-1,-3.8029075E-1,1.21365406E-1,-1.9158064E-1,-5.042604E-3,-2.3954439E-1,-4.8754254E-1],"categories":[],"categories_nodes":[],"categories_segments":[],"categories_sizes":[],"default_left":[0,0,0,0,0,0,0,0,0,0,0,0,0,0,0,0,0,0,0,0,0,0,0,0,0,0,0,0,0],"id":9,"left_children":[1,3,5,7,9,11,13,15,-1,17,19,21,23,25,27,-1,-1,-1,-1,-1,-1,-1,-1,-1,-1,-1,-1,-1,-1],"loss_changes":[1.0517878E4,1.4072617E3,7.938989E3,1.1959766E2,1.0253928E3,1.8280376E3,1.205529E3,2.2167969E0,0E0,1.01591545E2,1.2592822E2,6.542573E2,3.0675586E3,7.0666187E2,3.3222314E2,0E0,0E0,0E0,0E0,0E0,0E0,0E0,0E0,0E0,0E0,0E0,0E0,0E0,0E0],"parents":[2147483647,0,0,1,1,2,2,3,3,4,4,5,5,6,6,7,7,9,9,10,10,11,11,12,12,13,13,14,14],"right_children":[2,4,6,8,10,12,14,16,-1,18,20,22,24,26,28,-1,-1,-1,-1,-1,-1,-1,-1,-1,-1,-1,-1,-1,-1],"split_conditions":[6E0,3E0,1.9E1,5E0,5E0,5E0,2.2E1,2E0,-3.6759827E-1,2E0,7E0,1.3E1,8E0,4E0,7E0,-4.9198523E-1,-4.245769E-1,-1.0586528E-1,3.3283714E-2,-2.5681895E-1,-4.2526838E-1,1.6517009E-1,2.9822502E-1,-3.8029075E-1,1.21365406E-1,-1.9158064E-1,-5.042604E-3,-2.3954439E-1,-4.8754254E-1],"split_indices":[1,1,1,0,0,0,1,1,0,0,0,1,1,0,0,0,0,0,0,0,0,0,0,0,0,0,0,0,0],"split_type":[0,0,0,0,0,0,0,0,0,0,0,0,0,0,0,0,0,0,0,0,0,0,0,0,0,0,0,0,0],"sum_hessian":[5.168E3,8.88E2,4.28E3,4.82E2,4.06E2,2.973E3,1.307E3,2.71E2,2.11E2,2.14E2,1.92E2,1.489E3,1.484E3,8.75E2,4.32E2,1.97E2,7.4E1,8.9E1,1.25E2,9.6E1,9.6E1,7.31E2,7.58E2,1.33E2,1.351E3,3.19E2,5.56E2,3.68E2,6.4E1],"tree_param":{"num_deleted":"0","num_feature":"2","num_nodes":"29","size_leaf_vector":"1"}},{"base_weights":[-4.879557E-3,-2.823614E0,5.804649E-1,-3.863289E0,-1.5828602E0,1.3932965E0,-1.2681142E0,-4.280234E0,-3.3101182E0,-2.2362688E-1,-3.0888307E0,2.0978377E0,6.8544483E-1,-1.8846013E-1,-2.0174744E0,-4.430352E-1,-3.8268536E-1,-2.9309112E-1,-3.465125E-1,-9.5396355E-2,2.9981697E-2,-2.3140183E-1,-3.8317996E-1,1.78591E-1,3.2698402E-1,-3.4254545E-1,1.0923791E-1,2.0663189E-2,-1.7597668E-1,-3.3498648E-1,-1.318457E-1],"categories":[],"categories_nodes":[],"categories_segments":[],"categories_sizes":[],"default_left":[0,0,0,0,0,0,0,0,0,0,0,0,0,0,0,0,0,0,0,0,0,0,0,0,0,0,0,0,0,0,0],"id":10,"left_children":[1,3,5,7,9,11,13,15,17,19,21,23,25,27,29,-1,-1,-1,-1,-1,-1,-1,-1,-1,-1,-1,-1,-1,-1,-1,-1],"loss_changes":[8.530131E3,1.1406777E3,6.434327E3,9.723193E1,8.324242E2,1.481727E3,1.0578569E3,1.5585938E0,2.30542E0,8.247842E1,1.0223584E2,5.388745E2,2.4879473E3,3.3373895E2,7.1459644E2,0E0,0E0,0E0,0E0,0E0,0E0,0E0,0E0,0E0,0E0,0E0,0E0,0E0,0E0,0E0,0E0],"parents":[2147483647,0,0,1,1,2,2,3,3,4,4,5,5,6,6,7,7,8,8,9,9,10,10,11,11,12,12,13,13,14,14],"right_children":[2,4,6,8,10,12,14,16,18,20,22,24,26,28,30,-1,-1,-1,-1,-1,-1,-1,-1,-1,-1,-1,-1,-1,-1,-1,-1],"split_conditions":[6E0,3E0,1.9E1,5E0,5E0,5E0,2.1E1,2E0,1E0,2E0,7E0,4E0,8E0,7E0,4E0,-4.430352E-1,-3.8268536E-1,-2.9309112E-1,-3.465125E-1,-9.5396355E-2,2.9981697E-2,-2.3140183E-1,-3.8317996E-1,1.78591E-1,3.2698402E-1,-3.4254545E-1,1.0923791E-1,2.0663189E-2,-1.7597668E-1,-3.3498648E-1,-1.318457E-1],"split_indices":[1,1,1,0,0,0,1,1,1,0,0,0,1,0,0,0,0,0,0,0,0,0,0,0,0,0,0,0,0,0,0],"split_type":[0,0,0,0,0,0,0,0,0,0,0,0,0,0,0,0,0,0,0,0,0,0,0,0,0,0,0,0,0,0,0],"sum_hessian":[5.168E3,8.88E2,4.28E3,4.82E2,4.06E2,2.973E3,1.307E3,2.71E2,2.11E2,2.14E2,1.92E2,1.489E3,1.484E3,5.36E2,7.71E2,1.97E2,7.4E1,6.7E1,1.44E2,8.9E1,1.25E2,9.6E1,9.6E1,1.178E3,3.11E2,1.33E2,1.351E3,4.29E2,1.07E2,2.64E2,5.07E2],"tree_param":{"num_deleted":"0","num_feature":"2","num_nodes":"31","size_leaf_vector":"1"}},{"base_weights":[-4.874283E-3,-2.543666E0,5.223368E-1,-3.479994E0,-1.4262451E0,1.2540586E0,-1.1417786E0,-3.8552463E0,-2.9821234E0,-2.0156856E-1,-2.7831323E0,1.5528553E0,-2.6012713E-1,-5.6894153E-1,-2.2980452E0,-3.9895543E-1,-3.4492707E-1,-2.64213E-1,-3.1210023E-1,-8.596276E-2,2.7007332E-2,-2.0850025E-1,-3.45257E-1,1.1001903E-1,1.972333E-1,-1.6303954E-1,1.5064982E-1,-2.706077E-1,-2.4888601E-2,-1.945235E-1,-4.2655668E-1],"categories":[],"categories_nodes":[],"categories_segments":[],"categories_sizes":[],"default_left":[0,0,0,0,0,0,0,0,0,0,0,0,0,0,0,0,0,0,0,0,0,0,0,0,0,0,0,0,0,0,0],"id":11,"left_children":[1,3,5,7,9,11,13,15,17,19,21,23,25,27,29,-1,-1,-1,-1,-1,-1,-1,-1,-1,-1,-1,-1,-1,-1,-1,-1],"loss_changes":[6.919927E3,9.2517236E2,5.2142744E3,7.874121E1,6.757705E2,1.3459424E3,8.650493E2,1.0700684E0,1.7640381E0,6.696132E1,8.300073E1,4.6949902E2,1.1910444E3,5.985123E2,2.922744E2,0E0,0E0,0E0,0E0,0E0,0E0,0E0,0E0,0E0,0E0,0E0,0E0,0E0,0E0,0E0,0E0],"parents":[2147483647,0,0,1,1,2,2,3,3,4,4,5,5,6,6,7,7,8,8,9,9,10,10,11,11,12,12,13,13,14,14],"right_children":[2,4,6,8,10,12,14,16,18,20,22,24,26,28,30,-1,-1,-1,-1,-1,-1,-1,-1,-1,-1,-1,-1,-1,-1,-1,-1],"split_conditions":[6E0,3E0,1.9E1,5E0,5E0,7E0,2.2E1,2E0,1E0,2E0,7E0,1.3E1,1.4E1,2E0,7E0,-3.9895543E-1,-3.4492707E-1,-2.64213E-1,-3.1210023E-1,-8.596276E-2,2.7007332E-2,-2.0850025E-1,-3.45257E-1,1.1001903E-1,1.972333E-1,-1.6303954E-1,1.5064982E-1,-2.706077E-1,-2.4888601E-2,-1.945235E-1,-4.2655668E-1],"split_indices":[1,1,1,0,0,0,1,1,1,0,0,1,1,0,0,0,0,0,0,0,0,0,0,0,0,0,0,0,0,0,0],"split_type":[0,0,0,0,0,0,0,0,0,0,0,0,0,0,0,0,0,0,0,0,0,0,0,0,0,0,0,0,0,0,0],"sum_hessian":[5.168E3,8.88E2,4.28E3,4.82E2,4.06E2,2.973E3,1.307E3,2.71E2,2.11E2,2.14E2,1.92E2,2.483E3,4.9E2,8.75E2,4.32E2,1.97E2,7.4E1,6.7E1,1.44E2,8.9E1,1.25E2,9.6E1,9.6E1,1.196E3,1.287E3,2.76E2,2.14E2,1.13E2,7.62E2,3.68E2,6.4E1],"tree_param":{"num_deleted":"0","num_feature":"2","num_nodes":"31","size_leaf_vector":"1"}},{"base_weights":[-4.881101E-3,-2.2914736E0,4.6995786E-1,-3.134728E0,-1.2851262E0,1.233369E0,-8.4639966E-1,-3.4724567E0,-2.6866293E0,-1.81686E-1,-2.5076885E0,5.9249973E-1,1.9467611E0,-5.862283E-2,-1.6626729E0,-3.5926136E-1,-3.1089425E-1,-2.3818024E-1,-2.8110543E-1,-7.746203E-2,2.4328046E-2,-1.8786518E-1,-3.1108728E-1,9.9026255E-2,-1.4534858E-1,2.3409979E-1,3.8056314E-2,-1.05150715E-1,5.1303476E-2,-2.8558752E-1,-1.0369617E-1],"categories":[],"categories_nodes":[],"categories_segments":[],"categories_sizes":[],"default_left":[0,0,0,0,0,0,0,0,0,0,0,0,0,0,0,0,0,0,0,0,0,0,0,0,0,0,0,0,0,0,0],"id":12,"left_children":[1,3,5,7,9,11,13,15,17,19,21,23,25,27,29,-1,-1,-1,-1,-1,-1,-1,-1,-1,-1,-1,-1,-1,-1,-1,-1],"loss_changes":[5.6133867E3,7.503833E2,4.3031147E3,6.3765625E1,5.4859735E2,1.237835E3,1.01076294E3,7.114258E-1,1.345459E0,5.436354E1,6.7384766E1,1.1643838E3,7.906836E2,4.551789E2,5.734138E2,0E0,0E0,0E0,0E0,0E0,0E0,0E0,0E0,0E0,0E0,0E0,0E0,0E0,0E0,0E0,0E0],"parents":[2147483647,0,0,1,1,2,2,3,3,4,4,5,5,6,6,7,7,8,8,9,9,10,10,11,11,12,12,13,13,14,14],"right_children":[2,4,6,8,10,12,14,16,18,20,22,24,26,28,30,-1,-1,-1,-1,-1,-1,-1,-1,-1,-1,-1,-1,-1,-1,-1,-1],"split_conditions":[6E0,3E0,1.8E1,5E0,5E0,1.3E1,2.1E1,2E0,1E0,2E0,7E0,7E0,1.7E1,4E0,4E0,-3.5926136E-1,-3.1089425E-1,-2.3818024E-1,-2.8110543E-1,-7.746203E-2,2.4328046E-2,-1.8786518E-1,-3.1108728E-1,9.9026255E-2,-1.4534858E-1,2.3409979E-1,3.8056314E-2,-1.05150715E-1,5.1303476E-2,-2.8558752E-1,-1.0369617E-1],"split_indices":[1,1,1,0,0,1,1,1,1,0,0,0,1,0,0,0,0,0,0,0,0,0,0,0,0,0,0,0,0,0,0],"split_type":[0,0,0,0,0,0,0,0,0,0,0,0,0,0,0,0,0,0,0,0,0,0,0,0,0,0,0,0,0,0,0],"sum_hessian":[5.168E3,8.88E2,4.28E3,4.82E2,4.06E2,2.709E3,1.571E3,2.71E2,2.11E2,2.14E2,1.92E2,1.428E3,1.281E3,8E2,7.71E2,1.97E2,7.4E1,6.7E1,1.44E2,8.9E1,1.25E2,9.6E1,9.6E1,1.196E3,2.32E2,1.023E3,2.58E2,2.92E2,5.08E2,2.64E2,5.07E2],"tree_param":{"num_deleted":"0","num_feature":"2","num_nodes":"31","size_leaf_vector":"1"}},{"base_weights":[-4.7719437E-3,-2.064285E0,4.2291132E-1,-2.8237178E0,-1.1579701E0,1.1101155E0,-7.6204187E-1,-3.1276746E0,-2.4204159E0,-1.6376445E-1,-2.2595048E0,1.7418734E0,4.8172212E-1,-5.2827958E-2,-1.4969101E0,-3.2351667E-1,-2.802194E-1,-2.1471249E-1,-2.5318873E-1,-6.980189E-2,2.1914555E-2,-1.6927235E-1,-2.8029928E-1,1.21167175E-1,2.8150144E-1,-3.1153244E-1,8.7416105E-2,2.893701E-2,-1.6029748E-1,-2.5713655E-1,-9.334699E-2],"categories":[],"categories_nodes":[],"categories_segments":[],"categories_sizes":[],"default_left":[0,0,0,0,0,0,0,0,0,0,0,0,0,0,0,0,0,0,0,0,0,0,0,0,0,0,0,0,0,0,0],"id":13,"left_children":[1,3,5,7,9,11,13,15,17,19,21,23,25,27,29,-1,-1,-1,-1,-1,-1,-1,-1,-1,-1,-1,-1,-1,-1,-1,-1],"loss_changes":[4.5538276E3,6.086155E2,3.4868848E3,5.1638916E1,4.4535687E2,1.0750103E3,8.1921405E2,4.506836E-1,1.0220947E0,4.4135807E1,5.470685E1,7.652827E2,1.9225276E3,4.2536008E2,4.649618E2,0E0,0E0,0E0,0E0,0E0,0E0,0E0,0E0,0E0,0E0,0E0,0E0,0E0,0E0,0E0,0E0],"parents":[2147483647,0,0,1,1,2,2,3,3,4,4,5,5,6,6,7,7,8,8,9,9,10,10,11,11,12,12,13,13,14,14],"right_children":[2,4,6,8,10,12,14,16,18,20,22,24,26,28,30,-1,-1,-1,-1,-1,-1,-1,-1,-1,-1,-1,-1,-1,-1,-1,-1],"split_conditions":[6E0,3E0,1.8E1,5E0,5E0,5E0,2.1E1,2E0,1E0,2E0,7E0,1.4E1,8E0,7E0,4E0,-3.2351667E-1,-2.802194E-1,-2.1471249E-1,-2.5318873E-1,-6.980189E-2,2.1914555E-2,-1.6927235E-1,-2.8029928E-1,1.21167175E-1,2.8150144E-1,-3.1153244E-1,8.7416105E-2,2.893701E-2,-1.6029748E-1,-2.5713655E-1,-9.334699E-2],"split_indices":[1,1,1,0,0,0,1,1,1,0,0,1,1,0,0,0,0,0,0,0,0,0,0,0,0,0,0,0,0,0,0],"split_type":[0,0,0,0,0,0,0,0,0,0,0,0,0,0,0,0,0,0,0,0,0,0,0,0,0,0,0,0,0,0,0],"sum_hessian":[5.168E3,8.88E2,4.28E3,4.82E2,4.06E2,2.709E3,1.571E3,2.71E2,2.11E2,2.14E2,1.92E2,1.35E3,1.359E3,8E2,7.71E2,1.97E2,7.4E1,6.7E1,1.44E2,8.9E1,1.25E2,9.6E1,9.6E1,9.05E2,4.45E2,1.33E2,1.226E3,6.56E2,1.44E2,2.64E2,5.07E2],"tree_param":{"num_deleted":"0","num_feature":"2","num_nodes":"31","size_leaf_vector":"1"}},{"base_weights":[-4.656813E-3,-1.8596215E0,3.8054952E-1,-2.5435646E0,-1.0433953E0,1.0865682E0,-5.656463E-1,-2.8171268E0,-2.1805813E0,-1.4761062E-1,-2.035884E0,6.122993E-1,2.5208297E0,4.9774586E-3,-1.3476734E0,-2.9132837E-1,-2.5257108E-1,-1.9355696E-1,-2.280445E-1,-6.2899224E-2,1.9740487E-2,-1.525196E-1,-2.5255832E-1,8.856901E-2,-7.0742734E-2,3.50293E-1,2.0807031E-1,3.1821195E-2,-1.429333E-1,-1.0489165E-1,-3.235502E-1],"categories":[],"categories_nodes":[],"categories_segments":[],"categories_sizes":[],"default_left":[0,0,0,0,0,0,0,0,0,0,0,0,0,0,0,0,0,0,0,0,0,0,0,0,0,0,0,0,0,0,0],"id":14,"left_children":[1,3,5,7,9,11,13,15,17,19,21,23,25,27,29,-1,-1,-1,-1,-1,-1,-1,-1,-1,-1,-1,-1,-1,-1,-1,-1],"loss_changes":[3.6941865E3,4.9363232E2,2.8604592E3,4.181787E1,3.615453E2,1.6663696E3,8.166319E2,2.6391602E-1,7.732544E-1,3.583225E1,4.4414124E1,6.6594366E2,2.5595117E2,4.7623758E2,4.3201575E2,0E0,0E0,0E0,0E0,0E0,0E0,0E0,0E0,0E0,0E0,0E0,0E0,0E0,0E0,0E0,0E0],"parents":[2147483647,0,0,1,1,2,2,3,3,4,4,5,5,6,6,7,7,8,8,9,9,10,10,11,11,12,12,13,13,14,14],"right_children":[2,4,6,8,10,12,14,16,18,20,22,24,26,28,30,-1,-1,-1,-1,-1,-1,-1,-1,-1,-1,-1,-1,-1,-1,-1,-1],"split_conditions":[6E0,3E0,1.7E1,5E0,5E0,1.5E1,2.1E1,2E0,1E0,2E0,7E0,7E0,3E0,7E0,7E0,-2.9132837E-1,-2.5257108E-1,-1.9355696E-1,-2.280445E-1,-6.2899224E-2,1.9740487E-2,-1.525196E-1,-2.5255832E-1,8.856901E-2,-7.0742734E-2,3.50293E-1,2.0807031E-1,3.1821195E-2,-1.429333E-1,-1.0489165E-1,-3.235502E-1],"split_indices":[1,1,1,0,0,1,1,1,1,0,0,0,0,0,0,0,0,0,0,0,0,0,0,0,0,0,0,0,0,0,0],"split_type":[0,0,0,0,0,0,0,0,0,0,0,0,0,0,0,0,0,0,0,0,0,0,0,0,0,0,0,0,0,0,0],"sum_hessian":[5.168E3,8.88E2,4.28E3,4.82E2,4.06E2,2.451E3,1.829E3,2.71E2,2.11E2,2.14E2,1.92E2,1.843E3,6.08E2,1.058E3,7.71E2,1.97E2,7.4E1,6.7E1,1.44E2,8.9E1,1.25E2,9.6E1,9.6E1,1.527E3,3.16E2,1.86E2,4.22E2,8.69E2,1.89E2,6.67E2,1.04E2],"tree_param":{"num_deleted":"0","num_feature":"2","num_nodes":"31","size_leaf_vector":"1"}},{"base_weights":[-4.4576116E-3,-1.6752496E0,3.4250304E-1,-2.291207E0,-9.4015694E-1,7.5978637E-1,-9.635981E-1,-2.5374136E0,-1.964512E0,-1.3304998E-1,-1.8343945E0,9.756755E-1,-2.815576E-1,-6.520024E-1,-2.8759522E0,-2.3782949E-1,-2.7003577E-1,-1.7448594E-1,-2.0539732E-1,-5.667914E-2,1.7782131E-2,-1.374249E-1,-2.2756286E-1,1.1848821E-1,3.111889E-2,-3.3549222E-1,1.5179689E-2,-1.8042177E-1,1.8561339E-2,-2.451494E-1,-5.2655405E-1],"categories":[],"categories_nodes":[],"categories_segments":[],"categories_sizes":[],"default_left":[0,0,0,0,0,0,0,0,0,0,0,0,0,0,0,0,0,0,0,0,0,0,0,0,0,0,0,0,0,0,0],"id":15,"left_children":[1,3,5,7,9,11,13,15,17,19,21,23,25,27,29,-1,-1,-1,-1,-1,-1,-1,-1,-1,-1,-1,-1,-1,-1,-1,-1],"loss_changes":[2.9970383E3,4.0037256E2,2.333938E3,3.386499E1,2.9350626E2,7.297992E2,6.1605383E2,6.300049E-1,5.819702E-1,2.9090906E1,3.605786E1,3.7330347E2,7.43685E2,8.621815E2,1.3416223E2,0E0,0E0,0E0,0E0,0E0,0E0,0E0,0E0,0E0,0E0,0E0,0E0,0E0,0E0,0E0,0E0],"parents":[2147483647,0,0,1,1,2,2,3,3,4,4,5,5,6,6,7,7,8,8,9,9,10,10,11,11,12,12,13,13,14,14],"right_children":[2,4,6,8,10,12,14,16,18,20,22,24,26,28,30,-1,-1,-1,-1,-1,-1,-1,-1,-1,-1,-1,-1,-1,-1,-1,-1],"split_conditions":[6E0,3E0,2E1,5E0,5E0,7E0,7E0,2E0,1E0,2E0,7E0,1.7E1,9E0,4E0,2.3E1,-2.3782949E-1,-2.7003577E-1,-1.7448594E-1,-2.0539732E-1,-5.667914E-2,1.7782131E-2,-1.374249E-1,-2.2756286E-1,1.1848821E-1,3.111889E-2,-3.3549222E-1,1.5179689E-2,-1.8042177E-1,1.8561339E-2,-2.451494E-1,-5.2655405E-1],"split_indices":[1,1,1,0,0,0,0,0,1,0,0,1,1,0,1,0,0,0,0,0,0,0,0,0,0,0,0,0,0,0,0],"split_type":[0,0,0,0,0,0,0,0,0,0,0,0,0,0,0,0,0,0,0,0,0,0,0,0,0,0,0,0,0,0,0],"sum_hessian":[5.168E3,8.88E2,4.28E3,4.82E2,4.06E2,3.244E3,1.036E3,2.71E2,2.11E2,2.14E2,1.92E2,2.687E3,5.57E2,8.92E2,1.44E2,1.45E2,1.26E2,6.7E1,1.44E2,8.9E1,1.25E2,9.6E1,9.6E1,2.043E3,6.44E2,6.8E1,4.89E2,3.75E2,5.17E2,1.24E2,2E1],"tree_param":{"num_deleted":"0","num_feature":"2","num_nodes":"31","size_leaf_vector":"1"}},{"base_weights":[-4.475456E-3,-1.5091776E0,3.0799466E-1,-2.0639243E0,-8.471336E-1,6.222343E-1,-1.1211361E0,-2.2855394E0,-1.7698526E0,-1.1992595E-1,-1.6528461E0,8.3312386E-1,-4.0609953E-1,-2.0309625E0,-6.443149E-1,-2.3663035E-1,-2.0418485E-1,-1.9277363E-1,-1.6445439E-1,-5.1074244E-2,1.6018046E-2,-1.2382408E-1,-2.0504117E-1,1.0664518E-1,2.8397972E-2,-3.024292E-1,-6.4474284E-3,-1.624929E-1,-2.3507781E-1,-1.2959691E-2,-2.6186174E-1],"categories":[],"categories_nodes":[],"categories_segments":[],"categories_sizes":[],"default_left":[0,0,0,0,0,0,0,0,0,0,0,0,0,0,0,0,0,0,0,0,0,0,0,0,0,0,0,0,0,0,0],"id":16,"left_children":[1,3,5,7,9,11,13,15,17,19,21,23,25,27,29,-1,-1,-1,-1,-1,-1,-1,-1,-1,-1,-1,-1,-1,-1,-1,-1],"loss_changes":[2.4307969E3,3.247517E2,1.9232494E3,2.7432373E1,2.382713E2,7.615342E2,3.3360406E2,5.218506E-1,1.0239868E0,2.3617903E1,2.9273804E1,3.7294153E2,5.3468054E2,3.0591797E1,5.158948E2,0E0,0E0,0E0,0E0,0E0,0E0,0E0,0E0,0E0,0E0,0E0,0E0,0E0,0E0,0E0,0E0],"parents":[2147483647,0,0,1,1,2,2,3,3,4,4,5,5,6,6,7,7,8,8,9,9,10,10,11,11,12,12,13,13,14,14],"right_children":[2,4,6,8,10,12,14,16,18,20,22,24,26,28,30,-1,-1,-1,-1,-1,-1,-1,-1,-1,-1,-1,-1,-1,-1,-1,-1],"split_conditions":[6E0,3E0,2.1E1,5E0,5E0,7E0,4E0,2E0,7E0,2E0,7E0,1.7E1,9E0,2.2E1,7E0,-2.3663035E-1,-2.0418485E-1,-1.9277363E-1,-1.6445439E-1,-5.1074244E-2,1.6018046E-2,-1.2382408E-1,-2.0504117E-1,1.0664518E-1,2.8397972E-2,-3.024292E-1,-6.4474284E-3,-1.624929E-1,-2.3507781E-1,-1.2959691E-2,-2.6186174E-1],"split_indices":[1,1,1,0,0,0,0,1,0,0,0,1,1,1,0,0,0,0,0,0,0,0,0,0,0,0,0,0,0,0,0],"split_type":[0,0,0,0,0,0,0,0,0,0,0,0,0,0,0,0,0,0,0,0,0,0,0,0,0,0,0,0,0,0,0],"sum_hessian":[5.168E3,8.88E2,4.28E3,4.82E2,4.06E2,3.509E3,7.71E2,2.71E2,2.11E2,2.14E2,1.92E2,2.912E3,5.97E2,2.64E2,5.07E2,1.97E2,7.4E1,8.7E1,1.24E2,8.9E1,1.25E2,9.6E1,9.6E1,2.043E3,8.69E2,6.8E1,5.29E2,1.19E2,1.45E2,4.03E2,1.04E2],"tree_param":{"num_deleted":"0","num_feature":"2","num_nodes":"31","size_leaf_vector":"1"}},{"base_weights":[-4.416608E-3,-1.3595668E0,2.769973E-1,-1.859184E0,-7.6331437E-1,8.070452E-1,-4.3336034E-1,-2.058606E0,-1.5945524E0,-1.080964E-1,-1.4892654E0,3.8699695E-1,2.0775902E0,-2.854395E-1,-2.3980153E0,-1.9235298E-1,-2.1976809E-1,-1.3921623E-1,-1.6784693E-1,1.617024E-2,-4.9187563E-2,-1.1156932E-1,-1.8474846E-1,5.7219196E-2,-5.0689872E-2,2.930581E-1,1.6955882E-1,-9.184799E-2,1.1108718E-2,-1.9642402E-1,-4.5146677E-1],"categories":[],"categories_nodes":[],"categories_segments":[],"categories_sizes":[],"default_left":[0,0,0,0,0,0,0,0,0,0,0,0,0,0,0,0,0,0,0,0,0,0,0,0,0,0,0,0,0,0,0],"id":17,"left_children":[1,3,5,7,9,11,13,15,17,19,21,23,25,27,29,-1,-1,-1,-1,-1,-1,-1,-1,-1,-1,-1,-1,-1,-1,-1,-1],"loss_changes":[1.9716167E3,2.634121E2,1.6122473E3,2.220691E1,1.9343108E2,1.3078042E3,5.311381E2,8.823242E-1,1.263916E0,2.2341318E1,2.3766205E1,3.0555496E2,1.9346997E2,4.275847E2,1.08655396E2,0E0,0E0,0E0,0E0,0E0,0E0,0E0,0E0,0E0,0E0,0E0,0E0,0E0,0E0,0E0,0E0],"parents":[2147483647,0,0,1,1,2,2,3,3,4,4,5,5,6,6,7,7,8,8,9,9,10,10,11,11,12,12,13,13,14,14],"right_children":[2,4,6,8,10,12,14,16,18,20,22,24,26,28,30,-1,-1,-1,-1,-1,-1,-1,-1,-1,-1,-1,-1,-1,-1,-1,-1],"split_conditions":[6E0,3E0,1.7E1,5E0,5E0,1.5E1,2.3E1,2E0,1E0,3E0,7E0,7E0,3E0,4E0,7E0,-1.9235298E-1,-2.1976809E-1,-1.3921623E-1,-1.6784693E-1,1.617024E-2,-4.9187563E-2,-1.1156932E-1,-1.8474846E-1,5.7219196E-2,-5.0689872E-2,2.930581E-1,1.6955882E-1,-9.184799E-2,1.1108718E-2,-1.9642402E-1,-4.5146677E-1],"split_indices":[1,1,1,0,0,1,1,0,1,0,0,0,0,0,0,0,0,0,0,0,0,0,0,0,0,0,0,0,0,0,0],"split_type":[0,0,0,0,0,0,0,0,0,0,0,0,0,0,0,0,0,0,0,0,0,0,0,0,0,0,0,0,0,0,0],"sum_hessian":[5.168E3,8.88E2,4.28E3,4.82E2,4.06E2,2.451E3,1.829E3,2.71E2,2.11E2,2.14E2,1.92E2,1.843E3,6.08E2,1.702E3,1.27E2,1.45E2,1.26E2,6.7E1,1.44E2,1.26E2,8.8E1,9.6E1,9.6E1,1.527E3,3.16E2,1.86E2,4.22E2,6.55E2,1.047E3,1.07E2,2E1],"tree_param":{"num_deleted":"0","num_feature":"2","num_nodes":"31","size_leaf_vector":"1"}},{"base_weights":[-4.227781E-3,-1.2247895E0,2.492372E-1,-1.6071624E0,-5.906843E-1,5.123653E-1,-9.474321E-1,-1.6747545E0,-1.1314096E0,-4.7325477E-2,-1.314834E0,6.930844E-1,-3.6881745E-1,-1.7307618E0,-5.3694034E-1,-1.7936324E-1,-1.3199396E-1,-5.1373422E-2,-1.3929121E-1,2.8871058E-2,-4.4324074E-2,-8.4598534E-2,-1.771933E-1,8.630696E-2,2.929203E-2,-2.676291E-1,-6.771465E-3,-2.1529357E-1,-1.4402543E-1,-8.203151E-3,-2.2821426E-1],"categories":[],"categories_nodes":[],"categories_segments":[],"categories_sizes":[],"default_left":[0,0,0,0,0,0,0,0,0,0,0,0,0,0,0,0,0,0,0,0,0,0,0,0,0,0,0,0,0,0,0],"id":18,"left_children":[1,3,5,7,9,11,13,15,17,19,21,23,25,27,29,-1,-1,-1,-1,-1,-1,-1,-1,-1,-1,-1,-1,-1,-1,-1,-1],"loss_changes":[1.599437E3,2.1460168E2,1.348475E3,1.5920166E1,1.3214476E2,5.592112E2,2.4730756E2,1.8005371E1,1.0914116E1,2.5805035E1,2.9361633E1,1.9789514E2,4.153012E2,2.9400024E1,4.0311804E2,0E0,0E0,0E0,0E0,0E0,0E0,0E0,0E0,0E0,0E0,0E0,0E0,0E0,0E0,0E0,0E0],"parents":[2147483647,0,0,1,1,2,2,3,3,4,4,5,5,6,6,7,7,8,8,9,9,10,10,11,11,12,12,13,13,14,14],"right_children":[2,4,6,8,10,12,14,16,18,20,22,24,26,28,30,-1,-1,-1,-1,-1,-1,-1,-1,-1,-1,-1,-1,-1,-1,-1,-1],"split_conditions":[6E0,4E0,2.1E1,3E0,5E0,7E0,4E0,7E0,2E0,3E0,7E0,1.7E1,9E0,2E0,7E0,-1.7936324E-1,-1.3199396E-1,-5.1373422E-2,-1.3929121E-1,2.8871058E-2,-4.4324074E-2,-8.4598534E-2,-1.771933E-1,8.630696E-2,2.929203E-2,-2.676291E-1,-6.771465E-3,-2.1529357E-1,-1.4402543E-1,-8.203151E-3,-2.2821426E-1],"split_indices":[1,1,1,1,0,0,0,0,0,0,0,1,1,0,0,0,0,0,0,0,0,0,0,0,0,0,0,0,0,0,0],"split_type":[0,0,0,0,0,0,0,0,0,0,0,0,0,0,0,0,0,0,0,0,0,0,0,0,0,0,0,0,0,0,0],"sum_hessian":[5.168E3,8.88E2,4.28E3,5.53E2,3.35E2,3.509E3,7.71E2,4.82E2,7.1E1,1.92E2,1.43E2,2.912E3,5.97E2,2.64E2,5.07E2,3.58E2,1.24E2,2.2E1,4.9E1,1.04E2,8.8E1,7.2E1,7.1E1,2.043E3,8.69E2,6.8E1,5.29E2,1.05E2,1.59E2,4.03E2,1.04E2],"tree_param":{"num_deleted":"0","num_feature":"2","num_nodes":"31","size_leaf_vector":"1"}},{"base_weights":[-4.1019088E-3,-1.1031871E0,2.2413702E-1,-1.4473523E0,-5.3244096E-1,6.121579E-1,-4.449219E-1,-1.5079237E0,-1.0209167E0,-4.2672932E-2,-1.1851687E0,1.4563233E-1,1.1316999E0,-1.2278388E0,-1.5266765E-2,-1.6755567E-1,-1.2857348E-1,-4.645944E-2,-1.2564066E-1,2.601148E-2,-3.9941493E-2,-7.625457E-2,-1.597201E-1,3.555143E-2,-9.3322754E-2,1.7205827E-1,5.793032E-2,-1.8726492E-1,-8.780705E-2,4.95592E-2,-1.5908661E-1],"categories":[],"categories_nodes":[],"categories_segments":[],"categories_sizes":[],"default_left":[0,0,0,0,0,0,0,0,0,0,0,0,0,0,0,0,0,0,0,0,0,0,0,0,0,0,0,0,0,0,0],"id":19,"left_children":[1,3,5,7,9,11,13,15,17,19,21,23,25,27,29,-1,-1,-1,-1,-1,-1,-1,-1,-1,-1,-1,-1,-1,-1,-1,-1],"loss_changes":[1.2969119E3,1.7385632E2,1.1116576E3,1.2770386E1,1.0736365E2,6.56684E2,5.2877734E2,1.5835449E1,8.848877E0,2.0951195E1,2.3857391E1,3.2390488E2,4.1603394E2,1.2397821E2,8.185757E2,0E0,0E0,0E0,0E0,0E0,0E0,0E0,0E0,0E0,0E0,0E0,0E0,0E0,0E0,0E0,0E0],"parents":[2147483647,0,0,1,1,2,2,3,3,4,4,5,5,6,6,7,7,8,8,9,9,10,10,11,11,12,12,13,13,14,14],"right_children":[2,4,6,8,10,12,14,16,18,20,22,24,26,28,30,-1,-1,-1,-1,-1,-1,-1,-1,-1,-1,-1,-1,-1,-1,-1,-1],"split_conditions":[6E0,4E0,1.8E1,3E0,5E0,1.3E1,4E0,5E0,2E0,3E0,7E0,7E0,5E0,2E0,7E0,-1.6755567E-1,-1.2857348E-1,-4.645944E-2,-1.2564066E-1,2.601148E-2,-3.9941493E-2,-7.625457E-2,-1.597201E-1,3.555143E-2,-9.3322754E-2,1.7205827E-1,5.793032E-2,-1.8726492E-1,-8.780705E-2,4.95592E-2,-1.5908661E-1],"split_indices":[1,1,1,1,0,1,0,0,0,0,0,0,0,0,0,0,0,0,0,0,0,0,0,0,0,0,0,0,0,0,0],"split_type":[0,0,0,0,0,0,0,0,0,0,0,0,0,0,0,0,0,0,0,0,0,0,0,0,0,0,0,0,0,0,0],"sum_hessian":[5.168E3,8.88E2,4.28E3,5.53E2,3.35E2,2.709E3,1.571E3,4.82E2,7.1E1,1.92E2,1.43E2,1.428E3,1.281E3,5.56E2,1.015E3,2.71E2,2.11E2,2.2E1,4.9E1,1.04E2,8.8E1,7.2E1,7.1E1,1.196E3,2.32E2,6.19E2,6.62E2,1.94E2,3.62E2,7.67E2,2.48E2],"tree_param":{"num_deleted":"0","num_feature":"2","num_nodes":"31","size_leaf_vector":"1"}},{"base_weights":[-3.8716644E-3,-9.936762E-1,2.0167379E-1,-1.3034623E0,-4.799405E-1,4.250827E-1,-8.143456E-1,-1.3577446E0,-9.2121524E-1,-3.8477503E-2,-1.0682907E0,5.695351E-1,-2.7929E-1,-5.6292546E-1,-2.0749052E0,-1.5086171E-1,-1.1577679E-1,-4.2015515E-2,-1.1332786E-1,-5.106119E-2,2.1663057E-2,-6.873358E-2,-1.4396992E-1,3.199929E-2,7.4317075E-2,-2.3205705E-1,-1.3011396E-3,-1.3710937E-1,-6.1220047E-3,-1.736622E-1,-3.7158415E-1],"categories":[],"categories_nodes":[],"categories_segments":[],"categories_sizes":[],"default_left":[0,0,0,0,0,0,0,0,0,0,0,0,0,0,0,0,0,0,0,0,0,0,0,0,0,0,0,0,0,0,0],"id":20,"left_children":[1,3,5,7,9,11,13,15,17,19,21,23,25,27,29,-1,-1,-1,-1,-1,-1,-1,-1,-1,-1,-1,-1,-1,-1,-1,-1],"loss_changes":[1.0518325E3,1.4085718E2,9.720808E2,1.0244324E1,8.7229805E1,3.572956E2,2.4350195E2,1.2825989E1,7.1743126E0,2.3356554E1,1.938498E1,1.25980835E2,3.2501227E2,2.6143933E2,6.4599915E1,0E0,0E0,0E0,0E0,0E0,0E0,0E0,0E0,0E0,0E0,0E0,0E0,0E0,0E0,0E0,0E0],"parents":[2147483647,0,0,1,1,2,2,3,3,4,4,5,5,6,6,7,7,8,8,9,9,10,10,11,11,12,12,13,13,14,14],"right_children":[2,4,6,8,10,12,14,16,18,20,22,24,26,28,30,-1,-1,-1,-1,-1,-1,-1,-1,-1,-1,-1,-1,-1,-1,-1,-1],"split_conditions":[6E0,4E0,2.1E1,3E0,5E0,7E0,2.3E1,5E0,2E0,2E0,7E0,1.3E1,9E0,4E0,7E0,-1.5086171E-1,-1.1577679E-1,-4.2015515E-2,-1.1332786E-1,-5.106119E-2,2.1663057E-2,-6.873358E-2,-1.4396992E-1,3.199929E-2,7.4317075E-2,-2.3205705E-1,-1.3011396E-3,-1.3710937E-1,-6.1220047E-3,-1.736622E-1,-3.7158415E-1],"split_indices":[1,1,1,1,0,0,1,0,0,0,0,1,1,0,0,0,0,0,0,0,0,0,0,0,0,0,0,0,0,0,0],"split_type":[0,0,0,0,0,0,0,0,0,0,0,0,0,0,0,0,0,0,0,0,0,0,0,0,0,0,0,0,0,0,0],"sum_hessian":[5.168E3,8.88E2,4.28E3,5.53E2,3.35E2,3.509E3,7.71E2,4.82E2,7.1E1,1.92E2,1.43E2,2.912E3,5.97E2,6.44E2,1.27E2,2.71E2,2.11E2,2.2E1,4.9E1,6.7E1,1.25E2,7.2E1,7.1E1,1.196E3,1.716E3,6.8E1,5.29E2,2.46E2,3.98E2,1.07E2,2E1],"tree_param":{"num_deleted":"0","num_feature":"2","num_nodes":"31","size_leaf_vector":"1"}},{"base_weights":[-3.771026E-3,-8.950555E-1,1.8131556E-1,-1.1738777E0,-4.326668E-1,5.7227254E-1,-3.4262314E-1,-1.2532544E0,-9.5173484E-1,2.592997E-1,-7.4397635E-1,2.2712488E-1,1.6164104E0,-1.4283152E-1,-1.3859465E0,-1.3151877E-1,-7.535245E-2,1.714635E-2,-1.14612415E-1,-4.603013E-2,1.5401831E-1,-4.917146E-2,-1.2977289E-1,5.320942E-2,-6.736856E-3,2.3081851E-1,1.3067691E-1,-7.4554995E-2,3.2750994E-2,-8.095986E-2,-1.9726104E-1],"categories":[],"categories_nodes":[],"categories_segments":[],"categories_sizes":[],"default_left":[0,0,0,0,0,0,0,0,0,0,0,0,0,0,0,0,0,0,0,0,0,0,0,0,0,0,0,0,0,0,0],"id":21,"left_children":[1,3,5,7,9,11,13,15,17,19,21,23,25,27,29,-1,-1,-1,-1,-1,-1,-1,-1,-1,-1,-1,-1,-1,-1,-1,-1],"loss_changes":[8.5286523E2,1.14105835E2,8.7710535E2,8.575806E0,7.2572624E1,8.832888E2,3.812605E2,1.1543762E1,3.294716E1,9.7490074E1,3.1770111E1,1.6564816E2,1.2743286E2,4.359582E2,9.7811035E1,0E0,0E0,0E0,0E0,0E0,0E0,0E0,0E0,0E0,0E0,0E0,0E0,0E0,0E0,0E0,0E0],"parents":[2147483647,0,0,1,1,2,2,3,3,4,4,5,5,6,6,7,7,8,8,9,9,10,10,11,11,12,12,13,13,14,14],"right_children":[2,4,6,8,10,12,14,16,18,20,22,24,26,28,30,-1,-1,-1,-1,-1,-1,-1,-1,-1,-1,-1,-1,-1,-1,-1,-1],"split_conditions":[6E0,4E0,1.7E1,7E0,3E0,1.5E1,7E0,3E0,1E0,2E0,7E0,5E0,3E0,4E0,2E1,-1.3151877E-1,-7.535245E-2,1.714635E-2,-1.14612415E-1,-4.603013E-2,1.5401831E-1,-4.917146E-2,-1.2977289E-1,5.320942E-2,-6.736856E-3,2.3081851E-1,1.3067691E-1,-7.4554995E-2,3.2750994E-2,-8.095986E-2,-1.9726104E-1],"split_indices":[1,1,1,0,0,1,0,1,1,0,0,0,0,0,1,0,0,0,0,0,0,0,0,0,0,0,0,0,0,0,0],"split_type":[0,0,0,0,0,0,0,0,0,0,0,0,0,0,0,0,0,0,0,0,0,0,0,0,0,0,0,0,0,0,0],"sum_hessian":[5.168E3,8.88E2,4.28E3,5.53E2,3.35E2,2.451E3,1.829E3,4.04E2,1.49E2,1.04E2,2.31E2,1.843E3,6.08E2,1.536E3,2.93E2,3.58E2,4.6E1,2.2E1,1.27E2,6.7E1,3.7E1,1.6E2,7.1E1,9.05E2,9.38E2,1.86E2,4.22E2,6.73E2,8.63E2,1.49E2,1.44E2],"tree_param":{"num_deleted":"0","num_feature":"2","num_nodes":"31","size_leaf_vector":"1"}},{"base_weights":[-3.4494498E-3,-8.0597204E-1,1.6320461E-1,-1.0570391E0,-3.8961136E-1,5.152118E-1,-3.0853575E-1,-1.1284397E0,-8.57211E-1,-2.5909137E-2,-8.743677E-1,1.5705399E-1,1.3436025E0,-1.9225983E-1,-1.8531402E0,-1.1840352E-1,-6.797751E-2,1.5506237E-2,-1.0324069E-1,-4.1494805E-2,1.84254E-2,-5.7104576E-2,-1.1697586E-1,3.6625754E-2,-9.288037E-2,1.12065725E-1,2.352679E-1,-1.8933266E-3,-1.09614566E-1,-8.9514956E-2,-2.2784185E-1],"categories":[],"categories_nodes":[],"categories_segments":[],"categories_sizes":[],"default_left":[0,0,0,0,0,0,0,0,0,0,0,0,0,0,0,0,0,0,0,0,0,0,0,0,0,0,0,0,0,0,0],"id":22,"left_children":[1,3,5,7,9,11,13,15,17,19,21,23,25,27,29,-1,-1,-1,-1,-1,-1,-1,-1,-1,-1,-1,-1,-1,-1,-1,-1],"loss_changes":[6.914524E2,9.251935E1,7.110448E2,6.9370728E0,5.9216488E1,7.2728424E2,3.2831235E2,9.297363E0,2.6762016E1,1.5856451E1,1.22342E1,3.8947433E2,1.6384033E2,2.6678387E2,5.0109283E1,0E0,0E0,0E0,0E0,0E0,0E0,0E0,0E0,0E0,0E0,0E0,0E0,0E0,0E0,0E0,0E0],"parents":[2147483647,0,0,1,1,2,2,3,3,4,4,5,5,6,6,7,7,8,8,9,9,10,10,11,11,12,12,13,13,14,14],"right_children":[2,4,6,8,10,12,14,16,18,20,22,24,26,28,30,-1,-1,-1,-1,-1,-1,-1,-1,-1,-1,-1,-1,-1,-1,-1,-1],"split_conditions":[6E0,4E0,1.7E1,7E0,5E0,1.4E1,2.3E1,3E0,1E0,2E0,7E0,7E0,7E0,7E0,5E0,-1.1840352E-1,-6.797751E-2,1.5506237E-2,-1.0324069E-1,-4.1494805E-2,1.84254E-2,-5.7104576E-2,-1.1697586E-1,3.6625754E-2,-9.288037E-2,1.12065725E-1,2.352679E-1,-1.8933266E-3,-1.09614566E-1,-8.9514956E-2,-2.2784185E-1],"split_indices":[1,1,1,0,0,1,1,1,1,0,0,0,0,0,0,0,0,0,0,0,0,0,0,0,0,0,0,0,0,0,0],"split_type":[0,0,0,0,0,0,0,0,0,0,0,0,0,0,0,0,0,0,0,0,0,0,0,0,0,0,0,0,0,0,0],"sum_hessian":[5.168E3,8.88E2,4.28E3,5.53E2,3.35E2,2.451E3,1.829E3,4.04E2,1.49E2,1.92E2,1.43E2,1.712E3,7.39E2,1.702E3,1.27E2,3.58E2,4.6E1,2.2E1,1.27E2,6.7E1,1.25E2,7.2E1,7.1E1,1.436E3,2.76E2,6.07E2,1.32E2,1.429E3,2.73E2,4E1,8.7E1],"tree_param":{"num_deleted":"0","num_feature":"2","num_nodes":"31","size_leaf_vector":"1"}},{"base_weights":[-3.2222013E-3,-7.2590494E-1,1.4685212E-1,-9.9276054E-1,-4.0743536E-1,3.2321945E-1,-6.552154E-1,-1.1093066E0,-8.3854693E-1,1.6633256E-1,-6.65304E-1,4.3243763E-1,-2.093488E-1,-4.5275524E-1,-1.6703058E0,-9.899126E-2,-1.2378279E-1,-6.9801055E-2,-8.9867055E-2,-3.4469243E-2,1.3722777E-1,-4.9754042E-2,-9.784067E-2,2.643759E-2,6.1740585E-2,-1.9937038E-1,2.3349014E-3,-1.1584003E-1,-1.4792596E-3,-8.078181E-2,-2.0531662E-1],"categories":[],"categories_nodes":[],"categories_segments":[],"categories_sizes":[],"default_left":[0,0,0,0,0,0,0,0,0,0,0,0,0,0,0,0,0,0,0,0,0,0,0,0,0,0,0,0,0,0,0],"id":23,"left_children":[1,3,5,7,9,11,13,15,17,19,21,23,25,27,29,-1,-1,-1,-1,-1,-1,-1,-1,-1,-1,-1,-1,-1,-1,-1,-1],"loss_changes":[5.607164E2,7.514749E1,6.057956E2,7.750763E0,6.0329063E1,2.042537E2,1.5790161E2,2.9483948E0,1.164032E0,7.873906E1,1.4273354E1,9.039044E1,2.4834543E2,1.9931764E2,4.060858E1,0E0,0E0,0E0,0E0,0E0,0E0,0E0,0E0,0E0,0E0,0E0,0E0,0E0,0E0,0E0,0E0],"parents":[2147483647,0,0,1,1,2,2,3,3,4,4,5,5,6,6,7,7,8,8,9,9,10,10,11,11,12,12,13,13,14,14],"right_children":[2,4,6,8,10,12,14,16,18,20,22,24,26,28,30,-1,-1,-1,-1,-1,-1,-1,-1,-1,-1,-1,-1,-1,-1,-1,-1],"split_conditions":[6E0,3E0,2.1E1,5E0,3E0,7E0,2.3E1,2E0,1E0,2E0,7E0,1.5E1,9E0,4E0,5E0,-9.899126E-2,-1.2378279E-1,-6.9801055E-2,-8.9867055E-2,-3.4469243E-2,1.3722777E-1,-4.9754042E-2,-9.784067E-2,2.643759E-2,6.1740585E-2,-1.9937038E-1,2.3349014E-3,-1.1584003E-1,-1.4792596E-3,-8.078181E-2,-2.0531662E-1],"split_indices":[1,1,1,0,0,0,1,0,1,0,0,1,1,0,0,0,0,0,0,0,0,0,0,0,0,0,0,0,0,0,0],"split_type":[0,0,0,0,0,0,0,0,0,0,0,0,0,0,0,0,0,0,0,0,0,0,0,0,0,0,0,0,0,0,0],"sum_hessian":[5.168E3,8.88E2,4.28E3,4.82E2,4.06E2,3.509E3,7.71E2,2.71E2,2.11E2,1.26E2,2.8E2,2.912E3,5.97E2,6.44E2,1.27E2,1.45E2,1.26E2,6.7E1,1.44E2,8.9E1,3.7E1,1.84E2,9.6E1,1.527E3,1.385E3,6.8E1,5.29E2,2.46E2,3.98E2,4E1,8.7E1],"tree_param":{"num_deleted":"0","num_feature":"2","num_nodes":"31","size_leaf_vector":"1"}},{"base_weights":[-3.0818295E-3,-6.5379506E-1,1.3204715E-1,-8.580281E-1,-3.1510782E-1,4.395579E-1,-2.8005582E-1,-9.2020845E-1,-6.8442106E-1,2.2802119E-1,-5.595623E-1,1.6432941E-1,1.2722045E0,-1.195663E-1,-1.118125E0,-1.122151E-1,-8.4014796E-2,2.0699633E-2,-8.392506E-2,-3.4010135E-2,1.23866096E-1,-3.7793677E-2,-9.5792554E-2,4.1595057E-2,-7.8623835E-3,1.9057241E-1,9.891304E-2,-6.599035E-2,3.0208513E-2,-6.2261343E-2,-1.623012E-1],"categories":[],"categories_nodes":[],"categories_segments":[],"categories_sizes":[],"default_left":[0,0,0,0,0,0,0,0,0,0,0,0,0,0,0,0,0,0,0,0,0,0,0,0,0,0,0,0,0,0,0],"id":24,"left_children":[1,3,5,7,9,11,13,15,17,19,21,23,25,27,29,-1,-1,-1,-1,-1,-1,-1,-1,-1,-1,-1,-1,-1,-1,-1,-1],"loss_changes":[4.545976E2,6.1222748E1,5.426375E2,5.350586E0,4.4738422E1,5.617111E2,2.4600375E2,5.605133E0,2.0876373E1,6.0708817E1,1.6423843E1,1.12760445E2,1.073288E2,3.5038013E2,7.2541595E1,0E0,0E0,0E0,0E0,0E0,0E0,0E0,0E0,0E0,0E0,0E0,0E0,0E0,0E0,0E0,0E0],"parents":[2147483647,0,0,1,1,2,2,3,3,4,4,5,5,6,6,7,7,8,8,9,9,10,10,11,11,12,12,13,13,14,14],"right_children":[2,4,6,8,10,12,14,16,18,20,22,24,26,28,30,-1,-1,-1,-1,-1,-1,-1,-1,-1,-1,-1,-1,-1,-1,-1,-1],"split_conditions":[6E0,4E0,1.7E1,7E0,3E0,1.5E1,7E0,1E0,1E0,2E0,7E0,5E0,3E0,4E0,2E1,-1.122151E-1,-8.4014796E-2,2.0699633E-2,-8.392506E-2,-3.4010135E-2,1.23866096E-1,-3.7793677E-2,-9.5792554E-2,4.1595057E-2,-7.8623835E-3,1.9057241E-1,9.891304E-2,-6.599035E-2,3.0208513E-2,-6.2261343E-2,-1.623012E-1],"split_indices":[1,1,1,0,0,1,0,1,1,0,0,0,0,0,1,0,0,0,0,0,0,0,0,0,0,0,0,0,0,0,0],"split_type":[0,0,0,0,0,0,0,0,0,0,0,0,0,0,0,0,0,0,0,0,0,0,0,0,0,0,0,0,0,0,0],"sum_hessian":[5.168E3,8.88E2,4.28E3,5.53E2,3.35E2,2.451E3,1.829E3,4.04E2,1.49E2,1.04E2,2.31E2,1.843E3,6.08E2,1.536E3,2.93E2,1.11E2,2.93E2,2.2E1,1.27E2,6.7E1,3.7E1,1.6E2,7.1E1,9.05E2,9.38E2,1.86E2,4.22E2,6.73E2,8.63E2,1.49E2,1.44E2],"tree_param":{"num_deleted":"0","num_feature":"2","num_nodes":"31","size_leaf_vector":"1"}},{"base_weights":[-2.8202669E-3,-5.887565E-1,1.18856944E-1,-8.087431E-1,-3.2624474E-1,2.2751984E-1,-8.4733784E-1,-9.086462E-1,-6.7675066E-1,-2.2655252E-2,-6.627499E-1,3.9573362E-1,-6.767881E-2,-5.7495826E-1,-1.4918754E0,-7.988887E-2,-1.02766946E-1,-5.1419E-2,-7.187001E-2,-2.6475022E-2,1.5044953E-2,-5.2883934E-2,-7.89828E-2,1.08513E-2,1.06007576E-1,-1.028919E-1,7.522115E-3,-1.16061345E-1,1.8543947E-2,-7.162445E-2,-1.8362957E-1],"categories":[],"categories_nodes":[],"categories_segments":[],"categories_sizes":[],"default_left":[0,0,0,0,0,0,0,0,0,0,0,0,0,0,0,0,0,0,0,0,0,0,0,0,0,0,0,0,0,0,0],"id":25,"left_children":[1,3,5,7,9,11,13,15,17,19,21,23,25,27,29,-1,-1,-1,-1,-1,-1,-1,-1,-1,-1,-1,-1,-1,-1,-1,-1],"loss_changes":[3.6859427E2,5.1075104E1,4.4965292E2,5.75412E0,4.1563877E1,1.911546E2,7.515921E1,2.7323303E0,1.076149E0,9.050009E0,2.8666077E0,4.6775784E2,1.9210834E2,1.3648647E2,3.287909E1,0E0,0E0,0E0,0E0,0E0,0E0,0E0,0E0,0E0,0E0,0E0,0E0,0E0,0E0,0E0,0E0],"parents":[2147483647,0,0,1,1,2,2,3,3,4,4,5,5,6,6,7,7,8,8,9,9,10,10,11,11,12,12,13,13,14,14],"right_children":[2,4,6,8,10,12,14,16,18,20,22,24,26,28,30,-1,-1,-1,-1,-1,-1,-1,-1,-1,-1,-1,-1,-1,-1,-1,-1],"split_conditions":[6E0,3E0,2.2E1,5E0,5E0,1.7E1,2.3E1,2E0,6E0,2E0,7E0,1.4E1,2E0,5E0,5E0,-7.988887E-2,-1.02766946E-1,-5.1419E-2,-7.187001E-2,-2.6475022E-2,1.5044953E-2,-5.2883934E-2,-7.89828E-2,1.08513E-2,1.06007576E-1,-1.028919E-1,7.522115E-3,-1.16061345E-1,1.8543947E-2,-7.162445E-2,-1.8362957E-1],"split_indices":[1,1,1,0,0,1,1,0,0,0,0,1,0,0,0,0,0,0,0,0,0,0,0,0,0,0,0,0,0,0,0],"split_type":[0,0,0,0,0,0,0,0,0,0,0,0,0,0,0,0,0,0,0,0,0,0,0,0,0,0,0,0,0,0,0],"sum_hessian":[5.168E3,8.88E2,4.28E3,4.82E2,4.06E2,3.848E3,4.32E2,2.71E2,2.11E2,2.14E2,1.92E2,2.451E3,1.397E3,3.05E2,1.27E2,1.45E2,1.26E2,4.6E1,1.65E2,8.9E1,1.25E2,9.6E1,9.6E1,1.712E3,7.39E2,1.8E2,1.217E3,1.72E2,1.33E2,4E1,8.7E1],"tree_param":{"num_deleted":"0","num_feature":"2","num_nodes":"31","size_leaf_vector":"1"}},{"base_weights":[-2.6893332E-3,-5.303862E-1,1.0689376E-1,-7.285023E-1,-2.9397237E-1,2.0477332E-1,-7.6341873E-1,-8.1845313E-1,-6.096573E-1,1.6108781E-1,-4.9859396E-1,2.9440632E-1,-2.4680342E-1,-5.177812E-1,-1.3446819E0,-7.195471E-2,-9.257117E-2,-4.638652E-2,-6.4726315E-2,-2.385695E-2,1.1034055E-1,-3.841835E-2,-7.116594E-2,1.2636785E-2,4.410111E-2,-1.8001685E-1,-5.8331513E-3,-1.0452231E-1,1.6703388E-2,-1.1207896E-1,-2.4320951E-1],"categories":[],"categories_nodes":[],"categories_segments":[],"categories_sizes":[],"default_left":[0,0,0,0,0,0,0,0,0,0,0,0,0,0,0,0,0,0,0,0,0,0,0,0,0,0,0,0,0,0,0],"id":26,"left_children":[1,3,5,7,9,11,13,15,17,19,21,23,25,27,29,-1,-1,-1,-1,-1,-1,-1,-1,-1,-1,-1,-1,-1,-1,-1,-1],"loss_changes":[2.9896268E2,4.142427E1,3.6483676E2,4.664398E0,3.7978176E1,1.5586546E2,6.1127518E1,2.2194214E0,8.6209106E-1,4.809196E1,6.5765E0,7.907269E1,1.8667947E2,1.1070183E2,2.843747E1,0E0,0E0,0E0,0E0,0E0,0E0,0E0,0E0,0E0,0E0,0E0,0E0,0E0,0E0,0E0,0E0],"parents":[2147483647,0,0,1,1,2,2,3,3,4,4,5,5,6,6,7,7,8,8,9,9,10,10,11,11,12,12,13,13,14,14],"right_children":[2,4,6,8,10,12,14,16,18,20,22,24,26,28,30,-1,-1,-1,-1,-1,-1,-1,-1,-1,-1,-1,-1,-1,-1,-1,-1],"split_conditions":[6E0,3E0,2.2E1,5E0,3E0,7E0,2.3E1,2E0,6E0,2E0,7E0,4E0,9E0,5E0,7E0,-7.195471E-2,-9.257117E-2,-4.638652E-2,-6.4726315E-2,-2.385695E-2,1.1034055E-1,-3.841835E-2,-7.116594E-2,1.2636785E-2,4.410111E-2,-1.8001685E-1,-5.8331513E-3,-1.0452231E-1,1.6703388E-2,-1.1207896E-1,-2.4320951E-1],"split_indices":[1,1,1,0,0,0,1,0,0,0,0,0,1,0,0,0,0,0,0,0,0,0,0,0,0,0,0,0,0,0,0],"split_type":[0,0,0,0,0,0,0,0,0,0,0,0,0,0,0,0,0,0,0,0,0,0,0,0,0,0,0,0,0,0,0],"sum_hessian":[5.168E3,8.88E2,4.28E3,4.82E2,4.06E2,3.848E3,4.32E2,2.71E2,2.11E2,1.26E2,2.8E2,3.211E3,6.37E2,3.05E2,1.27E2,1.45E2,1.26E2,4.6E1,1.65E2,8.9E1,3.7E1,1.84E2,9.6E1,1.497E3,1.714E3,6.8E1,5.69E2,1.72E2,1.33E2,1.07E2,2E1],"tree_param":{"num_deleted":"0","num_feature":"2","num_nodes":"31","size_leaf_vector":"1"}},{"base_weights":[-2.5889059E-3,-4.7768357E-1,9.607069E-2,-6.562227E-1,-2.646318E-1,3.3769843E-1,-2.2773655E-1,-7.1275043E-1,-4.8862517E-1,1.4565992E-1,-4.491244E-1,1.1332714E-1,1.016521E0,-8.2808435E-2,-9.8463035E-1,-8.678984E-2,-6.398096E-2,3.178541E-2,-6.6396885E-2,-2.1497747E-2,9.959679E-2,-8.019429E-2,-3.784516E-2,3.4416746E-2,-1.0952129E-2,1.5981601E-1,7.5698666E-2,-1.01451926E-1,8.952855E-3,-5.624449E-2,-1.4145835E-1],"categories":[],"categories_nodes":[],"categories_segments":[],"categories_sizes":[],"default_left":[0,0,0,0,0,0,0,0,0,0,0,0,0,0,0,0,0,0,0,0,0,0,0,0,0,0,0,0,0,0,0],"id":27,"left_children":[1,3,5,7,9,11,13,15,17,19,21,23,25,27,29,-1,-1,-1,-1,-1,-1,-1,-1,-1,-1,-1,-1,-1,-1,-1,-1],"loss_changes":[2.4233063E2,3.3642197E1,3.3502582E2,4.2276154E0,3.0873598E1,3.7334476E2,2.0066068E2,3.50737E0,1.7887428E1,3.9159023E1,6.7031517E0,9.4897484E1,9.0721985E1,2.468842E2,5.2571228E1,0E0,0E0,0E0,0E0,0E0,0E0,0E0,0E0,0E0,0E0,0E0,0E0,0E0,0E0,0E0,0E0],"parents":[2147483647,0,0,1,1,2,2,3,3,4,4,5,5,6,6,7,7,8,8,9,9,10,10,11,11,12,12,13,13,14,14],"right_children":[2,4,6,8,10,12,14,16,18,20,22,24,26,28,30,-1,-1,-1,-1,-1,-1,-1,-1,-1,-1,-1,-1,-1,-1,-1,-1],"split_conditions":[6E0,3E0,1.7E1,7E0,3E0,1.5E1,7E0,1E0,1E0,2E0,4E0,5E0,3E0,2E0,2E1,-8.678984E-2,-6.398096E-2,3.178541E-2,-6.6396885E-2,-2.1497747E-2,9.959679E-2,-8.019429E-2,-3.784516E-2,3.4416746E-2,-1.0952129E-2,1.5981601E-1,7.5698666E-2,-1.01451926E-1,8.952855E-3,-5.624449E-2,-1.4145835E-1],"split_indices":[1,1,1,0,0,1,0,1,1,0,0,0,0,0,1,0,0,0,0,0,0,0,0,0,0,0,0,0,0,0,0],"split_type":[0,0,0,0,0,0,0,0,0,0,0,0,0,0,0,0,0,0,0,0,0,0,0,0,0,0,0,0,0,0,0],"sum_hessian":[5.168E3,8.88E2,4.28E3,4.82E2,4.06E2,2.451E3,1.829E3,3.58E2,1.24E2,1.26E2,2.8E2,1.843E3,6.08E2,1.536E3,2.93E2,1.11E2,2.47E2,2.2E1,1.02E2,8.9E1,3.7E1,4.5E1,2.35E2,9.05E2,9.38E2,1.86E2,4.22E2,2.39E2,1.297E3,1.49E2,1.44E2],"tree_param":{"num_deleted":"0","num_feature":"2","num_nodes":"31","size_leaf_vector":"1"}},{"base_weights":[-2.3796535E-3,5.771047E-2,-6.597573E-1,-4.3016863E-1,1.7038046E-1,-4.3879324E-1,-1.1828451E0,-5.909842E-1,-2.3826663E-1,3.525529E-1,-1.1313415E-2,-9.240406E-1,1.9095746E-1,-4.9728593E-1,-1.4888121E0,-6.679323E-2,-4.894707E-2,2.2819343E-4,-5.0500073E-2,8.400575E-3,1.298273E-1,-2.5754535E-1,1.801106E-2,-1.1348243E-1,-7.026359E-2,1.3345066E-1,-4.0223595E-2,-1.4214651E-1,2.8778756E-2,-1.2887473E-1,-2.0657447E-1],"categories":[],"categories_nodes":[],"categories_segments":[],"categories_sizes":[],"default_left":[0,0,0,0,0,0,0,0,0,0,0,0,0,0,0,0,0,0,0,0,0,0,0,0,0,0,0,0,0,0,0],"id":28,"left_children":[1,3,5,7,9,11,13,15,17,19,21,23,25,27,29,-1,-1,-1,-1,-1,-1,-1,-1,-1,-1,-1,-1,-1,-1,-1,-1],"loss_changes":[2.042234E2,2.60463E2,4.9528687E1,2.7294464E1,1.27404396E2,9.368544E1,2.6108704E1,3.4459076E0,2.6115286E1,4.8802213E2,9.4679956E2,7.2762756E0,9.143511E1,3.015657E1,7.4950714E0,0E0,0E0,0E0,0E0,0E0,0E0,0E0,0E0,0E0,0E0,0E0,0E0,0E0,0E0,0E0,0E0],"parents":[2147483647,0,0,1,1,2,2,3,3,4,4,5,5,6,6,7,7,8,8,9,9,10,10,11,11,12,12,13,13,14,14],"right_children":[2,4,6,8,10,12,14,16,18,20,22,24,26,28,30,-1,-1,-1,-1,-1,-1,-1,-1,-1,-1,-1,-1,-1,-1,-1,-1],"split_conditions":[2.2E1,6E0,2.3E1,3E0,5E0,5E0,5E0,5E0,5E0,4E0,8E0,3E0,6E0,2E0,7E0,-6.679323E-2,-4.894707E-2,2.2819343E-4,-5.0500073E-2,8.400575E-3,1.298273E-1,-2.5754535E-1,1.801106E-2,-1.1348243E-1,-7.026359E-2,1.3345066E-1,-4.0223595E-2,-1.4214651E-1,2.8778756E-2,-1.2887473E-1,-2.0657447E-1],"split_indices":[1,1,1,1,0,0,0,0,0,0,1,0,0,0,0,0,0,0,0,0,0,0,0,0,0,0,0,0,0,0,0],"split_type":[0,0,0,0,0,0,0,0,0,0,0,0,0,0,0,0,0,0,0,0,0,0,0,0,0,0,0,0,0,0,0],"sum_hessian":[5.168E3,4.736E3,4.32E2,8.88E2,3.848E3,3.05E2,1.27E2,4.82E2,4.06E2,1.921E3,1.927E3,1.72E2,1.33E2,4E1,8.7E1,2.71E2,2.11E2,2.14E2,1.92E2,1.497E3,4.24E2,1.33E2,1.794E3,8.6E1,8.6E1,4.5E1,8.8E1,1.8E1,2.2E1,6.7E1,2E1],"tree_param":{"num_deleted":"0","num_feature":"2","num_nodes":"31","size_leaf_vector":"1"}},{"base_weights":[-2.2976762E-3,7.3014684E-2,-4.3134102E-1,-3.8733858E-1,1.8959048E-1,-3.0431426E-1,-1.0680671E0,-5.101387E-1,-1.837118E-1,3.661769E-1,1.2593933E-2,-7.759393E-1,-1.1593219E-2,-4.5032248E-1,-1.3437427E0,-5.5604853E-2,-3.8278114E-2,1.7240351E-2,-3.440928E-2,1.5048234E-1,1.9368608E-2,-2.3198302E-1,2.0539606E-2,-9.5901914E-2,-6.703957E-2,4.554754E-2,-4.0941283E-2,-1.2867999E-1,2.6025986E-2,-1.16176784E-1,-1.8690072E-1],"categories":[],"categories_nodes":[],"categories_segments":[],"categories_sizes":[],"default_left":[0,0,0,0,0,0,0,0,0,0,0,0,0,0,0,0,0,0,0,0,0,0,0,0,0,0,0,0,0,0,0],"id":29,"left_children":[1,3,5,7,9,11,13,15,17,19,21,23,25,27,29,-1,-1,-1,-1,-1,-1,-1,-1,-1,-1,-1,-1,-1,-1,-1,-1],"loss_changes":[1.6705362E2,2.3609668E2,6.2115295E1,2.2136078E1,1.097011E2,8.9036194E1,2.1192917E1,3.0263824E0,1.9249672E1,3.44794E2,7.892438E2,4.129822E0,7.432429E1,2.4704735E1,6.2401276E0,0E0,0E0,0E0,0E0,0E0,0E0,0E0,0E0,0E0,0E0,0E0,0E0,0E0,0E0,0E0,0E0],"parents":[2147483647,0,0,1,1,2,2,3,3,4,4,5,5,6,6,7,7,8,8,9,9,10,10,11,11,12,12,13,13,14,14],"right_children":[2,4,6,8,10,12,14,16,18,20,22,24,26,28,30,-1,-1,-1,-1,-1,-1,-1,-1,-1,-1,-1,-1,-1,-1,-1,-1],"split_conditions":[2.1E1,6E0,2.3E1,4E0,5E0,4E0,5E0,7E0,3E0,8E0,8E0,2E0,6E0,2E0,7E0,-5.5604853E-2,-3.8278114E-2,1.7240351E-2,-3.440928E-2,1.5048234E-1,1.9368608E-2,-2.3198302E-1,2.0539606E-2,-9.5901914E-2,-6.703957E-2,4.554754E-2,-4.0941283E-2,-1.2867999E-1,2.6025986E-2,-1.16176784E-1,-1.8690072E-1],"split_indices":[1,1,1,1,0,0,0,0,0,1,1,0,0,0,0,0,0,0,0,0,0,0,0,0,0,0,0,0,0,0,0],"split_type":[0,0,0,0,0,0,0,0,0,0,0,0,0,0,0,0,0,0,0,0,0,0,0,0,0,0,0,0,0,0,0],"sum_hessian":[5.168E3,4.397E3,7.71E2,8.88E2,3.509E3,6.44E2,1.27E2,5.53E2,3.35E2,1.756E3,1.753E3,2.46E2,3.98E2,4E1,8.7E1,4.04E2,1.49E2,1.04E2,2.31E2,2.3E2,1.526E3,1.33E2,1.62E3,8.7E1,1.59E2,1.83E2,2.15E2,1.8E1,2.2E1,6.7E1,2E1],"tree_param":{"num_deleted":"0","num_feature":"2","num_nodes":"31","size_leaf_vector":"1"}},{"base_weights":[-2.206791E-3,7.983449E-2,-3.291831E-1,-1.4043784E-1,3.6067718E-1,-1.8749635E-1,-1.1995077E0,-4.592942E-1,-4.021854E-2,6.7157507E-1,-4.073349E-2,-6.727971E-1,1.6513026E-1,-1.7538121E-1,-9.7164124E-1,-5.0058093E-2,-3.4475822E-2,5.8156946E-3,-5.1287103E-2,9.955117E-2,3.5814263E-2,7.6570483E-3,-5.44869E-2,-1.0608961E-1,-4.7529407E-2,3.5277493E-2,-7.311441E-2,-7.824846E-2,-1.6910066E-1],"categories":[],"categories_nodes":[],"categories_segments":[],"categories_sizes":[],"default_left":[0,0,0,0,0,0,0,0,0,0,0,0,0,0,0,0,0,0,0,0,0,0,0,0,0,0,0,0,0],"id":30,"left_children":[1,3,5,7,9,11,13,15,17,19,21,23,25,-1,27,-1,-1,-1,-1,-1,-1,-1,-1,-1,-1,-1,-1,-1,-1],"loss_changes":[1.3868758E2,2.5572578E2,1.2765117E2,7.402257E1,2.2678479E2,1.5293013E2,1.6610489E1,2.4471817E0,8.205127E1,1.0361249E2,4.699658E1,2.8316452E1,8.737573E1,0E0,1.2964447E1,0E0,0E0,0E0,0E0,0E0,0E0,0E0,0E0,0E0,0E0,0E0,0E0,0E0,0E0],"parents":[2147483647,0,0,1,1,2,2,3,3,4,4,5,5,6,6,7,7,8,8,9,9,10,10,11,11,12,12,14,14],"right_children":[2,4,6,8,10,12,14,16,18,20,22,24,26,-1,28,-1,-1,-1,-1,-1,-1,-1,-1,-1,-1,-1,-1,-1,-1],"split_conditions":[2E1,1.3E1,7E0,4E0,1.7E1,4E0,2.1E1,7E0,7E0,5E0,7E0,2E0,2.3E1,-1.7538121E-1,2.3E1,-5.0058093E-2,-3.4475822E-2,5.8156946E-3,-5.1287103E-2,9.955117E-2,3.5814263E-2,7.6570483E-3,-5.44869E-2,-1.0608961E-1,-4.7529407E-2,3.5277493E-2,-7.311441E-2,-7.824846E-2,-1.6910066E-1],"split_indices":[1,1,0,1,1,0,1,0,0,0,0,0,1,0,1,0,0,0,0,0,0,0,0,0,0,0,0,0,0],"split_type":[0,0,0,0,0,0,0,0,0,0,0,0,0,0,0,0,0,0,0,0,0,0,0,0,0,0,0,0,0],"sum_hessian":[5.168E3,4.132E3,1.036E3,2.316E3,1.816E3,8.92E2,1.44E2,5.53E2,1.763E3,1.023E3,7.93E2,3.75E2,5.17E2,4E1,1.04E2,4.04E2,1.49E2,1.46E3,3.03E2,5.02E2,5.21E2,6.44E2,1.49E2,1.25E2,2.5E2,4.28E2,8.9E1,8.4E1,2E1],"tree_param":{"num_deleted":"0","num_feature":"2","num_nodes":"29","size_leaf_vector":"1"}},{"base_weights":[-2.1127425E-3,4.3341313E-2,-4.993731E-1,-3.1783372E-1,1.2675032E-1,-3.417657E-1,-8.72252E-1,-4.3513003E-1,-1.7785352E-1,2.4821725E-1,-8.6385354E-2,-7.4889845E-1,1.8641138E-1,-3.2198593E-1,-1.118714E0,-4.9611013E-2,-3.5483893E-2,1.3090606E-2,-3.1676676E-2,3.5786738E-3,7.396298E-2,3.6897433E-3,-7.1260795E-2,-8.6819515E-2,-6.2099375E-2,1.12488925E-1,-3.0073911E-2,-1.0643869E-1,3.0530116E-2,-9.752605E-2,-1.5299581E-1],"categories":[],"categories_nodes":[],"categories_segments":[],"categories_sizes":[],"default_left":[0,0,0,0,0,0,0,0,0,0,0,0,0,0,0,0,0,0,0,0,0,0,0,0,0,0,0,0,0,0,0],"id":31,"left_children":[1,3,5,7,9,11,13,15,17,19,21,23,25,27,29,-1,-1,-1,-1,-1,-1,-1,-1,-1,-1,-1,-1,-1,-1,-1,-1],"loss_changes":[1.16853966E2,1.4274359E2,2.5148651E1,1.4519241E1,9.966796E1,6.5941284E1,1.6999115E1,2.1888123E0,1.749802E1,2.559403E2,1.0795534E2,2.1005936E0,6.160041E1,1.9418598E1,3.6993942E0,0E0,0E0,0E0,0E0,0E0,0E0,0E0,0E0,0E0,0E0,0E0,0E0,0E0,0E0,0E0,0E0],"parents":[2147483647,0,0,1,1,2,2,3,3,4,4,5,5,6,6,7,7,8,8,9,9,10,10,11,11,12,12,13,13,14,14],"right_children":[2,4,6,8,10,12,14,16,18,20,22,24,26,28,30,-1,-1,-1,-1,-1,-1,-1,-1,-1,-1,-1,-1,-1,-1,-1,-1],"split_conditions":[2.2E1,6E0,2.3E1,3E0,1.7E1,5E0,5E0,5E0,3E0,1.4E1,7E0,3E0,6E0,2E0,7E0,-4.9611013E-2,-3.5483893E-2,1.3090606E-2,-3.1676676E-2,3.5786738E-3,7.396298E-2,3.6897433E-3,-7.1260795E-2,-8.6819515E-2,-6.2099375E-2,1.12488925E-1,-3.0073911E-2,-1.0643869E-1,3.0530116E-2,-9.752605E-2,-1.5299581E-1],"split_indices":[1,1,1,1,1,0,0,0,0,1,0,0,0,0,0,0,0,0,0,0,0,0,0,0,0,0,0,0,0,0,0],"split_type":[0,0,0,0,0,0,0,0,0,0,0,0,0,0,0,0,0,0,0,0,0,0,0,0,0,0,0,0,0,0,0],"sum_hessian":[5.168E3,4.736E3,4.32E2,8.88E2,3.848E3,3.05E2,1.27E2,4.82E2,4.06E2,2.451E3,1.397E3,1.72E2,1.33E2,4E1,8.7E1,2.71E2,2.11E2,1.26E2,2.8E2,1.712E3,7.39E2,1.168E3,2.29E2,8.6E1,8.6E1,4.5E1,8.8E1,1.8E1,2.2E1,6.7E1,2E1],"tree_param":{"num_deleted":"0","num_feature":"2","num_nodes":"31","size_leaf_vector":"1"}},{"base_weights":[-1.995444E-3,5.522664E-2,-3.2798085E-1,-1.1650534E-1,2.4631587E-1,-6.2113696E-1,-1.7440929E-1,-3.7345263E-1,-3.5742693E-2,5.501801E-1,-4.773821E-2,-7.711132E-1,-5.178956E-1,2.5367922E-1,-5.183869E-1,-4.0866133E-2,-2.7589947E-2,5.19534E-3,-4.5708563E-2,8.466911E-2,2.6340753E-2,8.560897E-3,-6.580766E-2,-7.2080165E-2,-9.635503E-2,-3.006923E-2,-8.3072044E-2,5.266382E-2,6.030741E-3,-3.3566363E-2,-1.09972775E-1],"categories":[],"categories_nodes":[],"categories_segments":[],"categories_sizes":[],"default_left":[0,0,0,0,0,0,0,0,0,0,0,0,0,0,0,0,0,0,0,0,0,0,0,0,0,0,0,0,0,0,0],"id":32,"left_children":[1,3,5,7,9,11,13,15,17,19,21,23,25,27,29,-1,-1,-1,-1,-1,-1,-1,-1,-1,-1,-1,-1,-1,-1,-1,-1],"loss_changes":[9.643838E1,1.4435403E2,3.4647446E1,4.8068443E1,1.8605818E2,3.7038422E0,7.493595E1,1.7900772E0,6.520378E1,8.684894E1,8.624507E1,3.3174133E-1,1.0621666E1,1.1949884E1,2.9586166E1,0E0,0E0,0E0,0E0,0E0,0E0,0E0,0E0,0E0,0E0,0E0,0E0,0E0,0E0,0E0,0E0],"parents":[2147483647,0,0,1,1,2,2,3,3,4,4,5,5,6,6,7,7,8,8,9,9,10,10,11,11,12,12,13,13,14,14],"right_children":[2,4,6,8,10,12,14,16,18,20,22,24,26,28,30,-1,-1,-1,-1,-1,-1,-1,-1,-1,-1,-1,-1,-1,-1,-1,-1],"split_conditions":[2.1E1,1.3E1,4E0,4E0,1.7E1,2E0,6E0,7E0,7E0,5E0,7E0,2.3E1,3E0,2.2E1,2.3E1,-4.0866133E-2,-2.7589947E-2,5.19534E-3,-4.5708563E-2,8.466911E-2,2.6340753E-2,8.560897E-3,-6.580766E-2,-7.2080165E-2,-9.635503E-2,-3.006923E-2,-8.3072044E-2,5.266382E-2,6.030741E-3,-3.3566363E-2,-1.09972775E-1],"split_indices":[1,1,0,1,1,0,0,0,0,0,0,1,0,1,1,0,0,0,0,0,0,0,0,0,0,0,0,0,0,0,0],"split_type":[0,0,0,0,0,0,0,0,0,0,0,0,0,0,0,0,0,0,0,0,0,0,0,0,0,0,0,0,0,0,0],"sum_hessian":[5.168E3,4.397E3,7.71E2,2.316E3,2.081E3,2.64E2,5.07E2,5.53E2,1.763E3,1.023E3,1.058E3,1.05E2,1.59E2,2.26E2,2.81E2,4.04E2,1.49E2,1.46E3,3.03E2,5.02E2,5.21E2,8.69E2,1.89E2,8.7E1,1.8E1,9.5E1,6.4E1,9.3E1,1.33E2,2.15E2,6.6E1],"tree_param":{"num_deleted":"0","num_feature":"2","num_nodes":"31","size_leaf_vector":"1"}},{"base_weights":[-1.8774874E-3,5.9878763E-2,-2.4800739E-1,-1.0490201E-1,2.6997077E-1,-1.3209464E-1,-9.601596E-1,-3.3623102E-1,-3.219159E-2,4.952706E-1,-2.0932274E-2,-5.3595775E-1,1.6131197E-1,-1.4489834E-1,-7.601412E-1,-3.678962E-2,-2.484936E-2,4.6761367E-3,-4.1152738E-2,7.6219045E-2,2.3711752E-2,-6.440909E-2,8.448563E-3,-8.519491E-2,-3.7519734E-2,3.0814314E-2,-5.4037567E-2,-6.228832E-2,-1.2795119E-1],"categories":[],"categories_nodes":[],"categories_segments":[],"categories_sizes":[],"default_left":[0,0,0,0,0,0,0,0,0,0,0,0,0,0,0,0,0,0,0,0,0,0,0,0,0,0,0,0,0],"id":33,"left_children":[1,3,5,7,9,11,13,15,17,19,21,23,25,-1,27,-1,-1,-1,-1,-1,-1,-1,-1,-1,-1,-1,-1,-1,-1],"loss_changes":[7.8583954E1,1.4310916E2,8.5474945E1,3.896118E1,1.1909729E2,1.0590347E2,1.3075775E1,1.447712E0,5.2850487E1,7.0379196E1,5.2213917E1,1.8780739E1,5.353585E1,0E0,6.6882286E0,0E0,0E0,0E0,0E0,0E0,0E0,0E0,0E0,0E0,0E0,0E0,0E0,0E0,0E0],"parents":[2147483647,0,0,1,1,2,2,3,3,4,4,5,5,6,6,7,7,8,8,9,9,10,10,11,11,12,12,14,14],"right_children":[2,4,6,8,10,12,14,16,18,20,22,24,26,-1,28,-1,-1,-1,-1,-1,-1,-1,-1,-1,-1,-1,-1,-1,-1],"split_conditions":[2E1,1.3E1,7E0,4E0,1.7E1,4E0,2.1E1,7E0,7E0,5E0,2E0,2E0,2.3E1,-1.4489834E-1,2.3E1,-3.678962E-2,-2.484936E-2,4.6761367E-3,-4.1152738E-2,7.6219045E-2,2.3711752E-2,-6.440909E-2,8.448563E-3,-8.519491E-2,-3.7519734E-2,3.0814314E-2,-5.4037567E-2,-6.228832E-2,-1.2795119E-1],"split_indices":[1,1,0,1,1,0,1,0,0,0,0,0,1,0,1,0,0,0,0,0,0,0,0,0,0,0,0,0,0],"split_type":[0,0,0,0,0,0,0,0,0,0,0,0,0,0,0,0,0,0,0,0,0,0,0,0,0,0,0,0,0],"sum_hessian":[5.168E3,4.132E3,1.036E3,2.316E3,1.816E3,8.92E2,1.44E2,5.53E2,1.763E3,1.023E3,7.93E2,3.75E2,5.17E2,4E1,1.04E2,4.04E2,1.49E2,1.46E3,3.03E2,5.02E2,5.21E2,1.14E2,6.79E2,1.25E2,2.5E2,4.28E2,8.9E1,8.4E1,2E1],"tree_param":{"num_deleted":"0","num_feature":"2","num_nodes":"29","size_leaf_vector":"1"}},{"base_weights":[-1.793431E-3,4.573471E-2,-2.7255374E-1,-9.445444E-2,2.0172535E-1,-1.972662E-1,-6.498031E-1,-3.0271918E-1,-2.8993478E-2,4.4584066E-1,-3.4512427E-2,-4.7964394E-1,-2.1966545E-2,-1.8617463E-1,-8.584277E-1,-2.2885436E-2,-3.3400234E-2,4.2087943E-3,-3.705098E-2,6.861224E-2,2.1345077E-2,-7.306434E-2,6.712238E-3,-3.9449777E-2,-7.11984E-2,3.006867E-2,-2.9671758E-2,-7.915557E-2,3.2201733E-2,-7.533958E-2,-1.1576537E-1],"categories":[],"categories_nodes":[],"categories_segments":[],"categories_sizes":[],"default_left":[0,0,0,0,0,0,0,0,0,0,0,0,0,0,0,0,0,0,0,0,0,0,0,0,0,0,0,0,0,0,0],"id":34,"left_children":[1,3,5,7,9,11,13,15,17,19,21,23,25,27,29,-1,-1,-1,-1,-1,-1,-1,-1,-1,-1,-1,-1,-1,-1,-1,-1],"loss_changes":[6.653096E1,9.619538E1,2.1798298E1,3.157937E1,1.2008279E2,3.1917427E1,1.22209015E1,1.203701E0,4.2837517E1,5.70327E1,7.497449E1,4.605488E0,3.5460297E1,1.2868537E1,1.8935165E0,0E0,0E0,0E0,0E0,0E0,0E0,0E0,0E0,0E0,0E0,0E0,0E0,0E0,0E0,0E0,0E0],"parents":[2147483647,0,0,1,1,2,2,3,3,4,4,5,5,6,6,7,7,8,8,9,9,10,10,11,11,12,12,13,13,14,14],"right_children":[2,4,6,8,10,12,14,16,18,20,22,24,26,28,30,-1,-1,-1,-1,-1,-1,-1,-1,-1,-1,-1,-1,-1,-1,-1,-1],"split_conditions":[2.1E1,1.3E1,2.3E1,4E0,1.7E1,4E0,5E0,2E0,7E0,5E0,2E0,3E0,6E0,2E0,7E0,-2.2885436E-2,-3.3400234E-2,4.2087943E-3,-3.705098E-2,6.861224E-2,2.1345077E-2,-7.306434E-2,6.712238E-3,-3.9449777E-2,-7.11984E-2,3.006867E-2,-2.9671758E-2,-7.915557E-2,3.2201733E-2,-7.533958E-2,-1.1576537E-1],"split_indices":[1,1,1,1,1,0,0,0,0,0,0,0,0,0,0,0,0,0,0,0,0,0,0,0,0,0,0,0,0,0,0],"split_type":[0,0,0,0,0,0,0,0,0,0,0,0,0,0,0,0,0,0,0,0,0,0,0,0,0,0,0,0,0,0,0],"sum_hessian":[5.168E3,4.397E3,7.71E2,2.316E3,2.081E3,6.44E2,1.27E2,5.53E2,1.763E3,1.023E3,1.058E3,2.46E2,3.98E2,4E1,8.7E1,1.67E2,3.86E2,1.46E3,3.03E2,5.02E2,5.21E2,1.34E2,9.24E2,1.82E2,6.4E1,1.83E2,2.15E2,1.8E1,2.2E1,6.7E1,2E1],"tree_param":{"num_deleted":"0","num_feature":"2","num_nodes":"31","size_leaf_vector":"1"}},{"base_weights":[-1.6943121E-3,2.9312378E-2,-3.4090215E-1,-2.1757163E-1,8.632734E-2,-2.6536682E-1,-7.6446575E-1,-2.9059774E-1,-1.3037464E-1,1.9683468E-1,-2.3880886E-2,-4.973446E-1,5.104486E-2,-6.1544128E-2,-1.04740076E-1,-3.416391E-2,-2.2373999E-2,1.2380484E-2,-2.4478894E-2,-3.0382266E-3,9.972445E-2,-2.0459047E-1,1.2708015E-2,-5.723561E-2,-1.6870229E-2,6.0219135E-2,-6.791644E-2],"categories":[],"categories_nodes":[],"categories_segments":[],"categories_sizes":[],"default_left":[0,0,0,0,0,0,0,0,0,0,0,0,0,0,0,0,0,0,0,0,0,0,0,0,0,0,0],"id":35,"left_children":[1,3,5,7,9,11,13,15,17,19,21,23,25,-1,-1,-1,-1,-1,-1,-1,-1,-1,-1,-1,-1,-1,-1],"loss_changes":[5.437605E1,6.669718E1,1.3650543E1,5.622963E0,4.6880974E1,2.7110165E1,2.0960617E0,1.571804E0,1.1866585E1,3.4957806E2,5.887758E2,5.1543083E0,6.3593983E1,0E0,0E0,0E0,0E0,0E0,0E0,0E0,0E0,0E0,0E0,0E0,0E0,0E0,0E0],"parents":[2147483647,0,0,1,1,2,2,3,3,4,4,5,5,6,6,7,7,8,8,9,9,10,10,11,11,12,12],"right_children":[2,4,6,8,10,12,14,16,18,20,22,24,26,-1,-1,-1,-1,-1,-1,-1,-1,-1,-1,-1,-1,-1,-1],"split_conditions":[2.2E1,6E0,7E0,3E0,5E0,5E0,2.3E1,5E0,3E0,4E0,8E0,2.3E1,2.3E1,-6.1544128E-2,-1.04740076E-1,-3.416391E-2,-2.2373999E-2,1.2380484E-2,-2.4478894E-2,-3.0382266E-3,9.972445E-2,-2.0459047E-1,1.2708015E-2,-5.723561E-2,-1.6870229E-2,6.0219135E-2,-6.791644E-2],"split_indices":[1,1,0,1,0,0,1,0,0,0,1,1,1,0,0,0,0,0,0,0,0,0,0,0,0,0,0],"split_type":[0,0,0,0,0,0,0,0,0,0,0,0,0,0,0,0,0,0,0,0,0,0,0,0,0,0,0],"sum_hessian":[5.168E3,4.736E3,4.32E2,8.88E2,3.848E3,3.68E2,6.4E1,4.82E2,4.06E2,1.921E3,1.927E3,2.12E2,1.56E2,4.4E1,2E1,2.71E2,2.11E2,1.26E2,2.8E2,1.497E3,4.24E2,1.33E2,1.794E3,1.72E2,4E1,8.9E1,6.7E1],"tree_param":{"num_deleted":"0","num_feature":"2","num_nodes":"27","size_leaf_vector":"1"}},{"base_weights":[-1.6045613E-3,4.8094533E-2,-1.996805E-1,-5.9014168E-2,2.2979163E-1,-1.0051299E-1,-8.090386E-1,2.181393E-2,-4.0123576E-1,5.0909317E-1,-3.0803982E-2,-4.2342433E-1,1.340723E-1,-1.326565E-1,-5.992517E-1,-8.331066E-3,4.728968E-2,-2.6011348E-2,-1.8129505E-1,2.5395153E-2,1.671627E-1,-5.0480027E-2,4.9402458E-3,-6.946598E-2,-2.8557936E-2,6.587344E-2,-1.5606427E-3,-5.0612725E-2,-9.476482E-2],"categories":[],"categories_nodes":[],"categories_segments":[],"categories_sizes":[],"default_left":[0,0,0,0,0,0,0,0,0,0,0,0,0,0,0,0,0,0,0,0,0,0,0,0,0,0,0,0,0],"id":36,"left_children":[1,3,5,7,9,11,13,15,17,19,21,23,25,-1,27,-1,-1,-1,-1,-1,-1,-1,-1,-1,-1,-1,-1,-1,-1],"loss_changes":[5.089425E1,8.044727E1,6.258307E1,7.195532E1,1.1159471E2,6.770175E1,1.4947739E1,9.985829E1,9.854296E1,2.1906743E2,3.0210876E1,1.3859673E1,4.068921E1,0E0,2.9270134E0,0E0,0E0,0E0,0E0,0E0,0E0,0E0,0E0,0E0,0E0,0E0,0E0,0E0,0E0],"parents":[2147483647,0,0,1,1,2,2,3,3,4,4,5,5,6,6,7,7,8,8,9,9,10,10,11,11,12,12,14,14],"right_children":[2,4,6,8,10,12,14,16,18,20,22,24,26,-1,28,-1,-1,-1,-1,-1,-1,-1,-1,-1,-1,-1,-1,-1,-1],"split_conditions":[2E1,1.4E1,7E0,7E0,1.7E1,4E0,2.1E1,6E0,1.3E1,7E0,2E0,2E0,2.1E1,-1.326565E-1,2.3E1,-8.331066E-3,4.728968E-2,-2.6011348E-2,-1.8129505E-1,2.5395153E-2,1.671627E-1,-5.0480027E-2,4.9402458E-3,-6.946598E-2,-2.8557936E-2,6.587344E-2,-1.5606427E-3,-5.0612725E-2,-9.476482E-2],"split_indices":[1,1,0,0,1,0,1,0,1,0,0,0,1,0,1,0,0,0,0,0,0,0,0,0,0,0,0,0,0],"split_type":[0,0,0,0,0,0,0,0,0,0,0,0,0,0,0,0,0,0,0,0,0,0,0,0,0,0,0,0,0],"sum_hessian":[5.168E3,4.132E3,1.036E3,2.6E3,1.532E3,8.92E2,1.44E2,2.104E3,4.96E2,7.39E2,7.93E2,3.75E2,5.17E2,4E1,1.04E2,1.707E3,3.97E2,4.52E2,4.4E1,6.07E2,1.32E2,1.14E2,6.79E2,1.25E2,2.5E2,1.14E2,4.03E2,8.4E1,2E1],"tree_param":{"num_deleted":"0","num_feature":"2","num_nodes":"29","size_leaf_vector":"1"}},{"base_weights":[-1.5083352E-3,4.328022E-2,-1.8001325E-1,-7.076046E-2,1.8867867E-1,-9.0499625E-2,-7.300523E-1,-2.3909669E-1,-1.7852843E-2,4.0167388E-1,-1.6248433E-2,-3.813427E-1,1.2078898E-1,-1.1971444E-1,-5.407111E-1,-2.7438706E-2,-1.4221865E-2,-1.0394971E-2,1.5233836E-2,7.960277E-3,1.5212397E-1,3.424792E-2,-2.964517E-2,-6.257451E-2,-2.5713533E-2,5.934341E-2,-1.4050069E-3,-4.5610994E-2,-8.573961E-2],"categories":[],"categories_nodes":[],"categories_segments":[],"categories_sizes":[],"default_left":[0,0,0,0,0,0,0,0,0,0,0,0,0,0,0,0,0,0,0,0,0,0,0,0,0,0,0,0,0],"id":37,"left_children":[1,3,5,7,9,11,13,15,17,19,21,23,25,-1,27,-1,-1,-1,-1,-1,-1,-1,-1,-1,-1,-1,-1,-1,-1],"loss_changes":[4.133383E1,6.854402E1,5.0991657E1,2.0631554E1,7.9315834E1,5.4922546E1,1.217646E1,1.8550282E0,2.5863604E1,3.2115558E2,9.328047E1,1.125317E1,3.3021004E1,0E0,2.4220867E0,0E0,0E0,0E0,0E0,0E0,0E0,0E0,0E0,0E0,0E0,0E0,0E0,0E0,0E0],"parents":[2147483647,0,0,1,1,2,2,3,3,4,4,5,5,6,6,7,7,8,8,9,9,10,10,11,11,12,12,14,14],"right_children":[2,4,6,8,10,12,14,16,18,20,22,24,26,-1,28,-1,-1,-1,-1,-1,-1,-1,-1,-1,-1,-1,-1,-1,-1],"split_conditions":[2E1,1.3E1,7E0,4E0,5E0,4E0,2.1E1,7E0,6E0,4E0,1.6E1,2E0,2.1E1,-1.1971444E-1,2.3E1,-2.7438706E-2,-1.4221865E-2,-1.0394971E-2,1.5233836E-2,7.960277E-3,1.5212397E-1,3.424792E-2,-2.964517E-2,-6.257451E-2,-2.5713533E-2,5.934341E-2,-1.4050069E-3,-4.5610994E-2,-8.573961E-2],"split_indices":[1,1,0,1,0,0,1,0,0,0,1,0,1,0,1,0,0,0,0,0,0,0,0,0,0,0,0,0,0],"split_type":[0,0,0,0,0,0,0,0,0,0,0,0,0,0,0,0,0,0,0,0,0,0,0,0,0,0,0,0,0],"sum_hessian":[5.168E3,4.132E3,1.036E3,2.316E3,1.816E3,8.92E2,1.44E2,5.53E2,1.763E3,8.9E2,9.26E2,3.75E2,5.17E2,4E1,1.04E2,4.04E2,1.49E2,1.171E3,5.92E2,6.92E2,1.98E2,4.06E2,5.2E2,1.25E2,2.5E2,1.14E2,4.03E2,8.4E1,2E1],"tree_param":{"num_deleted":"0","num_feature":"2","num_nodes":"29","size_leaf_vector":"1"}},{"base_weights":[-1.3871262E-3,5.2878838E-2,-1.255904E-1,-5.1030517E-2,3.236357E-1,-5.315774E-1,9.7106785E-2,2.4205906E-2,-3.6958513E-1,9.7166395E-1,6.956945E-2,-1.1379167E0,-4.0916637E-1,5.6803143E-1,-2.8130803E-1,-6.697535E-3,4.1544553E-2,-2.3967132E-2,-1.6691712E-1,7.001719E-2,1.4714892E-1,-2.035893E-2,8.9939706E-2,-1.8006933E-1,-5.5679288E-2,-7.568893E-2,-2.0245912E-2,1.5546279E-1,3.2926496E-2,-7.658505E-2,-1.9372566E-2],"categories":[],"categories_nodes":[],"categories_segments":[],"categories_sizes":[],"default_left":[0,0,0,0,0,0,0,0,0,0,0,0,0,0,0,0,0,0,0,0,0,0,0,0,0,0,0,0,0,0,0],"id":38,"left_children":[1,3,5,7,9,11,13,15,17,19,21,23,25,27,29,-1,-1,-1,-1,-1,-1,-1,-1,-1,-1,-1,-1,-1,-1,-1,-1],"loss_changes":[3.4845757E1,1.0124327E2,1.4217953E2,6.2346878E1,1.6424525E2,4.0876404E1,1.8121594E2,7.5120995E1,8.351054E1,3.7100983E1,1.6293552E2,3.481682E1,3.3269493E1,1.0619957E2,2.3786312E1,0E0,0E0,0E0,0E0,0E0,0E0,0E0,0E0,0E0,0E0,0E0,0E0,0E0,0E0,0E0,0E0],"parents":[2147483647,0,0,1,1,2,2,3,3,4,4,5,5,6,6,7,7,8,8,9,9,10,10,11,11,12,12,13,13,14,14],"right_children":[2,4,6,8,10,12,14,16,18,20,22,24,26,28,30,-1,-1,-1,-1,-1,-1,-1,-1,-1,-1,-1,-1,-1,-1,-1,-1],"split_conditions":[1.8E1,1.4E1,4E0,7E0,3E0,1.9E1,6E0,6E0,1.3E1,2E0,7E0,3E0,2E0,1.9E1,1.9E1,-6.697535E-3,4.1544553E-2,-2.3967132E-2,-1.6691712E-1,7.001719E-2,1.4714892E-1,-2.035893E-2,8.9939706E-2,-1.8006933E-1,-5.5679288E-2,-7.568893E-2,-2.0245912E-2,1.5546279E-1,3.2926496E-2,-7.658505E-2,-1.9372566E-2],"split_indices":[1,1,0,0,0,1,0,0,1,0,0,0,0,1,1,0,0,0,0,0,0,0,0,0,0,0,0,0,0,0,0],"split_type":[0,0,0,0,0,0,0,0,0,0,0,0,0,0,0,0,0,0,0,0,0,0,0,0,0,0,0,0,0,0,0],"sum_hessian":[5.168E3,3.597E3,1.571E3,2.6E3,9.97E2,5.56E2,1.015E3,2.104E3,4.96E2,2.8E2,7.17E2,9.2E1,4.64E2,4.52E2,5.63E2,1.707E3,3.97E2,4.52E2,4.4E1,1.83E2,9.7E1,5.4E2,1.77E2,4.2E1,5E1,1.72E2,2.92E2,8.7E1,3.65E2,8.5E1,4.78E2],"tree_param":{"num_deleted":"0","num_feature":"2","num_nodes":"31","size_leaf_vector":"1"}},{"base_weights":[-1.2694739E-3,-1.6674308E-1,3.3093363E-2,-1.54386E-1,-6.0568E-2,1.3399555E-1,-1.0212261E-1,-2.2251254E-1,-6.829354E-2,2.9057343E-2,4.5151943E-1,-2.6399225E-2,-4.976489E-1,-2.5999665E-2,-1.1307809E-2,5.217007E-3,-2.6502306E-2,-8.993226E-3,2.367147E-2,8.9112334E-2,2.5611175E-2,-2.3996862E-2,1.4023523E-2,-9.240472E-2,-4.168779E-2],"categories":[],"categories_nodes":[],"categories_segments":[],"categories_sizes":[],"default_left":[0,0,0,0,0,0,0,0,0,0,0,0,0,0,0,0,0,0,0,0,0,0,0,0,0],"id":39,"left_children":[1,3,5,7,-1,9,11,13,15,17,19,21,23,-1,-1,-1,-1,-1,-1,-1,-1,-1,-1,-1,-1],"loss_changes":[2.939719E1,4.728407E0,5.842188E1,5.0640507E0,0E0,8.168846E1,5.479644E1,1.951891E0,9.114145E0,4.5584812E1,5.2086067E1,5.4732433E1,9.740326E0,0E0,0E0,0E0,0E0,0E0,0E0,0E0,0E0,0E0,0E0,0E0,0E0],"parents":[2147483647,0,0,1,1,2,2,3,3,5,5,6,6,7,7,8,8,9,9,10,10,11,11,12,12],"right_children":[2,4,6,8,-1,10,12,14,16,18,20,22,24,-1,-1,-1,-1,-1,-1,-1,-1,-1,-1,-1,-1],"split_conditions":[6E0,5E0,1.7E1,3E0,-6.0568E-2,1.5E1,7E0,7E0,6E0,6E0,3E0,4E0,1.8E1,-2.5999665E-2,-1.1307809E-2,5.217007E-3,-2.6502306E-2,-8.993226E-3,2.367147E-2,8.9112334E-2,2.5611175E-2,-2.3996862E-2,1.4023523E-2,-9.240472E-2,-4.168779E-2],"split_indices":[1,1,1,1,0,1,0,0,0,0,0,0,1,0,0,0,0,0,0,0,0,0,0,0,0],"split_type":[0,0,0,0,0,0,0,0,0,0,0,0,0,0,0,0,0,0,0,0,0,0,0,0,0],"sum_hessian":[5.168E3,8.88E2,4.28E3,8.65E2,2.3E1,2.451E3,1.829E3,4.82E2,3.83E2,1.843E3,6.08E2,1.536E3,2.93E2,3.58E2,1.24E2,2.38E2,1.45E2,1.172E3,6.71E2,1.86E2,4.22E2,6.73E2,8.63E2,4.5E1,2.48E2],"tree_param":{"num_deleted":"0","num_feature":"2","num_nodes":"25","size_leaf_vector":"1"}},{"base_weights":[-1.1685217E-3,7.297966E-2,-7.729275E-2,-6.368062E-2,5.54587E-1,-6.2163633E-1,9.152697E-2,3.2658592E-1,-2.1734622E-1,8.7057304E-1,-1.4504302E-1,-1.9119401E-1,-1.4837112E0,1.1412508E0,-6.086628E-2,-1.6154494E-2,1.4128296E-1,-1.06274344E-1,-1.0406621E-2,3.3040773E-2,2.5720283E-1,-4.056956E-2,1.1706252E-3,-1.6823916E-2,-5.476358E-2,-2.552409E-1,-1.1317512E-1,1.4255804E-1,4.7018062E-2,-5.5845864E-2,-5.5169792E-5],"categories":[],"categories_nodes":[],"categories_segments":[],"categories_sizes":[],"default_left":[0,0,0,0,0,0,0,0,0,0,0,0,0,0,0,0,0,0,0,0,0,0,0,0,0,0,0,0,0,0,0],"id":40,"left_children":[1,3,5,7,9,11,13,15,17,19,21,23,25,27,29,-1,-1,-1,-1,-1,-1,-1,-1,-1,-1,-1,-1,-1,-1,-1,-1],"loss_changes":[2.9181923E1,1.7240897E2,2.3448341E2,1.2247087E2,1.2812773E2,2.2384474E2,3.1169266E2,3.061704E2,1.401875E2,3.6585794E2,7.399884E0,3.2134209E0,7.271524E1,4.6458557E1,5.108024E1,0E0,0E0,0E0,0E0,0E0,0E0,0E0,0E0,0E0,0E0,0E0,0E0,0E0,0E0,0E0,0E0],"parents":[2147483647,0,0,1,1,2,2,3,3,4,4,5,5,6,6,7,7,8,8,9,9,10,10,11,11,12,12,13,13,14,14],"right_children":[2,4,6,8,10,12,14,16,18,20,22,24,26,28,30,-1,-1,-1,-1,-1,-1,-1,-1,-1,-1,-1,-1,-1,-1,-1,-1],"split_conditions":[5E0,4E0,9E0,8E0,1.9E1,6E0,1.1E1,5E0,1E1,1.6E1,2.1E1,5E0,6E0,7E0,1.2E1,-1.6154494E-2,1.4128296E-1,-1.06274344E-1,-1.0406621E-2,3.3040773E-2,2.5720283E-1,-4.056956E-2,1.1706252E-3,-1.6823916E-2,-5.476358E-2,-2.552409E-1,-1.1317512E-1,1.4255804E-1,4.7018062E-2,-5.5845864E-2,-5.5169792E-5],"split_indices":[0,0,1,1,1,1,1,1,1,1,1,1,0,0,1,0,0,0,0,0,0,0,0,0,0,0,0,0,0,0,0],"split_type":[0,0,0,0,0,0,0,0,0,0,0,0,0,0,0,0,0,0,0,0,0,0,0,0,0,0,0,0,0,0,0],"sum_hessian":[5.168E3,2.618E3,2.55E3,2.04E3,5.78E2,6.03E2,1.947E3,5.76E2,1.464E3,3.98E2,1.8E2,4.03E2,2E2,2.46E2,1.701E3,3.98E2,1.78E2,1.72E2,1.292E3,3.03E2,9.5E1,6.7E1,1.13E2,3.8E2,2.3E1,4.8E1,1.52E2,1.72E2,7.4E1,1.83E2,1.518E3],"tree_param":{"num_deleted":"0","num_feature":"2","num_nodes":"31","size_leaf_vector":"1"}},{"base_weights":[-1.0607764E-3,1.0835454E-2,-4.6965244E-1,-1.3759583E-1,4.2598713E-2,-7.017094E-2,-6.5043755E-2,-5.236848E-2,-1.8313661E-1,1.1730305E-1,-6.4986505E-2,-4.7119472E-2,2.6416048E-2,-1.9138599E-2,1.5054968E-2,-4.689924E-2,-1.3094864E-2,2.7312262E-3,3.8959485E-2,4.234615E-4,-4.2601284E-2],"categories":[],"categories_nodes":[],"categories_segments":[],"categories_sizes":[],"default_left":[0,0,0,0,0,0,0,0,0,0,0,0,0,0,0,0,0,0,0,0,0],"id":41,"left_children":[1,3,5,7,9,11,-1,13,15,17,19,-1,-1,-1,-1,-1,-1,-1,-1,-1,-1],"loss_changes":[2.8819548E1,2.3777185E1,9.198557E0,3.4409046E0,3.339366E1,5.62154E0,0E0,8.8018675E0,8.576244E0,6.0072563E1,4.256087E1,0E0,0E0,0E0,0E0,0E0,0E0,0E0,0E0,0E0,0E0],"parents":[2147483647,0,0,1,1,2,2,3,3,4,4,5,5,7,7,8,8,9,9,10,10],"right_children":[2,4,6,8,10,12,-1,14,16,18,20,-1,-1,-1,-1,-1,-1,-1,-1,-1,-1],"split_conditions":[2.3E1,6E0,5E0,3E0,1.7E1,2E0,-6.5043755E-2,3E0,4E0,1.5E1,7E0,-4.7119472E-2,2.6416048E-2,-1.9138599E-2,1.5054968E-2,-4.689924E-2,-1.3094864E-2,2.7312262E-3,3.8959485E-2,4.234615E-4,-4.2601284E-2],"split_indices":[1,1,0,0,1,0,0,1,0,1,0,0,0,0,0,0,0,0,0,0,0],"split_type":[0,0,0,0,0,0,0,0,0,0,0,0,0,0,0,0,0,0,0,0,0],"sum_hessian":[5.168E3,5.041E3,1.27E2,8.88E2,4.153E3,4E1,8.7E1,3.1E2,5.78E2,2.451E3,1.702E3,1.8E1,2.2E1,1.84E2,1.26E2,8.8E1,4.9E2,1.843E3,6.08E2,1.429E3,2.73E2],"tree_param":{"num_deleted":"0","num_feature":"2","num_nodes":"21","size_leaf_vector":"1"}},{"base_weights":[-9.838017E-4,9.739083E-3,-4.2335725E-1,-1.23908326E-1,3.83387E-2,-6.365878E-2,-5.861332E-2,-1.13824464E-1,-4.826047E-2,1.0558967E-1,-5.8512576E-2,-4.2655535E-2,2.3889309E-2,-1.7002704E-2,-4.283575E-3,2.458242E-3,3.5069935E-2,3.8114822E-4,-3.835669E-2],"categories":[],"categories_nodes":[],"categories_segments":[],"categories_sizes":[],"default_left":[0,0,0,0,0,0,0,0,0,0,0,0,0,0,0,0,0,0,0],"id":42,"left_children":[1,3,5,7,9,11,-1,13,-1,15,17,-1,-1,-1,-1,-1,-1,-1,-1],"loss_changes":[2.3414845E1,1.9276608E1,7.457117E0,3.1606197E0,2.7062603E1,4.6034975E0,0E0,3.4478388E0,0E0,4.8677452E1,3.450204E1,0E0,0E0,0E0,0E0,0E0,0E0,0E0,0E0],"parents":[2147483647,0,0,1,1,2,2,3,3,4,4,5,5,7,7,9,9,10,10],"right_children":[2,4,6,8,10,12,-1,14,-1,16,18,-1,-1,-1,-1,-1,-1,-1,-1],"split_conditions":[2.3E1,6E0,5E0,5E0,1.7E1,2E0,-5.861332E-2,3E0,-4.826047E-2,1.5E1,7E0,-4.2655535E-2,2.3889309E-2,-1.7002704E-2,-4.283575E-3,2.458242E-3,3.5069935E-2,3.8114822E-4,-3.835669E-2],"split_indices":[1,1,0,1,1,0,0,1,0,1,0,0,0,0,0,0,0,0,0],"split_type":[0,0,0,0,0,0,0,0,0,0,0,0,0,0,0,0,0,0,0],"sum_hessian":[5.168E3,5.041E3,1.27E2,8.88E2,4.153E3,4E1,8.7E1,8.65E2,2.3E1,2.451E3,1.702E3,1.8E1,2.2E1,4.82E2,3.83E2,1.843E3,6.08E2,1.429E3,2.73E2],"tree_param":{"num_deleted":"0","num_feature":"2","num_nodes":"19","size_leaf_vector":"1"}},{"base_weights":[-9.141609E-4,1.763056E-2,-2.0379044E-1,9.553382E-2,-6.282022E-2,-3.4937373E-1,-6.255499E-2,-4.2875435E-2,6.07894E-1,-5.442068E-1,1.0547856E-1,-4.1646722E-1,-5.7750657E-2,2.4369907E-1,-5.2818555E-2,3.1047015E-2,-1.972978E-2,2.958469E-2,1.0588721E-1,-1.4577004E-2,-1.3423373E-1,1.022725E-1,-4.7467016E-3,-8.813845E-3,-5.1778045E-2,-3.8614485E-2,2.160424E-2,8.467149E-2,-7.0710215E-3],"categories":[],"categories_nodes":[],"categories_segments":[],"categories_sizes":[],"default_left":[0,0,0,0,0,0,0,0,0,0,0,0,0,0,0,0,0,0,0,0,0,0,0,0,0,0,0,0,0],"id":43,"left_children":[1,3,5,7,9,11,13,15,17,19,21,23,25,27,-1,-1,-1,-1,-1,-1,-1,-1,-1,-1,-1,-1,-1,-1,-1],"loss_changes":[1.9450836E1,2.969457E1,8.881285E0,1.707194E2,1.8890749E2,4.143509E0,3.1643595E1,1.0351547E2,7.173865E1,1.9187904E2,2.4246756E2,5.7090397E0,3.7698178E0,2.5465437E1,0E0,0E0,0E0,0E0,0E0,0E0,0E0,0E0,0E0,0E0,0E0,0E0,0E0,0E0,0E0],"parents":[2147483647,0,0,1,1,2,2,3,3,4,4,5,5,6,6,7,7,8,8,9,9,10,10,11,11,12,12,13,13],"right_children":[2,4,6,8,10,12,14,16,18,20,22,24,26,28,-1,-1,-1,-1,-1,-1,-1,-1,-1,-1,-1,-1,-1,-1,-1],"split_conditions":[2.2E1,5E0,5E0,4E0,9E0,2.3E1,2.3E1,8E0,1.6E1,6E0,1.1E1,2E0,2E0,6E0,-5.2818555E-2,3.1047015E-2,-1.972978E-2,2.958469E-2,1.0588721E-1,-1.4577004E-2,-1.3423373E-1,1.022725E-1,-4.7467016E-3,-8.813845E-3,-5.1778045E-2,-3.8614485E-2,2.160424E-2,8.467149E-2,-7.0710215E-3],"split_indices":[1,0,0,0,1,1,1,1,1,1,1,0,0,0,0,0,0,0,0,0,0,0,0,0,0,0,0,0,0],"split_type":[0,0,0,0,0,0,0,0,0,0,0,0,0,0,0,0,0,0,0,0,0,0,0,0,0,0,0,0,0],"sum_hessian":[5.168E3,4.736E3,4.32E2,2.406E3,2.33E3,2.12E2,2.2E2,1.895E3,5.11E2,6.03E2,1.727E3,1.72E2,4E1,1.33E2,8.7E1,5.76E2,1.319E3,3.03E2,2.08E2,4.03E2,2E2,2.46E2,1.481E3,4.1E1,1.31E2,1.8E1,2.2E1,4.5E1,8.8E1],"tree_param":{"num_deleted":"0","num_feature":"2","num_nodes":"29","size_leaf_vector":"1"}},{"base_weights":[-8.1446546E-4,3.6987517E-2,-8.733528E-2,1.7477271E-1,-1.0652389E-1,-4.1810042E-1,9.408551E-2,5.9058644E-2,9.47728E-1,-6.805644E-1,1.1936765E-1,-7.832254E-1,-2.4025242E-1,4.4166303E-1,-1.8525264E-1,3.0796317E-2,-1.4283794E-2,5.4835744E-2,2.4851167E-1,-5.34571E-2,-2.1034868E-1,-4.049157E-2,4.2113855E-2,-1.0252725E-1,-3.9037336E-2,-4.2358793E-2,-1.4726228E-2,1.1945337E-1,2.5943821E-2,-6.409187E-2,-1.0305528E-2],"categories":[],"categories_nodes":[],"categories_segments":[],"categories_sizes":[],"default_left":[0,0,0,0,0,0,0,0,0,0,0,0,0,0,0,0,0,0,0,0,0,0,0,0,0,0,0,0,0,0,0],"id":44,"left_children":[1,3,5,7,9,11,13,15,17,19,21,23,25,27,29,-1,-1,-1,-1,-1,-1,-1,-1,-1,-1,-1,-1,-1,-1,-1,-1],"loss_changes":[1.6909262E1,7.116456E1,9.437138E1,1.6415916E2,2.2869101E2,3.5981598E1,9.8726944E1,8.0348236E1,1.4538036E2,1.02328674E2,2.0046877E2,1.69059E1,6.3478184E0,6.183795E1,2.1058308E1,0E0,0E0,0E0,0E0,0E0,0E0,0E0,0E0,0E0,0E0,0E0,0E0,0E0,0E0,0E0,0E0],"parents":[2147483647,0,0,1,1,2,2,3,3,4,4,5,5,6,6,7,7,8,8,9,9,10,10,11,11,12,12,13,13,14,14],"right_children":[2,4,6,8,10,12,14,16,18,20,22,24,26,28,30,-1,-1,-1,-1,-1,-1,-1,-1,-1,-1,-1,-1,-1,-1,-1,-1],"split_conditions":[1.8E1,5E0,4E0,1.6E1,6E0,2E1,6E0,8E0,4E0,1.7E1,9E0,3E0,2E0,1.9E1,1.9E1,3.0796317E-2,-1.4283794E-2,5.4835744E-2,2.4851167E-1,-5.34571E-2,-2.1034868E-1,-4.049157E-2,4.2113855E-2,-1.0252725E-1,-3.9037336E-2,-4.2358793E-2,-1.4726228E-2,1.1945337E-1,2.5943821E-2,-6.409187E-2,-1.0305528E-2],"split_indices":[1,0,0,1,0,1,0,1,0,1,1,0,0,1,1,0,0,0,0,0,0,0,0,0,0,0,0,0,0,0,0],"split_type":[0,0,0,0,0,0,0,0,0,0,0,0,0,0,0,0,0,0,0,0,0,0,0,0,0,0,0,0,0,0,0],"sum_hessian":[5.168E3,3.597E3,1.571E3,1.835E3,1.762E3,5.56E2,1.015E3,1.597E3,2.38E2,4.97E2,1.265E3,1.81E2,3.75E2,4.52E2,5.63E2,7.15E2,8.82E2,1.9E2,4.8E1,4.52E2,4.5E1,4.62E2,8.03E2,1.11E2,7E1,1.25E2,2.5E2,8.7E1,3.65E2,8.5E1,4.78E2],"tree_param":{"num_deleted":"0","num_feature":"2","num_nodes":"31","size_leaf_vector":"1"}},{"base_weights":[-7.465322E-4,2.2070156E-2,-1.3072975E-1,-1.1887166E-1,5.7761095E-2,-8.870893E-2,-3.41454E-1,-1.8119462E-1,-6.7984216E-2,1.4274625E-1,-2.7402345E-2,-1.7035064E-1,1.1729157E-3,-4.7715176E-2,-4.7442943E-2,-9.6994E-3,-4.7338787E-2,2.874388E-3,-1.2406075E-2,1.1630589E-1,-1.169708E-3,-1.527755E-1,9.664124E-3,3.3074392E-3,-3.6455993E-2,3.7827637E-2,-1.611965E-2,-3.0943323E-2,1.7056126E-2],"categories":[],"categories_nodes":[],"categories_segments":[],"categories_sizes":[],"default_left":[0,0,0,0,0,0,0,0,0,0,0,0,0,0,0,0,0,0,0,0,0,0,0,0,0,0,0,0,0],"id":45,"left_children":[1,3,5,7,9,11,13,15,17,19,21,23,25,27,-1,-1,-1,-1,-1,-1,-1,-1,-1,-1,-1,-1,-1,-1,-1],"loss_changes":[1.5333037E1,2.2130327E1,6.8056192E0,2.807106E0,2.540799E1,4.7332797E0,4.977049E0,9.770622E0,2.6668365E0,2.768825E2,3.2658304E2,1.3365433E1,1.8919838E1,2.3949792E0,0E0,0E0,0E0,0E0,0E0,0E0,0E0,0E0,0E0,0E0,0E0,0E0,0E0,0E0,0E0],"parents":[2147483647,0,0,1,1,2,2,3,3,4,4,5,5,6,6,7,7,8,8,9,9,10,10,11,11,12,12,13,13],"right_children":[2,4,6,8,10,12,14,16,18,20,22,24,26,28,-1,-1,-1,-1,-1,-1,-1,-1,-1,-1,-1,-1,-1,-1,-1],"split_conditions":[2.1E1,6E0,2.3E1,4E0,5E0,5E0,5E0,3E0,6E0,8E0,8E0,2.2E1,6E0,2E0,-4.7442943E-2,-9.6994E-3,-4.7338787E-2,2.874388E-3,-1.2406075E-2,1.1630589E-1,-1.169708E-3,-1.527755E-1,9.664124E-3,3.3074392E-3,-3.6455993E-2,3.7827637E-2,-1.611965E-2,-3.0943323E-2,1.7056126E-2],"split_indices":[1,1,1,0,0,0,0,0,0,1,1,1,0,0,0,0,0,0,0,0,0,0,0,0,0,0,0,0,0],"split_type":[0,0,0,0,0,0,0,0,0,0,0,0,0,0,0,0,0,0,0,0,0,0,0,0,0,0,0,0,0],"sum_hessian":[5.168E3,4.397E3,7.71E2,8.88E2,3.509E3,6.44E2,1.27E2,3.98E2,4.9E2,1.756E3,1.753E3,3.37E2,3.07E2,4E1,8.7E1,3.1E2,8.8E1,1.8E2,3.1E2,2.3E2,1.526E3,1.33E2,1.62E3,1.65E2,1.72E2,9.2E1,2.15E2,1.8E1,2.2E1],"tree_param":{"num_deleted":"0","num_feature":"2","num_nodes":"29","size_leaf_vector":"1"}},{"base_weights":[-7.0447294E-4,1.9841354E-2,-1.177509E-1,-4.5451388E-2,9.24943E-2,-7.985564E-2,-3.0778754E-1,-1.15252145E-1,8.5297555E-2,2.5068492E-1,-3.8351987E-3,-1.5341355E-1,1.1262677E-3,-4.3282486E-2,-4.2752527E-2,9.889635E-3,-3.9526742E-2,-3.2955658E-2,6.417965E-2,1.3476404E-2,8.205602E-2,7.1646483E-3,-3.4638952E-2,2.9786972E-3,-3.2831457E-2,3.4085553E-2,-1.4515127E-2,-2.8011844E-2,1.54246455E-2],"categories":[],"categories_nodes":[],"categories_segments":[],"categories_sizes":[],"default_left":[0,0,0,0,0,0,0,0,0,0,0,0,0,0,0,0,0,0,0,0,0,0,0,0,0,0,0,0,0],"id":46,"left_children":[1,3,5,7,9,11,13,15,17,19,21,23,25,27,-1,-1,-1,-1,-1,-1,-1,-1,-1,-1,-1,-1,-1,-1,-1],"loss_changes":[1.2432828E1,2.0867043E1,5.5349684E0,2.1155642E1,3.1727358E1,3.8423471E0,4.0354137E0,9.064597E1,1.865203E2,5.1945057E1,3.3509087E1,1.083996E1,1.5355461E1,1.9612674E0,0E0,0E0,0E0,0E0,0E0,0E0,0E0,0E0,0E0,0E0,0E0,0E0,0E0,0E0,0E0],"parents":[2147483647,0,0,1,1,2,2,3,3,4,4,5,5,6,6,7,7,8,8,9,9,10,10,11,11,12,12,13,13],"right_children":[2,4,6,8,10,12,14,16,18,20,22,24,26,28,-1,-1,-1,-1,-1,-1,-1,-1,-1,-1,-1,-1,-1,-1,-1],"split_conditions":[2.1E1,1.3E1,2.3E1,6E0,1.6E1,5E0,5E0,8E0,9E0,7E0,7E0,2.2E1,6E0,2E0,-4.2752527E-2,9.889635E-3,-3.9526742E-2,-3.2955658E-2,6.417965E-2,1.3476404E-2,8.205602E-2,7.1646483E-3,-3.4638952E-2,2.9786972E-3,-3.2831457E-2,3.4085553E-2,-1.4515127E-2,-2.8011844E-2,1.54246455E-2],"split_indices":[1,1,1,0,1,0,0,1,1,0,0,1,0,0,0,0,0,0,0,0,0,0,0,0,0,0,0,0,0],"split_type":[0,0,0,0,0,0,0,0,0,0,0,0,0,0,0,0,0,0,0,0,0,0,0,0,0,0,0,0,0],"sum_hessian":[5.168E3,4.397E3,7.71E2,2.316E3,2.081E3,6.44E2,1.27E2,1.51E3,8.06E2,7.87E2,1.294E3,3.37E2,3.07E2,4E1,8.7E1,8.56E2,6.54E2,4.62E2,3.44E2,6.55E2,1.32E2,1.061E3,2.33E2,1.65E2,1.72E2,9.2E1,2.15E2,1.8E1,2.2E1],"tree_param":{"num_deleted":"0","num_feature":"2","num_nodes":"29","size_leaf_vector":"1"}},{"base_weights":[-6.3341827E-4,-1.459542E-1,1.4342169E-2,-2.4948154E-1,-1.2438237E-2,7.883786E-2,-5.0380148E-2,-1.6438784E-1,-3.4534138E-1,1.3946836E-1,-5.5373006E-2,5.380728E-1,-2.8535247E-2,-5.85285E-1,5.7560302E-2,-5.6508005E-2,3.7635711E-3,5.832941E-3,-4.125377E-2,1.5830733E-2,1.1292738E-2,-3.5073515E-2,4.4311658E-3,-9.262218E-5,1.0374093E-1,-7.9388425E-2,6.987071E-3,-1.0352726E-2,-1.0449566E-1,8.747616E-2,-6.1068526E-3],"categories":[],"categories_nodes":[],"categories_segments":[],"categories_sizes":[],"default_left":[0,0,0,0,0,0,0,0,0,0,0,0,0,0,0,0,0,0,0,0,0,0,0,0,0,0,0,0,0,0,0],"id":47,"left_children":[1,3,5,7,9,11,13,15,17,19,21,23,25,27,29,-1,-1,-1,-1,-1,-1,-1,-1,-1,-1,-1,-1,-1,-1,-1,-1],"loss_changes":[1.1251203E1,6.673189E0,1.9568966E1,2.161953E0,1.3904027E0,1.1579404E2,1.351403E2,1.1839861E1,3.4689646E0,5.622983E-3,4.9030924E0,1.1976909E2,1.4345503E2,8.69218E1,1.8889961E2,0E0,0E0,0E0,0E0,0E0,0E0,0E0,0E0,0E0,0E0,0E0,0E0,0E0,0E0,0E0,0E0],"parents":[2147483647,0,0,1,1,2,2,3,3,4,4,5,5,6,6,7,7,8,8,9,9,10,10,11,11,12,12,13,13,14,14],"right_children":[2,4,6,8,10,12,14,16,18,20,22,24,26,28,30,-1,-1,-1,-1,-1,-1,-1,-1,-1,-1,-1,-1,-1,-1,-1,-1],"split_conditions":[3E0,5E0,5E0,2E0,6E0,8E0,9E0,1E0,1E0,1E0,7E0,5E0,1E1,6E0,1.1E1,-5.6508005E-2,3.7635711E-3,5.832941E-3,-4.125377E-2,1.5830733E-2,1.1292738E-2,-3.5073515E-2,4.4311658E-3,-9.262218E-5,1.0374093E-1,-7.9388425E-2,6.987071E-3,-1.0352726E-2,-1.0449566E-1,8.747616E-2,-6.1068526E-3],"split_indices":[1,0,0,0,0,1,1,1,1,1,0,1,1,1,1,0,0,0,0,0,0,0,0,0,0,0,0,0,0,0,0],"split_type":[0,0,0,0,0,0,0,0,0,0,0,0,0,0,0,0,0,0,0,0,0,0,0,0,0,0,0,0,0,0,0],"sum_hessian":[5.168E3,4.82E2,4.686E3,2.71E2,2.11E2,2.347E3,2.339E3,1.45E2,1.26E2,4.6E1,1.65E2,4.44E2,1.903E3,3.92E2,1.947E3,4.8E1,9.7E1,1.8E1,1.08E2,2.4E1,2.2E1,4.1E1,1.24E2,2.14E2,2.3E2,2.16E2,1.687E3,1.92E2,2E2,2.46E2,1.701E3],"tree_param":{"num_deleted":"0","num_feature":"2","num_nodes":"31","size_leaf_vector":"1"}},{"base_weights":[-5.881463E-4,-5.844808E-2,3.715321E-2,5.8600772E-2,-3.7040338E-1,3.8819215E-1,-4.2536598E-2,-1.19555285E-2,8.760789E-1,-9.194565E-1,-2.5979617E-1,6.616279E-1,-2.167197E-1,-3.468657E-1,5.1846012E-2,1.9189902E-2,-1.6045569E-2,5.2137922E-2,1.0875871E-1,-1.48526E-1,-4.2437803E-2,-5.497396E-2,-8.771423E-3,2.4320932E-2,1.979728E-1,-5.091989E-2,-4.035735E-3,-5.0420333E-3,-9.409805E-2,7.8763895E-2,-5.496521E-3],"categories":[],"categories_nodes":[],"categories_segments":[],"categories_sizes":[],"default_left":[0,0,0,0,0,0,0,0,0,0,0,0,0,0,0,0,0,0,0,0,0,0,0,0,0,0,0,0,0,0,0],"id":48,"left_children":[1,3,5,7,9,11,13,15,17,19,21,23,25,27,29,-1,-1,-1,-1,-1,-1,-1,-1,-1,-1,-1,-1,-1,-1,-1,-1],"loss_changes":[1.1289782E1,7.45468E1,8.754787E1,8.566265E1,3.3587303E1,9.591259E1,7.329131E1,4.1443474E1,8.285538E0,2.5420578E1,2.3152502E1,2.1957402E2,9.315849E0,1.0633059E2,1.5313846E2,0E0,0E0,0E0,0E0,0E0,0E0,0E0,0E0,0E0,0E0,0E0,0E0,0E0,0E0,0E0,0E0],"parents":[2147483647,0,0,1,1,2,2,3,3,4,4,5,5,6,6,7,7,8,8,9,9,10,10,11,11,12,12,13,13,14,14],"right_children":[2,4,6,8,10,12,14,16,18,20,22,24,26,28,30,-1,-1,-1,-1,-1,-1,-1,-1,-1,-1,-1,-1,-1,-1,-1,-1],"split_conditions":[4E0,1.8E1,5E0,1.7E1,1.9E1,1.9E1,9E0,8E0,2E0,3E0,2E0,1.6E1,2.1E1,6E0,1.1E1,1.9189902E-2,-1.6045569E-2,5.2137922E-2,1.0875871E-1,-1.48526E-1,-4.2437803E-2,-5.497396E-2,-8.771423E-3,2.4320932E-2,1.979728E-1,-5.091989E-2,-4.035735E-3,-5.0420333E-3,-9.409805E-2,7.8763895E-2,-5.496521E-3],"split_indices":[0,1,0,1,1,1,1,1,0,0,0,1,1,1,1,0,0,0,0,0,0,0,0,0,0,0,0,0,0,0,0],"split_type":[0,0,0,0,0,0,0,0,0,0,0,0,0,0,0,0,0,0,0,0,0,0,0,0,0,0,0,0,0,0,0],"sum_hessian":[5.168E3,2.04E3,3.128E3,1.484E3,5.56E2,5.78E2,2.55E3,1.367E3,1.17E2,9.2E1,4.64E2,3.98E2,1.8E2,6.03E2,1.947E3,5.76E2,7.91E2,4.5E1,7.2E1,4.2E1,5E1,1.72E2,2.92E2,3.03E2,9.5E1,6.7E1,1.13E2,4.03E2,2E2,2.46E2,1.701E3],"tree_param":{"num_deleted":"0","num_feature":"2","num_nodes":"31","size_leaf_vector":"1"}},{"base_weights":[-5.1948027E-4,-1.005983E-1,2.0263186E-2,-1.7994799E-1,-3.5911694E-2,5.158058E-1,4.3732277E-3,-1.062785E-1,-4.353554E-1,-1.8772261E-2,-3.686343E-2,1.5246171E0,-5.6302166E-1,-8.9431055E-2,6.1746966E-2,-1.9862697E-2,1.7694443E-2,-2.4132399E-2,-6.1148643E-2,7.457405E-3,-6.613543E-3,1.7087363E-1,1.1543917E-1,-1.2111234E-1,4.5571264E-2,5.9705436E-2,-1.4138359E-2,4.1005913E-2,-2.051375E-3],"categories":[],"categories_nodes":[],"categories_segments":[],"categories_sizes":[],"default_left":[0,0,0,0,0,0,0,0,0,0,0,0,0,0,0,0,0,0,0,0,0,0,0,0,0,0,0,0,0],"id":49,"left_children":[1,3,5,7,9,11,13,15,17,19,-1,21,23,25,27,-1,-1,-1,-1,-1,-1,-1,-1,-1,-1,-1,-1,-1,-1],"loss_changes":[1.0753064E1,4.556652E0,3.3706985E1,7.4612083E0,2.7930942E0,1.4560672E2,2.2335037E1,8.1694145E0,2.8940048E0,2.0740426E0,0E0,2.7308807E0,4.3467743E1,5.6256237E1,7.378837E1,0E0,0E0,0E0,0E0,0E0,0E0,0E0,0E0,0E0,0E0,0E0,0E0,0E0,0E0],"parents":[2147483647,0,0,1,1,2,2,3,3,4,4,5,5,6,6,7,7,8,8,9,9,11,11,12,12,13,13,14,14],"right_children":[2,4,6,8,10,12,14,16,18,20,-1,22,24,26,28,-1,-1,-1,-1,-1,-1,-1,-1,-1,-1,-1,-1,-1,-1],"split_conditions":[6E0,4E0,7E0,3E0,5E0,3E0,4E0,2E0,2E0,6E0,-3.686343E-2,2E0,7E0,8E0,5E0,-1.9862697E-2,1.7694443E-2,-2.4132399E-2,-6.1148643E-2,7.457405E-3,-6.613543E-3,1.7087363E-1,1.1543917E-1,-1.2111234E-1,4.5571264E-2,5.9705436E-2,-1.4138359E-2,4.1005913E-2,-2.051375E-3],"split_indices":[1,0,1,0,1,0,0,0,1,0,0,0,0,1,0,0,0,0,0,0,0,0,0,0,0,0,0,0,0],"split_type":[0,0,0,0,0,0,0,0,0,0,0,0,0,0,0,0,0,0,0,0,0,0,0,0,0,0,0,0,0],"sum_hessian":[5.168E3,8.88E2,4.28E3,3.98E2,4.9E2,1.32E2,4.148E3,3.1E2,8.8E1,4.67E2,2.3E1,6.8E1,6.4E1,1.574E3,2.574E3,2.34E2,7.6E1,4.3E1,4.5E1,1.57E2,3.1E2,4.3E1,2.5E1,3.9E1,2.5E1,1.1E2,1.464E3,4.91E2,2.083E3],"tree_param":{"num_deleted":"0","num_feature":"2","num_nodes":"29","size_leaf_vector":"1"}}]},"name":"gbtree"},"learner_model_param":{"base_score":"[1.4010448E1]","boost_from_average":"1","num_class":"0","num_feature":"2","num_target":"1"},"objective":{"name":"reg:squarederror","reg_loss_param":{"scale_pos_weight":"1"}}},"version":[3,2,0]}