{"learner":{"attributes":{},"feature_names":["day_of_week","hour_of_day"],"feature_types":[],"gradient_booster":{"model":{"cats":{"enc":[],"feature_segments":[],"sorted_idx":[]},"gbtree_model_param":{"num_parallel_tree":"1","num_trees":"50"},"iteration_indptr":[0,1,2,3,4,5,6,7,8,9,10,11,12,13,14,15,16,17,18,19,20,21,22,23,24,25,26,27,28,29,30,31,32,33,34,35,36,37,38,39,40,41,42,43,44,45,46,47,48,49,50],"tree_info":[0,0,0,0,0,0,0,0,0,0,0,0,0,0,0,0,0,0,0,0,0,0,0,0,0,0,0,0,0,0,0,0,0,0,0,0,0,0,0,0,0,0,0,0,0,0,0,0,0,0],"trees":[{"base_weights":[-4.6050903E-7,-1.02175255E1,1.2163715E0,-1.0777333E1,-6.2889943E0,2.9067588E0,-4.4565735E0,-1.1946156E0,-9.365162E0,-3.94811E-2,-8.5926974E-1,-2.0846295E0,3.6370146E0,-2.2341614E0,-7.344238E0,-8.3592683E-1,-9.755041E-1,1.8403499E-1,-7.188468E-1,4.2321822E-1,8.937629E-2,-4.4805488E-1,-9.252745E-2,-1.0530033E0,-5.5158585E-1],"categories":[],"categories_nodes":[],"categories_segments":[],"categories_sizes":[],"default_left":[0,0,0,0,0,0,0,0,0,0,0,0,0,0,0,0,0,0,0,0,0,0,0,0,0],"id":0,"left_children":[1,3,5,7,9,11,13,-1,15,-1,-1,17,19,21,23,-1,-1,-1,-1,-1,-1,-1,-1,-1,-1],"loss_changes":[6.4254367E4,1.141793E3,4.4316324E4,6.8040234E2,9.6067725E2,1.298375E4,6.7926445E3,0E0,5.515625E0,0E0,0E0,9.127999E3,5.0673633E3,1.7629546E3,2.6271719E3,0E0,0E0,0E0,0E0,0E0,0E0,0E0,0E0,0E0,0E0],"parents":[2147483647,0,0,1,1,2,2,3,3,4,4,5,5,6,6,8,8,11,11,12,12,13,13,14,14],"right_children":[2,4,6,8,10,12,14,-1,16,-1,-1,18,20,22,24,-1,-1,-1,-1,-1,-1,-1,-1,-1,-1],"split_conditions":[4E0,3E0,2E1,5E0,2E0,7E0,2.2E1,-1.1946156E0,1E0,-3.94811E-2,-8.5926974E-1,5E0,1.8E1,4E0,4E0,-8.3592683E-1,-9.755041E-1,1.8403499E-1,-7.188468E-1,4.2321822E-1,8.937629E-2,-4.4805488E-1,-9.252745E-2,-1.0530033E0,-5.5158585E-1],"split_indices":[1,1,1,0,0,1,1,0,1,0,0,0,1,0,0,0,0,0,0,0,0,0,0,0,0],"split_type":[0,0,0,0,0,0,0,0,0,0,0,0,0,0,0,0,0,0,0,0,0,0,0,0,0],"sum_hessian":[5.168E3,5.49E2,4.619E3,4.79E2,7E1,3.559E3,1.06E3,2.58E2,2.21E2,2E1,5E1,4.54E2,3.105E3,6E2,4.6E2,6.8E1,1.53E2,2.57E2,1.97E2,2.551E3,5.54E2,2.2E2,3.8E2,1.66E2,2.94E2],"tree_param":{"num_deleted":"0","num_feature":"2","num_nodes":"25","size_leaf_vector":"1"}},{"base_weights":[-1.1749245E-3,-9.202872E0,1.0942655E0,-9.705863E0,-5.6727533E0,2.616077E0,-4.012938E0,-1.0756153E0,-8.436805E0,-3.5720985E-2,-7.7502763E-1,-1.877342E0,3.2734785E0,-2.0116446E0,-6.6132946E0,-7.5354564E-1,-8.7858725E-1,1.6570278E-1,-6.4732516E-1,3.8091302E-1,8.045476E-2,-4.0345213E-1,-8.3299E-2,-9.4833356E-1,-4.966142E-1],"categories":[],"categories_nodes":[],"categories_segments":[],"categories_sizes":[],"default_left":[0,0,0,0,0,0,0,0,0,0,0,0,0,0,0,0,0,0,0,0,0,0,0,0,0],"id":1,"left_children":[1,3,5,7,9,11,13,-1,15,-1,-1,17,19,21,23,-1,-1,-1,-1,-1,-1,-1,-1,-1,-1],"loss_changes":[5.2113133E4,9.2152734E2,3.5918062E4,5.4903516E2,7.8129614E2,1.0522322E4,5.5082207E3,0E0,3.6425781E0,0E0,0E0,7.4015835E3,4.104578E3,1.4295872E3,2.1322344E3,0E0,0E0,0E0,0E0,0E0,0E0,0E0,0E0,0E0,0E0],"parents":[2147483647,0,0,1,1,2,2,3,3,4,4,5,5,6,6,8,8,11,11,12,12,13,13,14,14],"right_children":[2,4,6,8,10,12,14,-1,16,-1,-1,18,20,22,24,-1,-1,-1,-1,-1,-1,-1,-1,-1,-1],"split_conditions":[4E0,3E0,2E1,5E0,2E0,7E0,2.2E1,-1.0756153E0,1E0,-3.5720985E-2,-7.7502763E-1,5E0,1.8E1,4E0,4E0,-7.5354564E-1,-8.7858725E-1,1.6570278E-1,-6.4732516E-1,3.8091302E-1,8.045476E-2,-4.0345213E-1,-8.3299E-2,-9.4833356E-1,-4.966142E-1],"split_indices":[1,1,1,0,0,1,1,0,1,0,0,0,1,0,0,0,0,0,0,0,0,0,0,0,0],"split_type":[0,0,0,0,0,0,0,0,0,0,0,0,0,0,0,0,0,0,0,0,0,0,0,0,0],"sum_hessian":[5.168E3,5.49E2,4.619E3,4.79E2,7E1,3.559E3,1.06E3,2.58E2,2.21E2,2E1,5E1,4.54E2,3.105E3,6E2,4.6E2,6.8E1,1.53E2,2.57E2,1.97E2,2.551E3,5.54E2,2.2E2,3.8E2,1.66E2,2.94E2],"tree_param":{"num_deleted":"0","num_feature":"2","num_nodes":"25","size_leaf_vector":"1"}},{"base_weights":[-2.1156217E-3,-8.288982E0,9.844166E-1,-8.740918E0,-5.116897E0,2.3544638E0,-3.6134648E0,-9.684691E-1,-7.6004763E0,-3.2319E-2,-6.990445E-1,-1.6906661E0,2.9462795E0,-1.8112901E0,-5.955099E0,-6.7928314E-1,-7.91299E-1,1.4919673E-1,-5.8291954E-1,3.4283668E-1,7.242378E-2,-3.6328948E-1,-7.499098E-2,-8.54068E-1,-4.471211E-1],"categories":[],"categories_nodes":[],"categories_segments":[],"categories_sizes":[],"default_left":[0,0,0,0,0,0,0,0,0,0,0,0,0,0,0,0,0,0,0,0,0,0,0,0,0],"id":2,"left_children":[1,3,5,7,9,11,13,-1,15,-1,-1,17,19,21,23,-1,-1,-1,-1,-1,-1,-1,-1,-1,-1],"loss_changes":[4.2266082E4,7.437461E2,2.9111342E4,4.4302344E2,6.3540906E2,8.527518E3,4.466671E3,0E0,2.28125E0,0E0,0E0,6.001693E3,3.3247227E3,1.1592583E3,1.7305371E3,0E0,0E0,0E0,0E0,0E0,0E0,0E0,0E0,0E0,0E0],"parents":[2147483647,0,0,1,1,2,2,3,3,4,4,5,5,6,6,8,8,11,11,12,12,13,13,14,14],"right_children":[2,4,6,8,10,12,14,-1,16,-1,-1,18,20,22,24,-1,-1,-1,-1,-1,-1,-1,-1,-1,-1],"split_conditions":[4E0,3E0,2E1,5E0,2E0,7E0,2.2E1,-9.684691E-1,1E0,-3.2319E-2,-6.990445E-1,5E0,1.8E1,4E0,4E0,-6.7928314E-1,-7.91299E-1,1.4919673E-1,-5.8291954E-1,3.4283668E-1,7.242378E-2,-3.6328948E-1,-7.499098E-2,-8.54068E-1,-4.471211E-1],"split_indices":[1,1,1,0,0,1,1,0,1,0,0,0,1,0,0,0,0,0,0,0,0,0,0,0,0],"split_type":[0,0,0,0,0,0,0,0,0,0,0,0,0,0,0,0,0,0,0,0,0,0,0,0,0],"sum_hessian":[5.168E3,5.49E2,4.619E3,4.79E2,7E1,3.559E3,1.06E3,2.58E2,2.21E2,2E1,5E1,4.54E2,3.105E3,6E2,4.6E2,6.8E1,1.53E2,2.57E2,1.97E2,2.551E3,5.54E2,2.2E2,3.8E2,1.66E2,2.94E2],"tree_param":{"num_deleted":"0","num_feature":"2","num_nodes":"25","size_leaf_vector":"1"}},{"base_weights":[-2.8574443E-3,-7.465849E0,8.8559455E-1,-7.8719077E0,-4.6155086E0,2.3332164E0,-2.6782787E0,-8.719961E-1,-6.847053E0,-2.9241E-2,-6.3051075E-1,-1.5225528E0,2.9518752E0,-1.261063E0,-5.3624125E0,-6.1233926E-1,-7.126829E-1,1.3433489E-1,-5.24922E-1,3.7806305E-1,2.1367033E-1,-3.0027995E-1,-2.856781E-2,-7.6917267E-1,-4.0256056E-1],"categories":[],"categories_nodes":[],"categories_segments":[],"categories_sizes":[],"default_left":[0,0,0,0,0,0,0,0,0,0,0,0,0,0,0,0,0,0,0,0,0,0,0,0,0],"id":3,"left_children":[1,3,5,7,9,11,13,-1,15,-1,-1,17,19,21,23,-1,-1,-1,-1,-1,-1,-1,-1,-1,-1],"loss_changes":[3.427971E4,6.002422E2,2.3841479E4,3.574746E2,5.1676196E2,7.8429375E3,5.0715723E3,0E0,1.3076172E0,0E0,0E0,4.86657E3,1.9051582E3,1.4856475E3,1.4045186E3,0E0,0E0,0E0,0E0,0E0,0E0,0E0,0E0,0E0,0E0],"parents":[2147483647,0,0,1,1,2,2,3,3,4,4,5,5,6,6,8,8,11,11,12,12,13,13,14,14],"right_children":[2,4,6,8,10,12,14,-1,16,-1,-1,18,20,22,24,-1,-1,-1,-1,-1,-1,-1,-1,-1,-1],"split_conditions":[4E0,3E0,1.9E1,5E0,2E0,7E0,2.2E1,-8.719961E-1,1E0,-2.9241E-2,-6.3051075E-1,5E0,5E0,4E0,4E0,-6.1233926E-1,-7.126829E-1,1.3433489E-1,-5.24922E-1,3.7806305E-1,2.1367033E-1,-3.0027995E-1,-2.856781E-2,-7.6917267E-1,-4.0256056E-1],"split_indices":[1,1,1,0,0,1,1,0,1,0,0,0,0,0,0,0,0,0,0,0,0,0,0,0,0],"split_type":[0,0,0,0,0,0,0,0,0,0,0,0,0,0,0,0,0,0,0,0,0,0,0,0,0],"sum_hessian":[5.168E3,5.49E2,4.619E3,4.79E2,7E1,3.285E3,1.334E3,2.58E2,2.21E2,2E1,5E1,4.54E2,2.831E3,8.74E2,4.6E2,6.8E1,1.53E2,2.57E2,1.97E2,1.402E3,1.429E3,3.13E2,5.61E2,1.66E2,2.94E2],"tree_param":{"num_deleted":"0","num_feature":"2","num_nodes":"25","size_leaf_vector":"1"}},{"base_weights":[-3.3758755E-3,-6.724458E0,7.967537E-1,-7.0892944E0,-4.1632504E0,1.7330068E0,-3.76537E0,-7.8513324E-1,-6.1683164E0,-2.6456183E-2,-5.68696E-1,-2.1714454E0,2.0891812E0,-6.10756E0,-2.5024703E0,-5.5199283E-1,-6.418774E-1,3.6741928E-3,-5.253295E-1,2.561527E-1,-4.66496E-2,-4.7958103E-1,-6.92716E-1,-1.3641013E-1,-6.38668E-1],"categories":[],"categories_nodes":[],"categories_segments":[],"categories_sizes":[],"default_left":[0,0,0,0,0,0,0,0,0,0,0,0,0,0,0,0,0,0,0,0,0,0,0,0,0],"id":4,"left_children":[1,3,5,7,9,11,13,-1,15,-1,-1,17,19,21,23,-1,-1,-1,-1,-1,-1,-1,-1,-1,-1],"loss_changes":[2.7802879E4,4.8441797E2,1.9739945E4,2.8844336E2,4.2026892E2,5.3363457E3,2.312622E3,0E0,6.201172E-1,0E0,0E0,2.1846943E3,4.243166E3,2.624336E2,2.2596013E3,0E0,0E0,0E0,0E0,0E0,0E0,0E0,0E0,0E0,0E0],"parents":[2147483647,0,0,1,1,2,2,3,3,4,4,5,5,6,6,8,8,11,11,12,12,13,13,14,14],"right_children":[2,4,6,8,10,12,14,-1,16,-1,-1,18,20,22,24,-1,-1,-1,-1,-1,-1,-1,-1,-1,-1],"split_conditions":[4E0,3E0,2.1E1,5E0,2E0,6E0,4E0,-7.8513324E-1,1E0,-2.6456183E-2,-5.68696E-1,5E0,1.9E1,2.2E1,7E0,-5.5199283E-1,-6.418774E-1,3.6741928E-3,-5.253295E-1,2.561527E-1,-4.66496E-2,-4.7958103E-1,-6.92716E-1,-1.3641013E-1,-6.38668E-1],"split_indices":[1,1,1,0,0,1,0,0,1,0,0,0,1,1,0,0,0,0,0,0,0,0,0,0,0],"split_type":[0,0,0,0,0,0,0,0,0,0,0,0,0,0,0,0,0,0,0,0,0,0,0,0,0],"sum_hessian":[5.168E3,5.49E2,4.619E3,4.79E2,7E1,3.833E3,7.86E2,2.58E2,2.21E2,2E1,5E1,3.2E2,3.513E3,2.74E2,5.12E2,6.8E1,1.53E2,1.87E2,1.33E2,2.965E3,5.48E2,1.08E2,1.66E2,3.97E2,1.15E2],"tree_param":{"num_deleted":"0","num_feature":"2","num_nodes":"25","size_leaf_vector":"1"}},{"base_weights":[-3.973689E-3,-6.0566926E0,7.16589E-1,-6.3844876E0,-3.755308E0,1.5596244E0,-3.3913076E0,-7.06923E-1,-5.556863E0,-2.3936572E-2,-5.1294155E0,-1.9559261E0,1.8803222E0,-5.501067E0,-2.2537344E0,-4.975936E-1,-5.781065E-1,-4.19317E-1,-5.748718E-1,3.308706E-3,-4.7318855E-1,2.30546E-1,-4.1993104E-2,-4.3206292E-1,-6.238592E-1,-1.2280344E-1,-5.753518E-1],"categories":[],"categories_nodes":[],"categories_segments":[],"categories_sizes":[],"default_left":[0,0,0,0,0,0,0,0,0,0,0,0,0,0,0,0,0,0,0,0,0,0,0,0,0,0,0],"id":5,"left_children":[1,3,5,7,9,11,13,-1,15,-1,17,19,21,23,25,-1,-1,-1,-1,-1,-1,-1,-1,-1,-1,-1,-1],"loss_changes":[2.2548227E4,3.909336E2,1.6004822E4,2.3274023E2,3.4179327E2,4.326242E3,1.8764072E3,0E0,1.484375E-1,0E0,5.465454E0,1.7725322E3,3.4373945E3,2.1246094E2,1.8344646E3,0E0,0E0,0E0,0E0,0E0,0E0,0E0,0E0,0E0,0E0,0E0,0E0],"parents":[2147483647,0,0,1,1,2,2,3,3,4,4,5,5,6,6,8,8,10,10,11,11,12,12,13,13,14,14],"right_children":[2,4,6,8,10,12,14,-1,16,-1,18,20,22,24,26,-1,-1,-1,-1,-1,-1,-1,-1,-1,-1,-1,-1],"split_conditions":[4E0,3E0,2.1E1,5E0,2E0,6E0,4E0,-7.06923E-1,1E0,-2.3936572E-2,7E0,5E0,1.9E1,2.2E1,7E0,-4.975936E-1,-5.781065E-1,-4.19317E-1,-5.748718E-1,3.308706E-3,-4.7318855E-1,2.30546E-1,-4.1993104E-2,-4.3206292E-1,-6.238592E-1,-1.2280344E-1,-5.753518E-1],"split_indices":[1,1,1,0,0,1,0,0,1,0,0,0,1,1,0,0,0,0,0,0,0,0,0,0,0,0,0],"split_type":[0,0,0,0,0,0,0,0,0,0,0,0,0,0,0,0,0,0,0,0,0,0,0,0,0,0,0],"sum_hessian":[5.168E3,5.49E2,4.619E3,4.79E2,7E1,3.833E3,7.86E2,2.58E2,2.21E2,2E1,5E1,3.2E2,3.513E3,2.74E2,5.12E2,6.8E1,1.53E2,2.3E1,2.7E1,1.87E2,1.33E2,2.965E3,5.48E2,1.08E2,1.66E2,3.97E2,1.15E2],"tree_param":{"num_deleted":"0","num_feature":"2","num_nodes":"27","size_leaf_vector":"1"}},{"base_weights":[-4.511863E-3,-5.4561157E0,6.444896E-1,-5.749753E0,-3.3941169E0,1.4035887E0,-3.0544055E0,-6.365037E0,-5.006022E-1,-2.165693E-2,-4.6359673E0,-5.572395E-1,1.8790445E0,-4.9548E0,-2.0297215E0,-6.583535E-1,-5.6116194E-1,-3.7913245E-1,-5.1943773E-1,1.9875589E-1,-3.6742854E-1,2.5424176E-1,6.99066E-3,-3.89253E-1,-5.6184685E-1,-1.1055391E-1,-5.183126E-1],"categories":[],"categories_nodes":[],"categories_segments":[],"categories_sizes":[],"default_left":[0,0,0,0,0,0,0,0,0,0,0,0,0,0,0,0,0,0,0,0,0,0,0,0,0,0,0],"id":6,"left_children":[1,3,5,7,9,11,13,15,-1,-1,17,19,21,23,25,-1,-1,-1,-1,-1,-1,-1,-1,-1,-1,-1,-1],"loss_changes":[1.829195E4,3.1349902E2,1.2976452E4,1.8778613E2,2.7916486E2,3.575436E3,1.5224707E3,5.692383E0,0E0,0E0,4.36084E0,5.9485605E3,3.7034336E3,1.720039E2,1.4893167E3,0E0,0E0,0E0,0E0,0E0,0E0,0E0,0E0,0E0,0E0,0E0,0E0],"parents":[2147483647,0,0,1,1,2,2,3,3,4,4,5,5,6,6,7,7,10,10,11,11,12,12,13,13,14,14],"right_children":[2,4,6,8,10,12,14,16,-1,-1,18,20,22,24,26,-1,-1,-1,-1,-1,-1,-1,-1,-1,-1,-1,-1],"split_conditions":[4E0,3E0,2.1E1,5E0,2E0,9E0,4E0,2E0,-5.006022E-1,-2.165693E-2,7E0,5E0,1.8E1,2.2E1,7E0,-6.583535E-1,-5.6116194E-1,-3.7913245E-1,-5.1943773E-1,1.9875589E-1,-3.6742854E-1,2.5424176E-1,6.99066E-3,-3.89253E-1,-5.6184685E-1,-1.1055391E-1,-5.183126E-1],"split_indices":[1,1,1,0,0,1,0,1,0,0,0,0,1,1,0,0,0,0,0,0,0,0,0,0,0,0,0],"split_type":[0,0,0,0,0,0,0,0,0,0,0,0,0,0,0,0,0,0,0,0,0,0,0,0,0,0,0],"sum_hessian":[5.168E3,5.49E2,4.619E3,4.79E2,7E1,3.833E3,7.86E2,2.58E2,2.21E2,2E1,5E1,7.48E2,3.085E3,2.74E2,5.12E2,1.94E2,6.4E1,2.3E1,2.7E1,4.12E2,3.36E2,2.257E3,8.28E2,1.08E2,1.66E2,3.97E2,1.15E2],"tree_param":{"num_deleted":"0","num_feature":"2","num_nodes":"27","size_leaf_vector":"1"}},{"base_weights":[-4.8591136E-3,-4.915305E0,5.797188E-1,-5.1783614E0,-3.067666E0,1.2632542E0,-2.7509727E0,-5.733242E0,-4.5076747E0,-1.9594356E-2,-4.1899896E0,-1.7253466E0,1.5359E0,-4.4627786E0,-1.8279754E0,-5.928558E-1,-5.059091E-1,-3.9922068E-1,-4.7093606E-1,-3.4279892E-1,-4.6934906E-1,-1.6790265E-2,-3.8975415E-1,1.8909352E-1,-3.8499203E-2,-5.421112E-1,-3.820143E-1,-9.9526316E-2,-4.6692815E-1],"categories":[],"categories_nodes":[],"categories_segments":[],"categories_sizes":[],"default_left":[0,0,0,0,0,0,0,0,0,0,0,0,0,0,0,0,0,0,0,0,0,0,0,0,0,0,0,0,0],"id":7,"left_children":[1,3,5,7,9,11,13,15,17,-1,19,21,23,25,27,-1,-1,-1,-1,-1,-1,-1,-1,-1,-1,-1,-1,-1,-1],"loss_changes":[1.4840663E4,2.514336E2,1.0521576E4,1.5278809E2,2.2801208E2,3.1267065E3,1.2352964E3,4.1103516E0,4.279297E0,0E0,3.4779053E0,1.0853115E3,2.3972188E3,1.4865137E2,1.209106E3,0E0,0E0,0E0,0E0,0E0,0E0,0E0,0E0,0E0,0E0,0E0,0E0,0E0,0E0],"parents":[2147483647,0,0,1,1,2,2,3,3,4,4,5,5,6,6,7,7,8,8,10,10,11,11,12,12,13,13,14,14],"right_children":[2,4,6,8,10,12,14,16,18,-1,20,22,24,26,28,-1,-1,-1,-1,-1,-1,-1,-1,-1,-1,-1,-1,-1,-1],"split_conditions":[4E0,3E0,2.1E1,5E0,2E0,6E0,4E0,2E0,1E0,-1.9594356E-2,7E0,5E0,1.9E1,2E0,7E0,-5.928558E-1,-5.059091E-1,-3.9922068E-1,-4.7093606E-1,-3.4279892E-1,-4.6934906E-1,-1.6790265E-2,-3.8975415E-1,1.8909352E-1,-3.8499203E-2,-5.421112E-1,-3.820143E-1,-9.9526316E-2,-4.6692815E-1],"split_indices":[1,1,1,0,0,1,0,1,1,0,0,0,1,0,0,0,0,0,0,0,0,0,0,0,0,0,0,0,0],"split_type":[0,0,0,0,0,0,0,0,0,0,0,0,0,0,0,0,0,0,0,0,0,0,0,0,0,0,0,0,0],"sum_hessian":[5.168E3,5.49E2,4.619E3,4.79E2,7E1,3.833E3,7.86E2,2.58E2,2.21E2,2E1,5E1,3.2E2,3.513E3,2.74E2,5.12E2,1.94E2,6.4E1,6.8E1,1.53E2,2.3E1,2.7E1,1.87E2,1.33E2,2.965E3,5.48E2,1.07E2,1.67E2,3.97E2,1.15E2],"tree_param":{"num_deleted":"0","num_feature":"2","num_nodes":"29","size_leaf_vector":"1"}},{"base_weights":[-5.2527697E-3,-4.428867E0,5.213691E-1,-4.664627E0,-2.7726142E0,1.1368622E0,-2.4777694E0,-5.1641603E0,-4.0608273E0,-1.7728243E-2,-3.786915E0,1.5221745E0,-6.7190474E-1,-1.1130486E0,-3.4404285E0,-5.338742E-1,-4.5609647E-1,-3.598772E-1,-4.241483E-1,-3.0994734E-1,-4.240904E-1,-8.773233E-2,1.7330311E-1,-3.6809465E-1,3.9892316E-2,-3.0710563E-1,-1.3343262E-2,-5.157134E-1,-2.8348067E-1],"categories":[],"categories_nodes":[],"categories_segments":[],"categories_sizes":[],"default_left":[0,0,0,0,0,0,0,0,0,0,0,0,0,0,0,0,0,0,0,0,0,0,0,0,0,0,0,0,0],"id":8,"left_children":[1,3,5,7,9,11,13,15,17,-1,19,21,23,25,27,-1,-1,-1,-1,-1,-1,-1,-1,-1,-1,-1,-1,-1,-1],"loss_changes":[1.2043866E4,2.0183008E2,8.531101E3,1.23805664E2,1.8623248E2,2.6730903E3,1.0301006E3,2.9243164E0,3.2668457E0,0E0,2.7720337E0,1.6008281E3,2.1732085E3,6.268075E2,4.646704E2,0E0,0E0,0E0,0E0,0E0,0E0,0E0,0E0,0E0,0E0,0E0,0E0,0E0,0E0],"parents":[2147483647,0,0,1,1,2,2,3,3,4,4,5,5,6,6,7,7,8,8,10,10,11,11,12,12,13,13,14,14],"right_children":[2,4,6,8,10,12,14,16,18,-1,20,22,24,26,28,-1,-1,-1,-1,-1,-1,-1,-1,-1,-1,-1,-1,-1,-1],"split_conditions":[4E0,3E0,2.1E1,5E0,2E0,7E0,2.2E1,2E0,1E0,-1.7728243E-2,7E0,6E0,1E1,4E0,3E0,-5.338742E-1,-4.5609647E-1,-3.598772E-1,-4.241483E-1,-3.0994734E-1,-4.240904E-1,-8.773233E-2,1.7330311E-1,-3.6809465E-1,3.9892316E-2,-3.0710563E-1,-1.3343262E-2,-5.157134E-1,-2.8348067E-1],"split_indices":[1,1,1,0,0,0,1,1,1,0,0,1,1,0,0,0,0,0,0,0,0,0,0,0,0,0,0,0,0],"split_type":[0,0,0,0,0,0,0,0,0,0,0,0,0,0,0,0,0,0,0,0,0,0,0,0,0,0,0,0,0],"sum_hessian":[5.168E3,5.49E2,4.619E3,4.79E2,7E1,3.833E3,7.86E2,2.58E2,2.21E2,2E1,5E1,3.16E3,6.73E2,3.26E2,4.6E2,1.94E2,6.4E1,6.8E1,1.53E2,2.3E1,2.7E1,2.55E2,2.905E3,1.76E2,4.97E2,1.08E2,2.18E2,1.18E2,3.42E2],"tree_param":{"num_deleted":"0","num_feature":"2","num_nodes":"29","size_leaf_vector":"1"}},{"base_weights":[-5.479816E-3,-3.9905725E0,4.6893716E-1,-4.2018604E0,-2.5059412E0,1.2759498E0,-1.5178138E0,-4.6515665E0,-3.658276E0,-1.603988E-2,-3.4226167E0,-5.244585E-1,1.8067733E0,-6.834839E-1,-3.0981195E0,-4.8076063E-1,-4.111885E-1,-3.24411E-1,-3.820089E-1,-2.8024408E-1,-3.8319597E-1,1.6391788E-1,-3.1744817E-1,2.044303E-1,6.3099824E-2,-2.4166869E-1,-7.981103E-3,-2.7101773E-1,-5.300342E-1],"categories":[],"categories_nodes":[],"categories_segments":[],"categories_sizes":[],"default_left":[0,0,0,0,0,0,0,0,0,0,0,0,0,0,0,0,0,0,0,0,0,0,0,0,0,0,0,0,0],"id":9,"left_children":[1,3,5,7,9,11,13,15,17,-1,19,21,23,25,27,-1,-1,-1,-1,-1,-1,-1,-1,-1,-1,-1,-1,-1,-1],"loss_changes":[9.774359E3,1.6199707E2,7.409336E3,1.0032031E2,1.5210822E2,3.141374E3,1.7580747E3,2.0424805E0,2.4853516E0,0E0,2.208252E0,4.2997363E3,7.0752734E2,9.153087E2,3.794834E2,0E0,0E0,0E0,0E0,0E0,0E0,0E0,0E0,0E0,0E0,0E0,0E0,0E0,0E0],"parents":[2147483647,0,0,1,1,2,2,3,3,4,4,5,5,6,6,7,7,8,8,10,10,11,11,12,12,13,13,14,14],"right_children":[2,4,6,8,10,12,14,16,18,-1,20,22,24,26,28,-1,-1,-1,-1,-1,-1,-1,-1,-1,-1,-1,-1,-1,-1],"split_conditions":[4E0,3E0,1.9E1,5E0,2E0,9E0,2.2E1,2E0,1E0,-1.603988E-2,7E0,5E0,7E0,3E0,7E0,-4.8076063E-1,-4.111885E-1,-3.24411E-1,-3.820089E-1,-2.8024408E-1,-3.8319597E-1,1.6391788E-1,-3.1744817E-1,2.044303E-1,6.3099824E-2,-2.4166869E-1,-7.981103E-3,-2.7101773E-1,-5.300342E-1],"split_indices":[1,1,1,0,0,1,1,1,1,0,0,0,0,0,0,0,0,0,0,0,0,0,0,0,0,0,0,0,0],"split_type":[0,0,0,0,0,0,0,0,0,0,0,0,0,0,0,0,0,0,0,0,0,0,0,0,0,0,0,0,0],"sum_hessian":[5.168E3,5.49E2,4.619E3,4.79E2,7E1,3.285E3,1.334E3,2.58E2,2.21E2,2E1,5E1,7.48E2,2.537E3,8.74E2,4.6E2,1.94E2,6.4E1,6.8E1,1.53E2,2.3E1,2.7E1,4.12E2,3.36E2,2.11E3,4.27E2,2.25E2,6.49E2,3.93E2,6.7E1],"tree_param":{"num_deleted":"0","num_feature":"2","num_nodes":"29","size_leaf_vector":"1"}},{"base_weights":[-5.553351E-3,-2.780005E0,5.557905E-1,-3.7850041E0,-1.5391363E0,1.420972E0,-1.3668194E0,-4.1898537E0,-3.2956305E0,-2.198082E-1,-3.0221858E0,2.1800797E0,6.715834E-1,-6.1542064E-1,-2.790045E0,-4.329311E-1,-3.7070224E-1,-2.9244003E-1,-3.4405607E-1,-6.0472943E-2,3.045438E-3,-2.4937992E-1,-3.512394E-1,1.8913823E-1,3.297893E-1,-3.667569E-1,1.1053238E-1,-1.8584207E-1,8.016189E-3,-4.3770137E-1,-2.2313297E-1],"categories":[],"categories_nodes":[],"categories_segments":[],"categories_sizes":[],"default_left":[0,0,0,0,0,0,0,0,0,0,0,0,0,0,0,0,0,0,0,0,0,0,0,0,0,0,0,0,0,0,0],"id":10,"left_children":[1,3,5,7,9,11,13,15,17,19,21,23,25,27,29,-1,-1,-1,-1,-1,-1,-1,-1,-1,-1,-1,-1,-1,-1,-1,-1],"loss_changes":[8.0518564E3,1.079127E3,7.15459E3,8.1291016E1,7.643776E2,1.6857935E3,1.4259451E3,1.390625E0,1.8825684E0,2.0055346E1,3.890027E1,4.6911377E2,2.8158596E3,7.5668176E2,3.9898535E2,0E0,0E0,0E0,0E0,0E0,0E0,0E0,0E0,0E0,0E0,0E0,0E0,0E0,0E0,0E0,0E0],"parents":[2147483647,0,0,1,1,2,2,3,3,4,4,5,5,6,6,7,7,8,8,9,9,10,10,11,11,12,12,13,13,14,14],"right_children":[2,4,6,8,10,12,14,16,18,20,22,24,26,28,30,-1,-1,-1,-1,-1,-1,-1,-1,-1,-1,-1,-1,-1,-1,-1,-1],"split_conditions":[6E0,3E0,1.9E1,5E0,5E0,5E0,2.2E1,2E0,1E0,2E0,7E0,4E0,8E0,4E0,3E0,-4.329311E-1,-3.7070224E-1,-2.9244003E-1,-3.4405607E-1,-6.0472943E-2,3.045438E-3,-2.4937992E-1,-3.512394E-1,1.8913823E-1,3.297893E-1,-3.667569E-1,1.1053238E-1,-1.8584207E-1,8.016189E-3,-4.3770137E-1,-2.2313297E-1],"split_indices":[1,1,1,0,0,0,1,1,1,0,0,0,1,0,0,0,0,0,0,0,0,0,0,0,0,0,0,0,0,0,0],"split_type":[0,0,0,0,0,0,0,0,0,0,0,0,0,0,0,0,0,0,0,0,0,0,0,0,0,0,0,0,0,0,0],"sum_hessian":[5.168E3,8.69E2,4.299E3,4.79E2,3.9E2,2.965E3,1.334E3,2.58E2,2.21E2,2.07E2,1.83E2,1.472E3,1.493E3,8.74E2,4.6E2,1.94E2,6.4E1,6.8E1,1.53E2,8.1E1,1.26E2,9.1E1,9.2E1,1.172E3,3E2,1.35E2,1.358E3,3.13E2,5.61E2,1.18E2,3.42E2],"tree_param":{"num_deleted":"0","num_feature":"2","num_nodes":"31","size_leaf_vector":"1"}},{"base_weights":[-5.515542E-3,-2.5044162E0,5.0007725E-1,-3.4095042E0,-1.3869056E0,1.2789631E0,-1.2307657E0,-3.7739713E0,-2.9689343E0,-1.9810338E-1,-2.7232313E0,1.9624237E0,6.042532E-1,-5.540819E-1,-2.512474E0,-3.8986E-1,-3.3420232E-1,-2.636198E-1,-3.0987388E-1,-5.4499444E-2,2.743339E-3,-2.2471297E-1,-3.1649315E-1,1.5179223E-1,2.6740864E-1,-2.562848E-1,1.10424116E-1,-1.9910674E-1,-5.360072E-3,-1.9450556E-1,-3.942246E-1],"categories":[],"categories_nodes":[],"categories_segments":[],"categories_sizes":[],"default_left":[0,0,0,0,0,0,0,0,0,0,0,0,0,0,0,0,0,0,0,0,0,0,0,0,0,0,0,0,0,0,0],"id":11,"left_children":[1,3,5,7,9,11,13,15,17,19,21,23,25,27,29,-1,-1,-1,-1,-1,-1,-1,-1,-1,-1,-1,-1,-1,-1,-1,-1],"loss_changes":[6.531902E3,8.75229E2,5.798529E3,6.5870605E1,6.206137E2,1.3665483E3,1.1564684E3,9.133301E-1,1.4194336E0,1.6288181E1,3.1582031E1,4.6190283E2,2.3685977E3,6.291794E2,3.6633154E2,0E0,0E0,0E0,0E0,0E0,0E0,0E0,0E0,0E0,0E0,0E0,0E0,0E0,0E0,0E0,0E0],"parents":[2147483647,0,0,1,1,2,2,3,3,4,4,5,5,6,6,7,7,8,8,9,9,10,10,11,11,12,12,13,13,14,14],"right_children":[2,4,6,8,10,12,14,16,18,20,22,24,26,28,30,-1,-1,-1,-1,-1,-1,-1,-1,-1,-1,-1,-1,-1,-1,-1,-1],"split_conditions":[6E0,3E0,1.9E1,5E0,5E0,5E0,2.2E1,2E0,1E0,2E0,7E0,1.4E1,9E0,3E0,2.3E1,-3.8986E-1,-3.3420232E-1,-2.636198E-1,-3.0987388E-1,-5.4499444E-2,2.743339E-3,-2.2471297E-1,-3.1649315E-1,1.5179223E-1,2.6740864E-1,-2.562848E-1,1.10424116E-1,-1.9910674E-1,-5.360072E-3,-1.9450556E-1,-3.942246E-1],"split_indices":[1,1,1,0,0,0,1,1,1,0,0,1,1,0,1,0,0,0,0,0,0,0,0,0,0,0,0,0,0,0,0],"split_type":[0,0,0,0,0,0,0,0,0,0,0,0,0,0,0,0,0,0,0,0,0,0,0,0,0,0,0,0,0,0,0],"sum_hessian":[5.168E3,8.69E2,4.299E3,4.79E2,3.9E2,2.965E3,1.334E3,2.58E2,2.21E2,2.07E2,1.83E2,1.472E3,1.493E3,8.74E2,4.6E2,1.94E2,6.4E1,6.8E1,1.53E2,8.1E1,1.26E2,9.1E1,9.2E1,9.08E2,5.64E2,2.03E2,1.29E3,2.25E2,6.49E2,3.31E2,1.29E2],"tree_param":{"num_deleted":"0","num_feature":"2","num_nodes":"31","size_leaf_vector":"1"}},{"base_weights":[-5.430347E-3,-2.2561474E0,4.4994858E-1,-3.0712569E0,-1.2497317E0,1.2654679E0,-9.0666753E-1,-3.3993697E0,-2.674624E0,-1.7854212E-1,-2.4538496E0,8.0347383E-1,2.317653E0,-2.105051E0,-2.3848605E-1,-3.5107395E-1,-3.0129623E-1,-2.3763989E-1,-2.7908766E-1,-5.0837733E-3,-7.485134E-2,-2.024859E-1,-2.8518417E-1,1.12484716E-1,-7.7247225E-2,3.0294138E-1,5.9803855E-2,-1.6123645E-1,-3.3079365E-1,4.632863E-2,-2.1969436E-1],"categories":[],"categories_nodes":[],"categories_segments":[],"categories_sizes":[],"default_left":[0,0,0,0,0,0,0,0,0,0,0,0,0,0,0,0,0,0,0,0,0,0,0,0,0,0,0,0,0,0,0],"id":12,"left_children":[1,3,5,7,9,11,13,15,17,19,21,23,25,27,29,-1,-1,-1,-1,-1,-1,-1,-1,-1,-1,-1,-1,-1,-1,-1,-1],"loss_changes":[5.2988735E3,7.0985693E2,4.758438E3,5.3375E1,5.038888E2,1.3038115E3,1.2926893E3,5.683594E-1,1.0644531E0,1.5101819E1,2.5640503E1,9.4694946E2,1.00060693E3,3.3721558E2,1.4276361E3,0E0,0E0,0E0,0E0,0E0,0E0,0E0,0E0,0E0,0E0,0E0,0E0,0E0,0E0,0E0,0E0],"parents":[2147483647,0,0,1,1,2,2,3,3,4,4,5,5,6,6,7,7,8,8,9,9,10,10,11,11,12,12,13,13,14,14],"right_children":[2,4,6,8,10,12,14,16,18,20,22,24,26,28,30,-1,-1,-1,-1,-1,-1,-1,-1,-1,-1,-1,-1,-1,-1,-1,-1],"split_conditions":[6E0,3E0,1.8E1,5E0,5E0,1.5E1,4E0,2E0,1E0,4E0,7E0,7E0,1.7E1,2.2E1,7E0,-3.5107395E-1,-3.0129623E-1,-2.3763989E-1,-2.7908766E-1,-5.0837733E-3,-7.485134E-2,-2.024859E-1,-2.8518417E-1,1.12484716E-1,-7.7247225E-2,3.0294138E-1,5.9803855E-2,-1.6123645E-1,-3.3079365E-1,4.632863E-2,-2.1969436E-1],"split_indices":[1,1,1,0,0,1,0,1,1,0,0,0,1,1,0,0,0,0,0,0,0,0,0,0,0,0,0,0,0,0,0],"split_type":[0,0,0,0,0,0,0,0,0,0,0,0,0,0,0,0,0,0,0,0,0,0,0,0,0,0,0,0,0,0,0],"sum_hessian":[5.168E3,8.69E2,4.299E3,4.79E2,3.9E2,2.685E3,1.614E3,2.58E2,2.21E2,2.07E2,1.83E2,1.867E3,8.18E2,5.77E2,1.037E3,1.94E2,6.4E1,6.8E1,1.53E2,1.7E2,3.7E1,9.1E1,9.2E1,1.551E3,3.16E2,5.78E2,2.4E2,4.11E2,1.66E2,7.64E2,2.73E2],"tree_param":{"num_deleted":"0","num_feature":"2","num_nodes":"31","size_leaf_vector":"1"}},{"base_weights":[-5.274846E-3,-2.0325289E0,4.0489176E-1,-2.7665668E0,-1.12621E0,1.0432136E0,-1.0135859E0,-3.0619516E0,-2.4094894E0,-1.6107209E-1,-2.2111146E0,1.6385071E0,4.555894E-1,-4.2198592E-1,-2.134272E0,-3.1614658E-1,-2.7163014E-1,-2.1422029E-1,-2.5136015E-1,-4.861374E-2,5.008087E-3,-1.8245739E-1,-2.5697237E-1,1.3828765E-1,2.6292595E-1,-3.0979878E-1,8.108734E-2,-2.4315162E-1,-1.3585716E-2,-1.5981631E-1,-3.486995E-1],"categories":[],"categories_nodes":[],"categories_segments":[],"categories_sizes":[],"default_left":[0,0,0,0,0,0,0,0,0,0,0,0,0,0,0,0,0,0,0,0,0,0,0,0,0,0,0,0,0,0,0],"id":13,"left_children":[1,3,5,7,9,11,13,15,17,19,21,23,25,27,29,-1,-1,-1,-1,-1,-1,-1,-1,-1,-1,-1,-1,-1,-1,-1,-1],"loss_changes":[4.2989077E3,5.7567114E2,3.8944722E3,4.325049E1,4.0905316E2,1.0367869E3,8.8420166E2,3.2128906E-1,7.932129E-1,1.4301154E1,2.0816895E1,3.694265E2,1.8887302E3,5.0278107E2,3.287478E2,0E0,0E0,0E0,0E0,0E0,0E0,0E0,0E0,0E0,0E0,0E0,0E0,0E0,0E0,0E0,0E0],"parents":[2147483647,0,0,1,1,2,2,3,3,4,4,5,5,6,6,7,7,8,8,9,9,10,10,11,11,12,12,13,13,14,14],"right_children":[2,4,6,8,10,12,14,16,18,20,22,24,26,28,30,-1,-1,-1,-1,-1,-1,-1,-1,-1,-1,-1,-1,-1,-1,-1,-1],"split_conditions":[6E0,3E0,1.9E1,5E0,5E0,5E0,2.2E1,2E0,1E0,2E0,7E0,4E0,8E0,2E0,2.3E1,-3.1614658E-1,-2.7163014E-1,-2.1422029E-1,-2.5136015E-1,-4.861374E-2,5.008087E-3,-1.8245739E-1,-2.5697237E-1,1.3828765E-1,2.6292595E-1,-3.0979878E-1,8.108734E-2,-2.4315162E-1,-1.3585716E-2,-1.5981631E-1,-3.486995E-1],"split_indices":[1,1,1,0,0,0,1,1,1,0,0,0,1,0,1,0,0,0,0,0,0,0,0,0,0,0,0,0,0,0,0],"split_type":[0,0,0,0,0,0,0,0,0,0,0,0,0,0,0,0,0,0,0,0,0,0,0,0,0,0,0,0,0,0,0],"sum_hessian":[5.168E3,8.69E2,4.299E3,4.79E2,3.9E2,2.965E3,1.334E3,2.58E2,2.21E2,2.07E2,1.83E2,1.472E3,1.493E3,8.74E2,4.6E2,1.94E2,6.4E1,6.8E1,1.53E2,8.1E1,1.26E2,9.1E1,9.2E1,1.172E3,3E2,1.35E2,1.358E3,1.08E2,7.66E2,3.31E2,1.29E2],"tree_param":{"num_deleted":"0","num_feature":"2","num_nodes":"31","size_leaf_vector":"1"}},{"base_weights":[-5.159329E-3,-1.831042E0,3.6426467E-1,-2.4921048E0,-1.0148244E0,1.0375236E0,-7.556969E-1,-2.758026E0,-2.1706378E0,-1.4517431E-1,-1.9923916E0,6.3006985E-1,1.9655898E0,-1.8158305E0,-1.6464396E-1,-2.8469408E-1,-2.4488501E-1,-2.3626654E-1,-2.0243736E-1,-2.5362272E-3,-6.805082E-2,-1.6441001E-1,-2.3155145E-1,9.0558484E-2,-7.208111E-2,2.6009813E-1,4.309125E-2,-1.2074341E-1,-2.4817823E-1,4.6706703E-2,-1.9277617E-1],"categories":[],"categories_nodes":[],"categories_segments":[],"categories_sizes":[],"default_left":[0,0,0,0,0,0,0,0,0,0,0,0,0,0,0,0,0,0,0,0,0,0,0,0,0,0,0,0,0,0,0],"id":14,"left_children":[1,3,5,7,9,11,13,15,17,19,21,23,25,27,29,-1,-1,-1,-1,-1,-1,-1,-1,-1,-1,-1,-1,-1,-1,-1,-1],"loss_changes":[3.4872861E3,4.6689795E2,3.243088E3,3.50459E1,3.3211612E2,1.01445654E3,1.011652E3,1.4831543E-1,1.4523926E0,1.3323742E1,1.6900574E1,6.9589966E2,7.975034E2,2.311875E2,1.157005E3,0E0,0E0,0E0,0E0,0E0,0E0,0E0,0E0,0E0,0E0,0E0,0E0,0E0,0E0,0E0,0E0],"parents":[2147483647,0,0,1,1,2,2,3,3,4,4,5,5,6,6,7,7,8,8,9,9,10,10,11,11,12,12,13,13,14,14],"right_children":[2,4,6,8,10,12,14,16,18,20,22,24,26,28,30,-1,-1,-1,-1,-1,-1,-1,-1,-1,-1,-1,-1,-1,-1,-1,-1],"split_conditions":[6E0,3E0,1.8E1,5E0,5E0,1.5E1,4E0,2E0,7E0,4E0,7E0,7E0,1.7E1,2.1E1,7E0,-2.8469408E-1,-2.4488501E-1,-2.3626654E-1,-2.0243736E-1,-2.5362272E-3,-6.805082E-2,-1.6441001E-1,-2.3155145E-1,9.0558484E-2,-7.208111E-2,2.6009813E-1,4.309125E-2,-1.2074341E-1,-2.4817823E-1,4.6706703E-2,-1.9277617E-1],"split_indices":[1,1,1,0,0,1,0,1,0,0,0,0,1,1,0,0,0,0,0,0,0,0,0,0,0,0,0,0,0,0,0],"split_type":[0,0,0,0,0,0,0,0,0,0,0,0,0,0,0,0,0,0,0,0,0,0,0,0,0,0,0,0,0,0,0],"sum_hessian":[5.168E3,8.69E2,4.299E3,4.79E2,3.9E2,2.685E3,1.614E3,2.58E2,2.21E2,2.07E2,1.83E2,1.867E3,8.18E2,5.77E2,1.037E3,1.94E2,6.4E1,8.9E1,1.32E2,1.7E2,3.7E1,9.1E1,9.2E1,1.551E3,3.16E2,5.78E2,2.4E2,3.03E2,2.74E2,7.64E2,2.73E2],"tree_param":{"num_deleted":"0","num_feature":"2","num_nodes":"31","size_leaf_vector":"1"}},{"base_weights":[-4.958528E-3,-1.6495872E0,3.277931E-1,-2.2449114E0,-9.145354E-1,7.816203E-1,-1.0583786E0,-2.484268E0,-1.9555501E0,-1.3099672E-1,-1.7953044E0,9.640258E-1,-8.368695E-2,-7.131578E-1,-2.997946E0,-2.5637066E-1,-2.2077326E-1,-1.7100118E-1,-2.0528658E-1,-4.356118E-2,6.6715353E-3,-1.4814775E-1,-2.0864527E-1,1.1448151E-1,4.518477E-3,-2.4149893E-1,4.916204E-2,-1.715094E-1,3.9676423E-3,-2.6019308E-1,-5.032353E-1],"categories":[],"categories_nodes":[],"categories_segments":[],"categories_sizes":[],"default_left":[0,0,0,0,0,0,0,0,0,0,0,0,0,0,0,0,0,0,0,0,0,0,0,0,0,0,0,0,0,0,0],"id":15,"left_children":[1,3,5,7,9,11,13,15,17,19,21,23,25,27,29,-1,-1,-1,-1,-1,-1,-1,-1,-1,-1,-1,-1,-1,-1,-1,-1],"loss_changes":[2.8292908E3,3.786538E2,2.7058818E3,2.8387207E1,2.6960043E2,5.1147192E2,7.082855E2,2.9541016E-2,1.7942505E0,1.2556086E1,1.3721069E1,4.4447632E2,7.589739E2,6.804392E2,1.1581128E2,0E0,0E0,0E0,0E0,0E0,0E0,0E0,0E0,0E0,0E0,0E0,0E0,0E0,0E0,0E0,0E0],"parents":[2147483647,0,0,1,1,2,2,3,3,4,4,5,5,6,6,7,7,8,8,9,9,10,10,11,11,12,12,13,13,14,14],"right_children":[2,4,6,8,10,12,14,16,18,20,22,24,26,28,30,-1,-1,-1,-1,-1,-1,-1,-1,-1,-1,-1,-1,-1,-1,-1,-1],"split_conditions":[6E0,3E0,2E1,5E0,5E0,7E0,7E0,2E0,1E0,2E0,7E0,1.8E1,1E1,4E0,2.3E1,-2.5637066E-1,-2.2077326E-1,-1.7100118E-1,-2.0528658E-1,-4.356118E-2,6.6715353E-3,-1.4814775E-1,-2.0864527E-1,1.1448151E-1,4.518477E-3,-2.4149893E-1,4.916204E-2,-1.715094E-1,3.9676423E-3,-2.6019308E-1,-5.032353E-1],"split_indices":[1,1,1,0,0,0,0,1,1,0,0,1,1,0,1,0,0,0,0,0,0,0,0,0,0,0,0,0,0,0,0],"split_type":[0,0,0,0,0,0,0,0,0,0,0,0,0,0,0,0,0,0,0,0,0,0,0,0,0,0,0,0,0,0,0],"sum_hessian":[5.168E3,8.69E2,4.299E3,4.79E2,3.9E2,3.239E3,1.06E3,2.58E2,2.21E2,2.07E2,1.83E2,2.675E3,5.64E2,9.01E2,1.59E2,1.94E2,6.4E1,6.8E1,1.53E2,8.1E1,1.26E2,9.1E1,9.2E1,2.235E3,4.4E2,1.11E2,4.53E2,3.86E2,5.15E2,1.35E2,2.4E1],"tree_param":{"num_deleted":"0","num_feature":"2","num_nodes":"31","size_leaf_vector":"1"}},{"base_weights":[-4.897998E-3,-1.486062E0,2.9478052E-1,-2.0221984E0,-8.240889E-1,6.362455E-1,-1.2302547E0,-2.1678457E0,-1.6259022E0,-1.1807468E-1,-1.6177131E0,8.2942206E-1,-2.8659075E-1,-8.831982E-1,-2.9774313E0,-2.2376835E-1,-1.9427805E-1,-6.096645E-2,-1.8440677E-1,-5.6797E-4,-6.207449E-2,-1.33494E-1,-1.8800509E-1,1.0303853E-1,1.585082E-2,-2.1756466E-1,1.388326E-2,-1.922685E-1,-2.2909237E-2,-2.578631E-1,-4.5492467E-1],"categories":[],"categories_nodes":[],"categories_segments":[],"categories_sizes":[],"default_left":[0,0,0,0,0,0,0,0,0,0,0,0,0,0,0,0,0,0,0,0,0,0,0,0,0,0,0,0,0,0,0],"id":16,"left_children":[1,3,5,7,9,11,13,15,17,19,21,23,25,27,29,-1,-1,-1,-1,-1,-1,-1,-1,-1,-1,-1,-1,-1,-1,-1,-1],"loss_changes":[2.294818E3,3.071034E2,2.2399912E3,2.4180786E1,2.188902E2,6.2667944E2,4.7458276E2,1.1224365E0,2.8362885E1,1.1747974E1,1.1139709E1,3.9165002E2,4.8972388E2,4.4695636E2,6.975842E1,0E0,0E0,0E0,0E0,0E0,0E0,0E0,0E0,0E0,0E0,0E0,0E0,0E0,0E0,0E0,0E0],"parents":[2147483647,0,0,1,1,2,2,3,3,4,4,5,5,6,6,7,7,8,8,9,9,10,10,11,11,12,12,13,13,14,14],"right_children":[2,4,6,8,10,12,14,16,18,20,22,24,26,28,30,-1,-1,-1,-1,-1,-1,-1,-1,-1,-1,-1,-1,-1,-1,-1,-1],"split_conditions":[6E0,3E0,2.1E1,7E0,5E0,7E0,2.3E1,5E0,1E0,4E0,7E0,1.8E1,1E1,4E0,7E0,-2.2376835E-1,-1.9427805E-1,-6.096645E-2,-1.8440677E-1,-5.6797E-4,-6.207449E-2,-1.33494E-1,-1.8800509E-1,1.0303853E-1,1.585082E-2,-2.1756466E-1,1.388326E-2,-1.922685E-1,-2.2909237E-2,-2.578631E-1,-4.5492467E-1],"split_indices":[1,1,1,0,0,0,1,0,1,0,0,1,1,0,0,0,0,0,0,0,0,0,0,0,0,0,0,0,0,0,0],"split_type":[0,0,0,0,0,0,0,0,0,0,0,0,0,0,0,0,0,0,0,0,0,0,0,0,0,0,0,0,0,0,0],"sum_hessian":[5.168E3,8.69E2,4.299E3,4.79E2,3.9E2,3.513E3,7.86E2,3.47E2,1.32E2,2.07E2,1.83E2,2.905E3,6.08E2,6.57E2,1.29E2,2.58E2,8.9E1,2.4E1,1.08E2,1.7E2,3.7E1,9.1E1,9.2E1,2.235E3,6.7E2,1.11E2,4.97E2,2.53E2,4.04E2,1.05E2,2.4E1],"tree_param":{"num_deleted":"0","num_feature":"2","num_nodes":"31","size_leaf_vector":"1"}},{"base_weights":[-4.80696E-3,-1.3386599E0,2.6506674E-1,-1.8213608E0,-7.426623E-1,5.725966E-1,-1.1084085E0,-1.9522624E0,-1.4651569E0,-1.06568E-1,-1.4576892E0,7.465205E-1,-2.582664E-1,-7.952055E-1,-2.6851711E0,-2.0147793E-1,-1.7506608E-1,-5.511367E-2,-1.6613528E-1,-3.9202053E-2,7.857905E-3,-1.2028972E-1,-1.6940676E-1,9.273926E-2,1.4268083E-2,-1.9600244E-1,1.249769E-2,-1.7311737E-1,-2.0623978E-2,-2.3232007E-1,-4.1125193E-1],"categories":[],"categories_nodes":[],"categories_segments":[],"categories_sizes":[],"default_left":[0,0,0,0,0,0,0,0,0,0,0,0,0,0,0,0,0,0,0,0,0,0,0,0,0,0,0,0,0,0,0],"id":17,"left_children":[1,3,5,7,9,11,13,15,17,19,21,23,25,27,29,-1,-1,-1,-1,-1,-1,-1,-1,-1,-1,-1,-1,-1,-1,-1,-1],"loss_changes":[1.8610492E3,2.4893652E2,1.8168887E3,1.9520874E1,1.7768106E2,5.0799023E2,3.865221E2,8.588867E-1,2.2934845E1,1.1023748E1,9.044037E0,3.172544E2,3.9742706E2,3.6236752E2,5.761139E1,0E0,0E0,0E0,0E0,0E0,0E0,0E0,0E0,0E0,0E0,0E0,0E0,0E0,0E0,0E0,0E0],"parents":[2147483647,0,0,1,1,2,2,3,3,4,4,5,5,6,6,7,7,8,8,9,9,10,10,11,11,12,12,13,13,14,14],"right_children":[2,4,6,8,10,12,14,16,18,20,22,24,26,28,30,-1,-1,-1,-1,-1,-1,-1,-1,-1,-1,-1,-1,-1,-1,-1,-1],"split_conditions":[6E0,3E0,2.1E1,7E0,5E0,7E0,2.3E1,5E0,1E0,2E0,7E0,1.8E1,1E1,4E0,7E0,-2.0147793E-1,-1.7506608E-1,-5.511367E-2,-1.6613528E-1,-3.9202053E-2,7.857905E-3,-1.2028972E-1,-1.6940676E-1,9.273926E-2,1.4268083E-2,-1.9600244E-1,1.249769E-2,-1.7311737E-1,-2.0623978E-2,-2.3232007E-1,-4.1125193E-1],"split_indices":[1,1,1,0,0,0,1,0,1,0,0,1,1,0,0,0,0,0,0,0,0,0,0,0,0,0,0,0,0,0,0],"split_type":[0,0,0,0,0,0,0,0,0,0,0,0,0,0,0,0,0,0,0,0,0,0,0,0,0,0,0,0,0,0,0],"sum_hessian":[5.168E3,8.69E2,4.299E3,4.79E2,3.9E2,3.513E3,7.86E2,3.47E2,1.32E2,2.07E2,1.83E2,2.905E3,6.08E2,6.57E2,1.29E2,2.58E2,8.9E1,2.4E1,1.08E2,8.1E1,1.26E2,9.1E1,9.2E1,2.235E3,6.7E2,1.11E2,4.97E2,2.53E2,4.04E2,1.05E2,2.4E1],"tree_param":{"num_deleted":"0","num_feature":"2","num_nodes":"31","size_leaf_vector":"1"}},{"base_weights":[-4.680693E-3,-1.2058501E0,2.383477E-1,-1.64047E0,-6.692173E-1,5.747754E-1,-7.8923386E-1,-1.7581182E0,-1.3203046E0,-9.606229E-2,-1.3134946E0,9.053493E-1,2.4729843E-1,-4.7505367E-1,-2.555492E0,-1.8140791E-1,-1.5775399E-1,-4.9822733E-2,-1.4967416E-1,9.364574E-4,-5.679552E-2,-1.08391486E-1,-1.5264821E-1,1.1851891E-1,-4.129984E-2,-2.2013889E-1,5.974281E-2,-1.2872754E-1,1.3503322E-2,-2.3230572E-1,-3.7177172E-1],"categories":[],"categories_nodes":[],"categories_segments":[],"categories_sizes":[],"default_left":[0,0,0,0,0,0,0,0,0,0,0,0,0,0,0,0,0,0,0,0,0,0,0,0,0,0,0,0,0,0,0],"id":18,"left_children":[1,3,5,7,9,11,13,15,17,19,21,23,25,27,29,-1,-1,-1,-1,-1,-1,-1,-1,-1,-1,-1,-1,-1,-1,-1,-1],"loss_changes":[1.5092129E3,2.0181348E2,1.4869932E3,1.5758911E1,1.4425865E2,3.5052344E2,5.875596E2,6.5478516E-1,1.8545242E1,1.0353358E1,7.3425903E0,5.951985E2,1.3979514E3,4.4713812E2,3.458618E1,0E0,0E0,0E0,0E0,0E0,0E0,0E0,0E0,0E0,0E0,0E0,0E0,0E0,0E0,0E0,0E0],"parents":[2147483647,0,0,1,1,2,2,3,3,4,4,5,5,6,6,7,7,8,8,9,9,10,10,11,11,12,12,13,13,14,14],"right_children":[2,4,6,8,10,12,14,16,18,20,22,24,26,28,30,-1,-1,-1,-1,-1,-1,-1,-1,-1,-1,-1,-1,-1,-1,-1,-1],"split_conditions":[6E0,3E0,2E1,7E0,5E0,5E0,7E0,5E0,1E0,4E0,7E0,1.8E1,9E0,4E0,2.3E1,-1.8140791E-1,-1.5775399E-1,-4.9822733E-2,-1.4967416E-1,9.364574E-4,-5.679552E-2,-1.08391486E-1,-1.5264821E-1,1.1851891E-1,-4.129984E-2,-2.2013889E-1,5.974281E-2,-1.2872754E-1,1.3503322E-2,-2.3230572E-1,-3.7177172E-1],"split_indices":[1,1,1,0,0,0,0,0,1,0,0,1,1,0,1,0,0,0,0,0,0,0,0,0,0,0,0,0,0,0,0],"split_type":[0,0,0,0,0,0,0,0,0,0,0,0,0,0,0,0,0,0,0,0,0,0,0,0,0,0,0,0,0,0,0],"sum_hessian":[5.168E3,8.69E2,4.299E3,4.79E2,3.9E2,3.239E3,1.06E3,3.47E2,1.32E2,2.07E2,1.83E2,1.611E3,1.628E3,9.01E2,1.59E2,2.58E2,8.9E1,2.4E1,1.08E2,1.7E2,3.7E1,9.1E1,9.2E1,1.329E3,2.82E2,2.03E2,1.425E3,3.86E2,5.15E2,1.35E2,2.4E1],"tree_param":{"num_deleted":"0","num_feature":"2","num_nodes":"31","size_leaf_vector":"1"}},{"base_weights":[-4.533189E-3,-1.0862485E0,2.1432656E-1,-1.4775453E0,-6.0310614E-1,4.0175116E-1,-1.3473325E0,-1.5832809E0,-1.1897744E0,-8.672457E-2,-1.1835641E0,6.8385535E-1,-9.3179785E-2,-9.542265E-1,-2.3409007E0,-1.6333717E-1,-1.4215389E-1,-4.5039754E-2,-1.348441E-1,-3.5422195E-2,8.667314E-3,-9.7670175E-2,-1.3754755E-1,2.8223429E-2,1.9784053E-1,1.4917555E-2,-1.2146747E-1,-2.0778148E-1,-4.8160568E-2,-1.3721289E-1,-2.7410102E-1],"categories":[],"categories_nodes":[],"categories_segments":[],"categories_sizes":[],"default_left":[0,0,0,0,0,0,0,0,0,0,0,0,0,0,0,0,0,0,0,0,0,0,0,0,0,0,0,0,0,0,0],"id":19,"left_children":[1,3,5,7,9,11,13,15,17,19,21,23,25,27,29,-1,-1,-1,-1,-1,-1,-1,-1,-1,-1,-1,-1,-1,-1,-1,-1],"loss_changes":[1.2239624E3,1.635841E2,1.2591224E3,1.2721558E1,1.1709482E2,5.362126E2,1.7782251E2,4.9749756E-1,1.4995453E1,9.678455E0,5.9612427E0,1.2711626E3,3.793426E2,1.753017E2,4.6628906E1,0E0,0E0,0E0,0E0,0E0,0E0,0E0,0E0,0E0,0E0,0E0,0E0,0E0,0E0,0E0,0E0],"parents":[2147483647,0,0,1,1,2,2,3,3,4,4,5,5,6,6,7,7,8,8,9,9,10,10,11,11,12,12,13,13,14,14],"right_children":[2,4,6,8,10,12,14,16,18,20,22,24,26,28,30,-1,-1,-1,-1,-1,-1,-1,-1,-1,-1,-1,-1,-1,-1,-1,-1],"split_conditions":[6E0,3E0,2.2E1,7E0,5E0,1.7E1,2.3E1,5E0,1E0,2E0,7E0,1.5E1,7E0,3E0,5E0,-1.6333717E-1,-1.4215389E-1,-4.5039754E-2,-1.348441E-1,-3.5422195E-2,8.667314E-3,-9.7670175E-2,-1.3754755E-1,2.8223429E-2,1.9784053E-1,1.4917555E-2,-1.2146747E-1,-2.0778148E-1,-4.8160568E-2,-1.3721289E-1,-2.7410102E-1],"split_indices":[1,1,1,0,0,1,1,0,1,0,0,1,0,0,0,0,0,0,0,0,0,0,0,0,0,0,0,0,0,0,0],"split_type":[0,0,0,0,0,0,0,0,0,0,0,0,0,0,0,0,0,0,0,0,0,0,0,0,0,0,0,0,0,0,0],"sum_hessian":[5.168E3,8.69E2,4.299E3,4.79E2,3.9E2,3.839E3,4.6E2,3.47E2,1.32E2,2.07E2,1.83E2,2.445E3,1.394E3,3.31E2,1.29E2,2.58E2,8.9E1,2.4E1,1.08E2,8.1E1,1.26E2,9.1E1,9.2E1,1.867E3,5.78E2,1.147E3,2.47E2,9.7E1,2.34E2,3.9E1,9E1],"tree_param":{"num_deleted":"0","num_feature":"2","num_nodes":"31","size_leaf_vector":"1"}},{"base_weights":[-4.3301317E-3,-9.7848266E-1,1.9276685E-1,-1.330802E0,-5.4346544E-1,4.2450747E-1,-8.422132E-1,-1.4258307E0,-1.0721493E0,2.070181E-2,-9.7753394E-1,5.647093E-1,-2.4519865E-1,-5.9046376E-1,-2.1099744E0,-1.4651246E-1,-1.2322106E-1,-4.0715944E-2,-1.2148336E-1,-3.1923167E-2,3.30189E-2,-7.8116395E-2,-1.23940706E-1,6.931258E-2,1.3594038E-2,-1.6830249E-1,7.866027E-3,-1.348409E-1,-1.1365246E-2,-1.2383463E-1,-2.469921E-1],"categories":[],"categories_nodes":[],"categories_segments":[],"categories_sizes":[],"default_left":[0,0,0,0,0,0,0,0,0,0,0,0,0,0,0,0,0,0,0,0,0,0,0,0,0,0,0,0,0,0,0],"id":20,"left_children":[1,3,5,7,9,11,13,15,17,19,21,23,25,27,29,-1,-1,-1,-1,-1,-1,-1,-1,-1,-1,-1,-1,-1,-1,-1,-1],"loss_changes":[9.9264966E2,1.3261731E2,1.0316993E3,1.0269348E1,9.577115E1,3.3008203E2,2.4993164E2,8.4228516E-1,1.2124908E1,1.8095467E1,1.039653E1,1.5991309E2,2.8371494E2,2.3764587E2,3.772754E1,0E0,0E0,0E0,0E0,0E0,0E0,0E0,0E0,0E0,0E0,0E0,0E0,0E0,0E0,0E0,0E0],"parents":[2147483647,0,0,1,1,2,2,3,3,4,4,5,5,6,6,7,7,8,8,9,9,10,10,11,11,12,12,13,13,14,14],"right_children":[2,4,6,8,10,12,14,16,18,20,22,24,26,28,30,-1,-1,-1,-1,-1,-1,-1,-1,-1,-1,-1,-1,-1,-1,-1,-1],"split_conditions":[6E0,3E0,2.1E1,7E0,4E0,7E0,2.3E1,2E0,1E0,2E0,7E0,1.8E1,1E1,4E0,5E0,-1.4651246E-1,-1.2322106E-1,-4.0715944E-2,-1.2148336E-1,-3.1923167E-2,3.30189E-2,-7.8116395E-2,-1.23940706E-1,6.931258E-2,1.3594038E-2,-1.6830249E-1,7.866027E-3,-1.348409E-1,-1.1365246E-2,-1.2383463E-1,-2.469921E-1],"split_indices":[1,1,1,0,0,0,1,1,1,0,0,1,1,0,0,0,0,0,0,0,0,0,0,0,0,0,0,0,0,0,0],"split_type":[0,0,0,0,0,0,0,0,0,0,0,0,0,0,0,0,0,0,0,0,0,0,0,0,0,0,0,0,0,0,0],"sum_hessian":[5.168E3,8.69E2,4.299E3,4.79E2,3.9E2,3.513E3,7.86E2,3.47E2,1.32E2,1.7E2,2.2E2,2.905E3,6.08E2,6.57E2,1.29E2,2.83E2,6.4E1,2.4E1,1.08E2,8.1E1,8.9E1,1.28E2,9.2E1,2.235E3,6.7E2,1.11E2,4.97E2,2.53E2,4.04E2,3.9E1,9E1],"tree_param":{"num_deleted":"0","num_feature":"2","num_nodes":"31","size_leaf_vector":"1"}},{"base_weights":[-4.1347486E-3,-8.813619E-1,1.733517E-1,-1.1986215E0,-4.8963296E-1,5.645473E-1,-3.4257162E-1,-1.3304737E0,-1.0393949E0,-6.598156E-2,-9.658822E-1,2.0561336E-1,1.7215836E0,-1.2580003E-1,-1.4019444E0,-1.2626237E-1,-1.6250798E-1,-1.13607995E-1,-9.661539E-2,1.8637943E-3,-4.4503298E-2,-8.028259E-2,-1.11679934E-1,3.3780627E-2,-4.4223826E-2,2.860337E-1,1.3722503E-1,-7.8616045E-2,4.105512E-2,-6.375502E-2,-2.1384667E-1],"categories":[],"categories_nodes":[],"categories_segments":[],"categories_sizes":[],"default_left":[0,0,0,0,0,0,0,0,0,0,0,0,0,0,0,0,0,0,0,0,0,0,0,0,0,0,0,0,0,0,0],"id":21,"left_children":[1,3,5,7,9,11,13,15,17,19,21,23,25,27,29,-1,-1,-1,-1,-1,-1,-1,-1,-1,-1,-1,-1,-1,-1,-1,-1],"loss_changes":[8.0494507E2,1.0753656E2,8.6804913E2,8.694397E0,7.882587E1,1.0154687E3,4.258094E2,3.1252747E0,4.7442627E-1,6.679924E0,3.6312714E0,1.6012747E2,2.2640356E2,5.461221E2,1.7597949E2,0E0,0E0,0E0,0E0,0E0,0E0,0E0,0E0,0E0,0E0,0E0,0E0,0E0,0E0,0E0,0E0],"parents":[2147483647,0,0,1,1,2,2,3,3,4,4,5,5,6,6,7,7,8,8,9,9,10,10,11,11,12,12,13,13,14,14],"right_children":[2,4,6,8,10,12,14,16,18,20,22,24,26,28,30,-1,-1,-1,-1,-1,-1,-1,-1,-1,-1,-1,-1,-1,-1,-1,-1],"split_conditions":[6E0,3E0,1.7E1,5E0,5E0,1.5E1,7E0,4E0,7E0,4E0,7E0,7E0,2E0,4E0,2E1,-1.2626237E-1,-1.6250798E-1,-1.13607995E-1,-9.661539E-2,1.8637943E-3,-4.4503298E-2,-8.028259E-2,-1.11679934E-1,3.3780627E-2,-4.4223826E-2,2.860337E-1,1.3722503E-1,-7.8616045E-2,4.105512E-2,-6.375502E-2,-2.1384667E-1],"split_indices":[1,1,1,0,0,1,0,0,0,0,0,0,0,0,1,0,0,0,0,0,0,0,0,0,0,0,0,0,0,0,0],"split_type":[0,0,0,0,0,0,0,0,0,0,0,0,0,0,0,0,0,0,0,0,0,0,0,0,0,0,0,0,0,0,0],"sum_hessian":[5.168E3,8.69E2,4.299E3,4.79E2,3.9E2,2.445E3,1.854E3,2.58E2,2.21E2,2.07E2,1.83E2,1.867E3,5.78E2,1.54E3,3.14E2,2.14E2,4.4E1,8.9E1,1.32E2,1.7E2,3.7E1,9.1E1,9.2E1,1.551E3,3.16E2,1.34E2,4.44E2,6.9E2,8.5E2,1.55E2,1.59E2],"tree_param":{"num_deleted":"0","num_feature":"2","num_nodes":"31","size_leaf_vector":"1"}},{"base_weights":[-3.8443187E-3,-7.940688E-1,1.5603921E-1,-1.0797989E0,-4.412695E-1,3.0308875E-1,-1.0691805E0,-1.1985412E0,-9.3640244E-1,-5.9588138E-2,-8.703372E-1,5.082612E-1,-5.6878906E-2,-7.499671E-1,-1.8761781E0,-1.1369485E-1,-1.466183E-1,-8.692848E-2,-1.0287261E-1,-2.8953845E-2,8.93529E-3,-7.234159E-2,-1.0063201E-1,1.8504608E-2,1.5501569E-1,1.4229501E-2,-9.7863205E-2,-1.6608748E-1,-3.6690783E-2,-1.0948088E-1,-2.19902E-1],"categories":[],"categories_nodes":[],"categories_segments":[],"categories_sizes":[],"default_left":[0,0,0,0,0,0,0,0,0,0,0,0,0,0,0,0,0,0,0,0,0,0,0,0,0,0,0,0,0,0,0],"id":22,"left_children":[1,3,5,7,9,11,13,15,17,19,21,23,25,27,29,-1,-1,-1,-1,-1,-1,-1,-1,-1,-1,-1,-1,-1,-1,-1,-1],"loss_changes":[6.531954E2,8.722424E1,7.750465E2,7.05072E0,6.3981087E1,2.8363385E2,1.1734857E2,2.6026E0,4.8136902E-1,7.14967E0,2.94812E0,8.234194E2,2.5624615E2,1.152359E2,3.0386108E1,0E0,0E0,0E0,0E0,0E0,0E0,0E0,0E0,0E0,0E0,0E0,0E0,0E0,0E0,0E0,0E0],"parents":[2147483647,0,0,1,1,2,2,3,3,4,4,5,5,6,6,7,7,8,8,9,9,10,10,11,11,12,12,13,13,14,14],"right_children":[2,4,6,8,10,12,14,16,18,20,22,24,26,28,30,-1,-1,-1,-1,-1,-1,-1,-1,-1,-1,-1,-1,-1,-1,-1,-1],"split_conditions":[6E0,3E0,2.2E1,5E0,5E0,1.7E1,2.3E1,4E0,2E0,2E0,7E0,1.5E1,7E0,3E0,5E0,-1.1369485E-1,-1.466183E-1,-8.692848E-2,-1.0287261E-1,-2.8953845E-2,8.93529E-3,-7.234159E-2,-1.0063201E-1,1.8504608E-2,1.5501569E-1,1.4229501E-2,-9.7863205E-2,-1.6608748E-1,-3.6690783E-2,-1.0948088E-1,-2.19902E-1],"split_indices":[1,1,1,0,0,1,1,0,1,0,0,1,0,0,0,0,0,0,0,0,0,0,0,0,0,0,0,0,0,0,0],"split_type":[0,0,0,0,0,0,0,0,0,0,0,0,0,0,0,0,0,0,0,0,0,0,0,0,0,0,0,0,0,0,0],"sum_hessian":[5.168E3,8.69E2,4.299E3,4.79E2,3.9E2,3.839E3,4.6E2,2.58E2,2.21E2,2.07E2,1.83E2,2.445E3,1.394E3,3.31E2,1.29E2,2.14E2,4.4E1,1.34E2,8.7E1,8.1E1,1.26E2,9.1E1,9.2E1,1.867E3,5.78E2,1.147E3,2.47E2,9.7E1,2.34E2,3.9E1,9E1],"tree_param":{"num_deleted":"0","num_feature":"2","num_nodes":"31","size_leaf_vector":"1"}},{"base_weights":[-3.670038E-3,-7.154012E-1,1.4033222E-1,-9.7275686E-1,-3.9763612E-1,2.7280307E-1,-9.634168E-1,-1.0460912E0,-7.735607E-1,2.5849767E-2,-7.2351146E-1,4.5750567E-1,-5.1251013E-2,-7.5117356E-1,-2.1790114E-1,-1.081653E-1,-8.746194E-2,-1.9186992E-2,-8.998791E-2,-2.6093796E-2,2.8685806E-2,-5.003652E-2,-8.441325E-2,1.66551E-2,1.3954087E-1,1.2807782E-2,-8.811633E-2,-1.7089055E-1,-3.3551678E-2],"categories":[],"categories_nodes":[],"categories_segments":[],"categories_sizes":[],"default_left":[0,0,0,0,0,0,0,0,0,0,0,0,0,0,0,0,0,0,0,0,0,0,0,0,0,0,0,0,0],"id":23,"left_children":[1,3,5,7,9,11,13,15,17,19,21,23,25,27,-1,-1,-1,-1,-1,-1,-1,-1,-1,-1,-1,-1,-1,-1,-1],"loss_changes":[5.298758E2,7.076059E1,6.289854E2,6.2026367E0,5.397811E1,2.2986142E2,1.1730194E2,1.1759949E0,9.599945E0,1.2874882E1,5.5260925E0,6.672499E2,2.077268E2,1.5627322E2,0E0,0E0,0E0,0E0,0E0,0E0,0E0,0E0,0E0,0E0,0E0,0E0,0E0,0E0,0E0],"parents":[2147483647,0,0,1,1,2,2,3,3,4,4,5,5,6,6,7,7,8,8,9,9,10,10,11,11,12,12,13,13],"right_children":[2,4,6,8,10,12,14,16,18,20,22,24,26,28,-1,-1,-1,-1,-1,-1,-1,-1,-1,-1,-1,-1,-1,-1,-1],"split_conditions":[6E0,3E0,2.2E1,7E0,4E0,1.7E1,7E0,2E0,1E0,2E0,6E0,1.5E1,7E0,3E0,-2.1790114E-1,-1.081653E-1,-8.746194E-2,-1.9186992E-2,-8.998791E-2,-2.6093796E-2,2.8685806E-2,-5.003652E-2,-8.441325E-2,1.66551E-2,1.3954087E-1,1.2807782E-2,-8.811633E-2,-1.7089055E-1,-3.3551678E-2],"split_indices":[1,1,1,0,0,1,0,1,1,0,0,1,0,0,0,0,0,0,0,0,0,0,0,0,0,0,0,0,0],"split_type":[0,0,0,0,0,0,0,0,0,0,0,0,0,0,0,0,0,0,0,0,0,0,0,0,0,0,0,0,0],"sum_hessian":[5.168E3,8.69E2,4.299E3,4.79E2,3.9E2,3.839E3,4.6E2,3.47E2,1.32E2,1.7E2,2.2E2,2.445E3,1.394E3,3.93E2,6.7E1,2.83E2,6.4E1,2.4E1,1.08E2,8.1E1,8.9E1,7.9E1,1.41E2,1.867E3,5.78E2,1.147E3,2.47E2,1.18E2,2.75E2],"tree_param":{"num_deleted":"0","num_feature":"2","num_nodes":"29","size_leaf_vector":"1"}},{"base_weights":[-3.453647E-3,-5.9603435E-1,1.3935828E-1,-1.3935697E-1,-9.7274745E-1,3.117249E-1,-6.0109735E-1,-5.0470126E-1,1.843698E0,-7.5367457E-1,-2.595773E0,4.097555E-1,-1.5349264E-1,-4.025198E-1,-1.6015815E0,-9.2228316E-2,2.3280026E-3,2.672636E-1,-1.2405603E-2,-8.286049E-2,-6.1079938E-2,-3.1908542E-1,-1.19699076E-1,2.7690588E-2,8.915647E-2,-1.5616764E-1,1.0696197E-2,-1.00532606E-1,-2.346966E-3,-8.8324934E-2,-1.899732E-1],"categories":[],"categories_nodes":[],"categories_segments":[],"categories_sizes":[],"default_left":[0,0,0,0,0,0,0,0,0,0,0,0,0,0,0,0,0,0,0,0,0,0,0,0,0,0,0,0,0,0,0],"id":24,"left_children":[1,3,5,7,9,11,13,15,17,19,21,23,25,27,29,-1,-1,-1,-1,-1,-1,-1,-1,-1,-1,-1,-1,-1,-1,-1,-1],"loss_changes":[4.3752313E2,1.7258884E2,5.318933E2,3.3057703E2,1.9360211E2,1.5420966E2,1.5571149E2,8.490452E1,1.161429E2,4.696869E0,5.028586E1,1.7846396E2,2.1619339E2,1.5032532E2,2.6164337E1,0E0,0E0,0E0,0E0,0E0,0E0,0E0,0E0,0E0,0E0,0E0,0E0,0E0,0E0,0E0,0E0],"parents":[2147483647,0,0,1,1,2,2,3,3,4,4,5,5,6,6,7,7,8,8,9,9,10,10,11,11,12,12,13,13,14,14],"right_children":[2,4,6,8,10,12,14,16,18,20,22,24,26,28,30,-1,-1,-1,-1,-1,-1,-1,-1,-1,-1,-1,-1,-1,-1,-1,-1],"split_conditions":[7E0,4E0,2.1E1,5E0,6E0,7E0,2.3E1,3E0,2E0,4E0,7E0,6E0,1E1,4E0,5E0,-9.2228316E-2,2.3280026E-3,2.672636E-1,-1.2405603E-2,-8.286049E-2,-6.1079938E-2,-3.1908542E-1,-1.19699076E-1,2.7690588E-2,8.915647E-2,-1.5616764E-1,1.0696197E-2,-1.00532606E-1,-2.346966E-3,-8.8324934E-2,-1.899732E-1],"split_indices":[1,0,1,1,1,0,1,1,0,1,0,0,1,0,0,0,0,0,0,0,0,0,0,0,0,0,0,0,0,0,0],"split_type":[0,0,0,0,0,0,0,0,0,0,0,0,0,0,0,0,0,0,0,0,0,0,0,0,0,0,0,0,0,0,0],"sum_hessian":[5.168E3,1.003E3,4.165E3,4.54E2,5.49E2,3.379E3,7.86E2,3.84E2,7E1,4.85E2,6.4E1,2.791E3,5.88E2,6.57E2,1.29E2,2.14E2,1.7E2,4.9E1,2.1E1,3.15E2,1.7E2,4.4E1,2E1,2.189E3,6.02E2,9.1E1,4.97E2,2.53E2,4.04E2,3.9E1,9E1],"tree_param":{"num_deleted":"0","num_feature":"2","num_nodes":"31","size_leaf_vector":"1"}},{"base_weights":[-3.2685744E-3,-5.36847E-1,1.2532385E-1,-1.250587E-1,-8.765322E-1,4.226554E-1,-2.453262E-1,-4.5446458E-1,1.6629177E0,-6.786033E-1,-2.3429463E0,1.555871E-1,1.2217464E0,-1.2465172E0,-9.0041906E-2,-8.3048366E-2,2.0965615E-3,2.4107178E-1,-1.1221453E-2,-7.460067E-2,-5.5007655E-2,-2.87886E-1,-1.0829913E-1,2.572726E-2,-3.372726E-2,2.2565606E-1,9.050687E-2,4.75041E-2,-1.6389641E-1,1.4152779E-2,-1.04029454E-1],"categories":[],"categories_nodes":[],"categories_segments":[],"categories_sizes":[],"default_left":[0,0,0,0,0,0,0,0,0,0,0,0,0,0,0,0,0,0,0,0,0,0,0,0,0,0,0,0,0,0,0],"id":25,"left_children":[1,3,5,7,9,11,13,15,17,19,21,23,25,27,29,-1,-1,-1,-1,-1,-1,-1,-1,-1,-1,-1,-1,-1,-1,-1,-1],"loss_changes":[3.5473376E2,1.4032828E2,4.5922168E2,2.687371E2,1.5804523E2,4.932182E2,2.882832E2,6.8844185E1,9.451903E1,3.7999268E0,4.0771973E1,8.698912E1,1.8769745E2,1.69008E2,3.537671E2,0E0,0E0,0E0,0E0,0E0,0E0,0E0,0E0,0E0,0E0,0E0,0E0,0E0,0E0,0E0,0E0],"parents":[2147483647,0,0,1,1,2,2,3,3,4,4,5,5,6,6,7,7,8,8,9,9,10,10,11,11,12,12,13,13,14,14],"right_children":[2,4,6,8,10,12,14,16,18,20,22,24,26,28,30,-1,-1,-1,-1,-1,-1,-1,-1,-1,-1,-1,-1,-1,-1,-1,-1],"split_conditions":[7E0,4E0,1.7E1,5E0,6E0,1.5E1,2E0,3E0,2E0,4E0,7E0,7E0,2E0,1.8E1,7E0,-8.3048366E-2,2.0965615E-3,2.4107178E-1,-1.1221453E-2,-7.460067E-2,-5.5007655E-2,-2.87886E-1,-1.0829913E-1,2.572726E-2,-3.372726E-2,2.2565606E-1,9.050687E-2,4.75041E-2,-1.6389641E-1,1.4152779E-2,-1.04029454E-1],"split_indices":[1,0,1,1,1,1,0,1,0,1,0,0,0,1,0,0,0,0,0,0,0,0,0,0,0,0,0,0,0,0,0],"split_type":[0,0,0,0,0,0,0,0,0,0,0,0,0,0,0,0,0,0,0,0,0,0,0,0,0,0,0,0,0,0,0],"sum_hessian":[5.168E3,1.003E3,4.165E3,4.54E2,5.49E2,2.311E3,1.854E3,3.84E2,7E1,4.85E2,6.4E1,1.733E3,5.78E2,2.48E2,1.606E3,2.14E2,1.7E2,4.9E1,2.1E1,3.15E2,1.7E2,4.4E1,2E1,1.437E3,2.96E2,1.34E2,4.44E2,4.6E1,2.02E2,1.292E3,3.14E2],"tree_param":{"num_deleted":"0","num_feature":"2","num_nodes":"31","size_leaf_vector":"1"}},{"base_weights":[-2.9946605E-3,7.126638E-2,-7.615462E-1,-3.3031812E-1,2.8798583E-1,-5.815474E-1,-1.7932811E-1,8.839136E-3,-7.540457E-1,5.6435674E-1,-4.2082675E-2,-1.3542093E0,-2.4629988E-1,-8.0548696E-2,3.2838702E-2,-1.02571644E-1,5.5248834E-2,2.7846003E-2,1.10011734E-1,-9.220424E-2,8.904061E-3,-1.15644634E-1,-2.1735989E-1,9.529786E-3,-1.0150112E-1],"categories":[],"categories_nodes":[],"categories_segments":[],"categories_sizes":[],"default_left":[0,0,0,0,0,0,0,0,0,0,0,0,0,0,0,0,0,0,0,0,0,0,0,0,0],"id":26,"left_children":[1,3,5,7,9,11,-1,13,15,17,19,21,23,-1,-1,-1,-1,-1,-1,-1,-1,-1,-1,-1,-1],"loss_changes":[2.9122833E2,4.099249E2,8.4569916E1,2.3727235E2,2.790698E2,1.01725464E2,0E0,2.3914297E2,2.6109784E2,2.5472528E2,1.6104169E2,1.67697E1,7.257159E1,0E0,0E0,0E0,0E0,0E0,0E0,0E0,0E0,0E0,0E0,0E0,0E0],"parents":[2147483647,0,0,1,1,2,2,3,3,4,4,5,5,7,7,8,8,9,9,10,10,11,11,12,12],"right_children":[2,4,6,8,10,12,-1,14,16,18,20,22,24,-1,-1,-1,-1,-1,-1,-1,-1,-1,-1,-1,-1],"split_conditions":[2.2E1,1E1,7E0,5E0,1.7E1,3E0,-1.7932811E-1,3E0,9E0,1.5E1,2E0,2.3E1,2.3E1,-8.0548696E-2,3.2838702E-2,-1.02571644E-1,5.5248834E-2,2.7846003E-2,1.10011734E-1,-9.220424E-2,8.904061E-3,-1.15644634E-1,-2.1735989E-1,9.529786E-3,-1.0150112E-1],"split_indices":[1,1,0,0,1,0,0,1,1,1,0,1,1,0,0,0,0,0,0,0,0,0,0,0,0],"split_type":[0,0,0,0,0,0,0,0,0,0,0,0,0,0,0,0,0,0,0,0,0,0,0,0,0],"sum_hessian":[5.168E3,4.708E3,4.6E2,1.65E3,3.058E3,3.93E2,6.7E1,9.17E2,7.33E2,1.664E3,1.394E3,1.18E2,2.75E2,2.58E2,6.59E2,6.07E2,1.26E2,1.086E3,5.78E2,1.8E2,1.214E3,9.7E1,2.1E1,1.91E2,8.4E1],"tree_param":{"num_deleted":"0","num_feature":"2","num_nodes":"25","size_leaf_vector":"1"}},{"base_weights":[-2.8198925E-3,6.413119E-2,-6.8670243E-1,-2.9734397E-1,2.592052E-1,-5.244713E-1,-1.6165903E-1,7.903153E-3,-6.787057E-1,5.080042E-1,-3.7934214E-2,-1.2215868E0,-2.2200309E-1,-7.252492E-2,2.9559791E-2,-9.2331365E-2,4.9767476E-2,2.5064027E-2,9.902953E-2,1.0659016E-2,-7.067893E-2,-1.0419818E-1,-1.9661191E-1,8.58176E-3,-9.147039E-2],"categories":[],"categories_nodes":[],"categories_segments":[],"categories_sizes":[],"default_left":[0,0,0,0,0,0,0,0,0,0,0,0,0,0,0,0,0,0,0,0,0,0,0,0,0],"id":27,"left_children":[1,3,5,7,9,11,-1,13,15,17,19,21,23,-1,-1,-1,-1,-1,-1,-1,-1,-1,-1,-1,-1],"loss_changes":[2.3671538E2,3.3212943E2,6.869713E1,1.9219757E2,2.2616496E2,8.28058E1,0E0,1.9384268E2,2.1166946E2,2.0641882E2,1.349242E2,1.3864227E1,5.8929333E1,0E0,0E0,0E0,0E0,0E0,0E0,0E0,0E0,0E0,0E0,0E0,0E0],"parents":[2147483647,0,0,1,1,2,2,3,3,4,4,5,5,7,7,8,8,9,9,10,10,11,11,12,12],"right_children":[2,4,6,8,10,12,-1,14,16,18,20,22,24,-1,-1,-1,-1,-1,-1,-1,-1,-1,-1,-1,-1],"split_conditions":[2.2E1,1E1,7E0,5E0,1.7E1,3E0,-1.6165903E-1,3E0,9E0,1.5E1,7E0,2.3E1,2.3E1,-7.252492E-2,2.9559791E-2,-9.2331365E-2,4.9767476E-2,2.5064027E-2,9.902953E-2,1.0659016E-2,-7.067893E-2,-1.0419818E-1,-1.9661191E-1,8.58176E-3,-9.147039E-2],"split_indices":[1,1,0,0,1,0,0,1,1,1,0,1,1,0,0,0,0,0,0,0,0,0,0,0,0],"split_type":[0,0,0,0,0,0,0,0,0,0,0,0,0,0,0,0,0,0,0,0,0,0,0,0,0],"sum_hessian":[5.168E3,4.708E3,4.6E2,1.65E3,3.058E3,3.93E2,6.7E1,9.17E2,7.33E2,1.664E3,1.394E3,1.18E2,2.75E2,2.58E2,6.59E2,6.07E2,1.26E2,1.086E3,5.78E2,1.147E3,2.47E2,9.7E1,2.1E1,1.91E2,8.4E1],"tree_param":{"num_deleted":"0","num_feature":"2","num_nodes":"25","size_leaf_vector":"1"}},{"base_weights":[-2.6476716E-3,5.77134E-2,-6.1921525E-1,-2.6766148E-1,2.3330548E-1,-4.7299808E-1,-1.4573084E-1,7.065856E-3,-6.1089313E-1,4.5727798E-1,-3.418377E-2,-1.101956E0,-2.001032E-1,-4.040011E-2,4.299138E-2,-8.3113424E-2,4.4829976E-2,2.2559887E-2,8.914368E-2,-4.358272E-2,2.0794822E-2,-9.38847E-2,-1.778444E-1,7.7280276E-3,-8.243094E-2],"categories":[],"categories_nodes":[],"categories_segments":[],"categories_sizes":[],"default_left":[0,0,0,0,0,0,0,0,0,0,0,0,0,0,0,0,0,0,0,0,0,0,0,0,0],"id":28,"left_children":[1,3,5,7,9,11,-1,13,15,17,19,21,23,-1,-1,-1,-1,-1,-1,-1,-1,-1,-1,-1,-1],"loss_changes":[1.9240875E2,2.6910294E2,5.5803284E1,1.5568555E2,1.8328105E2,6.7405426E1,0E0,1.5973935E2,1.7159851E2,1.6727377E2,1.3575539E2,1.1460953E1,4.7851578E1,0E0,0E0,0E0,0E0,0E0,0E0,0E0,0E0,0E0,0E0,0E0,0E0],"parents":[2147483647,0,0,1,1,2,2,3,3,4,4,5,5,7,7,8,8,9,9,10,10,11,11,12,12],"right_children":[2,4,6,8,10,12,-1,14,16,18,20,22,24,-1,-1,-1,-1,-1,-1,-1,-1,-1,-1,-1,-1],"split_conditions":[2.2E1,1E1,7E0,5E0,1.7E1,3E0,-1.4573084E-1,5E0,9E0,1.5E1,4E0,2.3E1,2.3E1,-4.040011E-2,4.299138E-2,-8.3113424E-2,4.4829976E-2,2.2559887E-2,8.914368E-2,-4.358272E-2,2.0794822E-2,-9.38847E-2,-1.778444E-1,7.7280276E-3,-8.243094E-2],"split_indices":[1,1,0,0,1,0,0,1,1,1,0,1,1,0,0,0,0,0,0,0,0,0,0,0,0],"split_type":[0,0,0,0,0,0,0,0,0,0,0,0,0,0,0,0,0,0,0,0,0,0,0,0,0],"sum_hessian":[5.168E3,4.708E3,4.6E2,1.65E3,3.058E3,3.93E2,6.7E1,9.17E2,7.33E2,1.664E3,1.394E3,1.18E2,2.75E2,4.65E2,4.52E2,6.07E2,1.26E2,1.086E3,5.78E2,5.24E2,8.7E2,9.7E1,2.1E1,1.91E2,8.4E1],"tree_param":{"num_deleted":"0","num_feature":"2","num_nodes":"25","size_leaf_vector":"1"}},{"base_weights":[-2.4678402E-3,5.1953334E-2,-5.5836123E-1,-2.4091703E-1,2.10004E-1,-4.2657745E-1,-1.3137206E-1,6.3620443E-3,-5.4985607E-1,4.116171E-1,-3.0781511E-2,-1.2376504E0,-2.5360012E-1,-6.1276015E-2,2.4931094E-2,-7.481576E-2,4.0382244E-2,2.030595E-2,8.02447E-2,-7.9760544E-2,8.34785E-3,-1.0418091E-1,-1.6086838E-1,-8.070884E-3,-7.428483E-2],"categories":[],"categories_nodes":[],"categories_segments":[],"categories_sizes":[],"default_left":[0,0,0,0,0,0,0,0,0,0,0,0,0,0,0,0,0,0,0,0,0,0,0,0,0],"id":29,"left_children":[1,3,5,7,9,11,-1,13,15,17,19,21,23,-1,-1,-1,-1,-1,-1,-1,-1,-1,-1,-1,-1],"loss_changes":[1.5640352E2,2.1802246E2,4.5329422E1,1.2613025E2,1.485134E2,5.496325E1,0E0,1.3823378E2,1.3911317E2,1.3555212E2,1.2229274E2,3.3378448E0,2.7515322E1,0E0,0E0,0E0,0E0,0E0,0E0,0E0,0E0,0E0,0E0,0E0,0E0],"parents":[2147483647,0,0,1,1,2,2,3,3,4,4,5,5,7,7,8,8,9,9,10,10,11,11,12,12],"right_children":[2,4,6,8,10,12,-1,14,16,18,20,22,24,-1,-1,-1,-1,-1,-1,-1,-1,-1,-1,-1,-1],"split_conditions":[2.2E1,1E1,7E0,5E0,1.7E1,2E0,-1.3137206E-1,3E0,9E0,1.5E1,2E0,2.3E1,2.3E1,-6.1276015E-2,2.4931094E-2,-7.481576E-2,4.0382244E-2,2.030595E-2,8.02447E-2,-7.9760544E-2,8.34785E-3,-1.0418091E-1,-1.6086838E-1,-8.070884E-3,-7.428483E-2],"split_indices":[1,1,0,0,1,0,0,1,1,1,0,1,1,0,0,0,0,0,0,0,0,0,0,0,0],"split_type":[0,0,0,0,0,0,0,0,0,0,0,0,0,0,0,0,0,0,0,0,0,0,0,0,0],"sum_hessian":[5.168E3,4.708E3,4.6E2,1.65E3,3.058E3,3.93E2,6.7E1,9.17E2,7.33E2,1.664E3,1.394E3,6.8E1,3.25E2,2.58E2,6.59E2,6.07E2,1.26E2,1.086E3,5.78E2,1.8E2,1.214E3,4.7E1,2.1E1,2.41E2,8.4E1],"tree_param":{"num_deleted":"0","num_feature":"2","num_nodes":"25","size_leaf_vector":"1"}},{"base_weights":[-2.3215828E-3,4.674933E-2,-5.035637E-1,-2.1686815E-1,1.8901338E-1,-3.8480148E-1,-1.1842806E0,5.6863558E-3,-4.9491742E-1,3.705162E-1,-2.775454E-2,-7.984064E-1,-8.0166265E-2,-1.0578805E-1,-1.3593736E-1,-3.4083664E-2,3.6214117E-2,-6.734649E-2,3.6375802E-2,1.8277256E-2,7.223415E-2,1.1002324E-2,-6.6542044E-2,-1.1177267E-1,-5.6778517E-2,2.6822427E-2,-6.694377E-2],"categories":[],"categories_nodes":[],"categories_segments":[],"categories_sizes":[],"default_left":[0,0,0,0,0,0,0,0,0,0,0,0,0,0,0,0,0,0,0,0,0,0,0,0,0,0,0],"id":30,"left_children":[1,3,5,7,9,11,13,15,17,19,21,23,25,-1,-1,-1,-1,-1,-1,-1,-1,-1,-1,-1,-1,-1,-1],"loss_changes":[1.2716238E2,1.7664397E2,3.6813118E1,1.0216853E2,1.2036355E2,4.957945E1,6.690216E-2,1.1351459E2,1.12777695E2,1.09846176E2,1.226326E2,1.16635895E1,4.698718E1,0E0,0E0,0E0,0E0,0E0,0E0,0E0,0E0,0E0,0E0,0E0,0E0,0E0,0E0],"parents":[2147483647,0,0,1,1,2,2,3,3,4,4,5,5,6,6,7,7,8,8,9,9,10,10,11,11,12,12],"right_children":[2,4,6,8,10,12,14,16,18,20,22,24,26,-1,-1,-1,-1,-1,-1,-1,-1,-1,-1,-1,-1,-1,-1],"split_conditions":[2.2E1,1E1,7E0,5E0,1.7E1,4E0,2.3E1,5E0,9E0,1.5E1,7E0,2E0,2.3E1,-1.0578805E-1,-1.3593736E-1,-3.4083664E-2,3.6214117E-2,-6.734649E-2,3.6375802E-2,1.8277256E-2,7.223415E-2,1.1002324E-2,-6.6542044E-2,-1.1177267E-1,-5.6778517E-2,2.6822427E-2,-6.694377E-2],"split_indices":[1,1,0,0,1,0,1,1,1,1,0,0,1,0,0,0,0,0,0,0,0,0,0,0,0,0,0],"split_type":[0,0,0,0,0,0,0,0,0,0,0,0,0,0,0,0,0,0,0,0,0,0,0,0,0,0,0],"sum_hessian":[5.168E3,4.708E3,4.6E2,1.65E3,3.058E3,3.93E2,6.7E1,9.17E2,7.33E2,1.664E3,1.394E3,1.66E2,2.27E2,4.3E1,2.4E1,4.65E2,4.52E2,6.07E2,1.26E2,1.086E3,5.78E2,1.147E3,2.47E2,6.8E1,9.8E1,1.43E2,8.4E1],"tree_param":{"num_deleted":"0","num_feature":"2","num_nodes":"27","size_leaf_vector":"1"}},{"base_weights":[-2.175494E-3,4.207555E-2,-4.5418411E-1,-1.95199E-1,1.7012334E-1,-3.4685072E-1,-1.0694072E0,5.1195743E-3,-4.454677E-1,3.335187E-1,-2.5018895E-2,-8.3339053E-1,-1.3581781E-1,-9.5449656E-2,-1.22887366E-1,2.0317245E-2,-5.9514206E-2,-6.062291E-2,3.2766905E-2,8.150148E-2,2.1746753E-2,-3.81432E-2,1.8983977E-2,-7.092642E-2,-1.3484353E-1,7.1839476E-3,-6.0328115E-2],"categories":[],"categories_nodes":[],"categories_segments":[],"categories_sizes":[],"default_left":[0,0,0,0,0,0,0,0,0,0,0,0,0,0,0,0,0,0,0,0,0,0,0,0,0,0,0],"id":31,"left_children":[1,3,5,7,9,11,13,15,17,19,21,23,25,-1,-1,-1,-1,-1,-1,-1,-1,-1,-1,-1,-1,-1,-1],"loss_changes":[1.0340868E2,1.4310431E2,3.0070732E1,8.2772644E1,9.75456E1,4.034113E1,7.309723E-2,1.0925601E2,9.142787E1,9.285994E1,1.0689932E2,6.6513367E0,2.6835257E1,0E0,0E0,0E0,0E0,0E0,0E0,0E0,0E0,0E0,0E0,0E0,0E0,0E0,0E0],"parents":[2147483647,0,0,1,1,2,2,3,3,4,4,5,5,6,6,7,7,8,8,9,9,10,10,11,11,12,12],"right_children":[2,4,6,8,10,12,14,16,18,20,22,24,26,-1,-1,-1,-1,-1,-1,-1,-1,-1,-1,-1,-1,-1,-1],"split_conditions":[2.2E1,1E1,7E0,5E0,1.7E1,3E0,2.3E1,8E0,9E0,2E0,4E0,2.3E1,2.3E1,-9.5449656E-2,-1.22887366E-1,2.0317245E-2,-5.9514206E-2,-6.062291E-2,3.2766905E-2,8.150148E-2,2.1746753E-2,-3.81432E-2,1.8983977E-2,-7.092642E-2,-1.3484353E-1,7.1839476E-3,-6.0328115E-2],"split_indices":[1,1,0,0,1,0,1,1,1,0,0,1,1,0,0,0,0,0,0,0,0,0,0,0,0,0,0],"split_type":[0,0,0,0,0,0,0,0,0,0,0,0,0,0,0,0,0,0,0,0,0,0,0,0,0,0,0],"sum_hessian":[5.168E3,4.708E3,4.6E2,1.65E3,3.058E3,3.93E2,6.7E1,9.17E2,7.33E2,1.664E3,1.394E3,1.18E2,2.75E2,4.3E1,2.4E1,6.9E2,2.27E2,6.07E2,1.26E2,3.22E2,1.342E3,5.24E2,8.7E2,9.7E1,2.1E1,1.91E2,8.4E1],"tree_param":{"num_deleted":"0","num_feature":"2","num_nodes":"27","size_leaf_vector":"1"}},{"base_weights":[-2.0471036E-3,5.2340772E-2,-3.0494422E-1,-1.7571956E-1,1.9009243E-1,-6.5740305E-1,-1.1540985E-1,4.565168E-3,-4.009589E-1,3.0022827E-1,1.8374708E-2,-8.818001E-1,-5.092346E-1,8.3882496E-2,-7.981939E-1,-5.380076E-2,2.1747695E-2,-1.1214553E-2,-7.5419664E-2,1.3244911E-2,6.1469406E-2,1.6781105E-2,-6.317653E-2,-7.862133E-2,-1.219721E-1,-2.576531E-2,-8.4931575E-2,2.5349215E-2,-5.436624E-2,-5.4947805E-2,-9.656774E-2],"categories":[],"categories_nodes":[],"categories_segments":[],"categories_sizes":[],"default_left":[0,0,0,0,0,0,0,0,0,0,0,0,0,0,0,0,0,0,0,0,0,0,0,0,0,0,0,0,0,0,0],"id":32,"left_children":[1,3,5,7,9,11,13,15,17,19,21,23,25,27,29,-1,-1,-1,-1,-1,-1,-1,-1,-1,-1,-1,-1,-1,-1,-1,-1],"loss_changes":[8.516971E1,1.3772836E2,5.249813E1,6.704434E1,5.1681725E1,8.694321E0,6.987273E1,1.0616448E2,7.479794E1,8.776532E1,1.03964226E2,2.5295258E0,1.4154934E1,4.2500008E1,4.3014603E0,0E0,0E0,0E0,0E0,0E0,0E0,0E0,0E0,0E0,0E0,0E0,0E0,0E0,0E0,0E0,0E0],"parents":[2147483647,0,0,1,1,2,2,3,3,4,4,5,5,6,6,7,7,8,8,9,9,10,10,11,11,12,12,13,13,14,14],"right_children":[2,4,6,8,10,12,14,16,18,20,22,24,26,28,30,-1,-1,-1,-1,-1,-1,-1,-1,-1,-1,-1,-1,-1,-1,-1,-1],"split_conditions":[2.1E1,1E1,4E0,5E0,1.7E1,2E0,7E0,3E0,6E0,1.5E1,7E0,2.3E1,3E0,2.3E1,2.2E1,-5.380076E-2,2.1747695E-2,-1.1214553E-2,-7.5419664E-2,1.3244911E-2,6.1469406E-2,1.6781105E-2,-6.317653E-2,-7.862133E-2,-1.219721E-1,-2.576531E-2,-8.4931575E-2,2.5349215E-2,-5.436624E-2,-5.4947805E-2,-9.656774E-2],"split_indices":[1,1,0,0,1,0,0,1,1,1,0,1,0,1,1,0,0,0,0,0,0,0,0,0,0,0,0,0,0,0,0],"split_type":[0,0,0,0,0,0,0,0,0,0,0,0,0,0,0,0,0,0,0,0,0,0,0,0,0,0,0,0,0,0,0],"sum_hessian":[5.168E3,4.382E3,7.86E2,1.65E3,2.732E3,2.74E2,5.12E2,9.17E2,7.33E2,1.664E3,1.068E3,1.07E2,1.67E2,3.97E2,1.15E2,2.58E2,6.59E2,4.04E2,3.29E2,1.086E3,5.78E2,8.69E2,1.99E2,8.6E1,2.1E1,9.7E1,7E1,3.13E2,8.4E1,4.8E1,6.7E1],"tree_param":{"num_deleted":"0","num_feature":"2","num_nodes":"31","size_leaf_vector":"1"}},{"base_weights":[-1.954998E-3,4.7086146E-2,-2.750749E-1,-1.582194E-1,1.710936E-1,-5.9279466E-1,-1.042211E-1,4.0738406E-3,-3.6098096E-1,2.7025026E-1,1.6494015E-2,-7.954774E-1,-4.5897007E-1,7.542095E-2,-7.196807E-1,1.8937623E-2,-5.5754032E-2,-5.130729E-2,3.699866E-2,1.0308869E-2,5.461157E-2,1.51049495E-2,-5.6890476E-2,-7.084956E-2,-1.1032931E-1,-2.3215061E-2,-7.6558046E-2,2.282232E-2,-4.8993584E-2,-4.9565155E-2,-8.705299E-2],"categories":[],"categories_nodes":[],"categories_segments":[],"categories_sizes":[],"default_left":[0,0,0,0,0,0,0,0,0,0,0,0,0,0,0,0,0,0,0,0,0,0,0,0,0,0,0,0,0,0,0],"id":33,"left_children":[1,3,5,7,9,11,13,15,17,19,21,23,25,27,29,-1,-1,-1,-1,-1,-1,-1,-1,-1,-1,-1,-1,-1,-1,-1,-1],"loss_changes":[6.924713E1,1.1161569E2,4.265944E1,5.433065E1,4.189129E1,7.093979E0,5.6772804E1,9.564042E1,8.179173E1,7.672368E1,8.428958E1,2.1099548E0,1.1505863E1,3.449416E1,3.488697E0,0E0,0E0,0E0,0E0,0E0,0E0,0E0,0E0,0E0,0E0,0E0,0E0,0E0,0E0,0E0,0E0],"parents":[2147483647,0,0,1,1,2,2,3,3,4,4,5,5,6,6,7,7,8,8,9,9,10,10,11,11,12,12,13,13,14,14],"right_children":[2,4,6,8,10,12,14,16,18,20,22,24,26,28,30,-1,-1,-1,-1,-1,-1,-1,-1,-1,-1,-1,-1,-1,-1,-1,-1],"split_conditions":[2.1E1,1E1,4E0,5E0,1.7E1,2E0,7E0,8E0,9E0,6E0,7E0,2.3E1,3E0,2.3E1,2.2E1,1.8937623E-2,-5.5754032E-2,-5.130729E-2,3.699866E-2,1.0308869E-2,5.461157E-2,1.51049495E-2,-5.6890476E-2,-7.084956E-2,-1.1032931E-1,-2.3215061E-2,-7.6558046E-2,2.282232E-2,-4.8993584E-2,-4.9565155E-2,-8.705299E-2],"split_indices":[1,1,0,0,1,0,0,1,1,0,0,1,0,1,1,0,0,0,0,0,0,0,0,0,0,0,0,0,0,0,0],"split_type":[0,0,0,0,0,0,0,0,0,0,0,0,0,0,0,0,0,0,0,0,0,0,0,0,0,0,0,0,0,0,0],"sum_hessian":[5.168E3,4.382E3,7.86E2,1.65E3,2.732E3,2.74E2,5.12E2,9.17E2,7.33E2,1.664E3,1.068E3,1.07E2,1.67E2,3.97E2,1.15E2,6.9E2,2.27E2,6.07E2,1.26E2,1.037E3,6.27E2,8.69E2,1.99E2,8.6E1,2.1E1,9.7E1,7E1,3.13E2,8.4E1,4.8E1,6.7E1],"tree_param":{"num_deleted":"0","num_feature":"2","num_nodes":"31","size_leaf_vector":"1"}},{"base_weights":[-1.8508185E-3,4.237108E-2,-2.4813129E-1,-1.4242855E-1,1.5399267E-1,-5.345368E-1,-9.411639E-2,3.6261068E-3,-3.2490233E-1,2.4326415E-1,1.4805578E-2,-7.176072E-1,-4.1366687E-1,6.7812994E-2,-6.488904E-1,-3.2587074E-2,3.425707E-2,-4.977802E-3,-6.6157036E-2,6.902783E-2,1.3557329E-2,-6.883325E-2,1.2238186E-2,-6.384604E-2,-9.979787E-2,-2.091723E-2,-6.901007E-2,2.0547358E-2,-4.4151913E-2,-4.470978E-2,-7.847572E-2],"categories":[],"categories_nodes":[],"categories_segments":[],"categories_sizes":[],"default_left":[0,0,0,0,0,0,0,0,0,0,0,0,0,0,0,0,0,0,0,0,0,0,0,0,0,0,0,0,0,0,0],"id":34,"left_children":[1,3,5,7,9,11,13,15,17,19,21,23,25,27,29,-1,-1,-1,-1,-1,-1,-1,-1,-1,-1,-1,-1,-1,-1,-1,-1],"loss_changes":[5.6306038E1,9.043283E1,3.4664818E1,4.400221E1,3.3955116E1,5.788269E0,4.6128952E1,1.0263495E2,6.795422E1,8.005842E1,8.094444E1,1.759407E0,9.352562E0,2.7996471E1,2.8294983E0,0E0,0E0,0E0,0E0,0E0,0E0,0E0,0E0,0E0,0E0,0E0,0E0,0E0,0E0,0E0,0E0],"parents":[2147483647,0,0,1,1,2,2,3,3,4,4,5,5,6,6,7,7,8,8,9,9,10,10,11,11,12,12,13,13,14,14],"right_children":[2,4,6,8,10,12,14,16,18,20,22,24,26,28,30,-1,-1,-1,-1,-1,-1,-1,-1,-1,-1,-1,-1,-1,-1,-1,-1],"split_conditions":[2.1E1,1E1,4E0,5E0,1.7E1,2E0,7E0,5E0,6E0,2E0,2E0,2.3E1,3E0,2.3E1,2.2E1,-3.2587074E-2,3.425707E-2,-4.977802E-3,-6.6157036E-2,6.902783E-2,1.3557329E-2,-6.883325E-2,1.2238186E-2,-6.384604E-2,-9.979787E-2,-2.091723E-2,-6.901007E-2,2.0547358E-2,-4.4151913E-2,-4.470978E-2,-7.847572E-2],"split_indices":[1,1,0,0,1,0,0,1,1,0,0,1,0,1,1,0,0,0,0,0,0,0,0,0,0,0,0,0,0,0,0],"split_type":[0,0,0,0,0,0,0,0,0,0,0,0,0,0,0,0,0,0,0,0,0,0,0,0,0,0,0,0,0,0,0],"sum_hessian":[5.168E3,4.382E3,7.86E2,1.65E3,2.732E3,2.74E2,5.12E2,9.17E2,7.33E2,1.664E3,1.068E3,1.07E2,1.67E2,3.97E2,1.15E2,4.65E2,4.52E2,4.04E2,3.29E2,3.22E2,1.342E3,1.41E2,9.27E2,8.6E1,2.1E1,9.7E1,7E1,3.13E2,8.4E1,4.8E1,6.7E1],"tree_param":{"num_deleted":"0","num_feature":"2","num_nodes":"31","size_leaf_vector":"1"}},{"base_weights":[-1.7516214E-3,3.812399E-2,-2.2382666E-1,-1.2822802E-1,1.3860297E-1,-4.820052E-1,-8.499055E-2,3.2648575E-3,-2.9250902E-1,-7.4059144E-3,2.247347E-1,-6.473617E-1,-3.7283555E-1,6.0972754E-2,-5.85063E-1,1.8123992E-2,-5.361388E-2,-4.3645363E-2,3.9891496E-2,3.5804275E-2,-8.633008E-2,9.4624355E-2,8.368624E-3,-5.7534814E-2,-9.027169E-2,-1.8846868E-2,-6.2206257E-2,1.8499203E-2,-3.9788634E-2,-4.0330008E-2,-7.074354E-2],"categories":[],"categories_nodes":[],"categories_segments":[],"categories_sizes":[],"default_left":[0,0,0,0,0,0,0,0,0,0,0,0,0,0,0,0,0,0,0,0,0,0,0,0,0,0,0,0,0,0,0],"id":35,"left_children":[1,3,5,7,9,11,13,15,17,19,21,23,25,27,29,-1,-1,-1,-1,-1,-1,-1,-1,-1,-1,-1,-1,-1,-1,-1,-1],"loss_changes":[4.5781986E1,7.32791E1,2.8168663E1,3.566549E1,3.4371857E1,4.722912E0,3.748069E1,8.822553E1,7.322676E1,3.177865E2,1.7485948E2,1.4666405E0,7.602228E0,2.2722738E1,2.2948494E0,0E0,0E0,0E0,0E0,0E0,0E0,0E0,0E0,0E0,0E0,0E0,0E0,0E0,0E0,0E0,0E0],"parents":[2147483647,0,0,1,1,2,2,3,3,4,4,5,5,6,6,7,7,8,8,9,9,10,10,11,11,12,12,13,13,14,14],"right_children":[2,4,6,8,10,12,14,16,18,20,22,24,26,28,30,-1,-1,-1,-1,-1,-1,-1,-1,-1,-1,-1,-1,-1,-1,-1,-1],"split_conditions":[2.1E1,1E1,4E0,5E0,4E0,2E0,7E0,8E0,9E0,1.8E1,5E0,2.3E1,3E0,2.3E1,2.2E1,1.8123992E-2,-5.361388E-2,-4.3645363E-2,3.9891496E-2,3.5804275E-2,-8.633008E-2,9.4624355E-2,8.368624E-3,-5.7534814E-2,-9.027169E-2,-1.8846868E-2,-6.2206257E-2,1.8499203E-2,-3.9788634E-2,-4.0330008E-2,-7.074354E-2],"split_indices":[1,1,0,0,0,0,0,1,1,1,0,1,0,1,1,0,0,0,0,0,0,0,0,0,0,0,0,0,0,0,0],"split_type":[0,0,0,0,0,0,0,0,0,0,0,0,0,0,0,0,0,0,0,0,0,0,0,0,0,0,0,0,0,0,0],"sum_hessian":[5.168E3,4.382E3,7.86E2,1.65E3,2.732E3,2.74E2,5.12E2,9.17E2,7.33E2,1.014E3,1.718E3,1.07E2,1.67E2,3.97E2,1.15E2,6.9E2,2.27E2,6.07E2,1.26E2,7.11E2,3.03E2,2.8E2,1.438E3,8.6E1,2.1E1,9.7E1,7E1,3.13E2,8.4E1,4.8E1,6.7E1],"tree_param":{"num_deleted":"0","num_feature":"2","num_nodes":"31","size_leaf_vector":"1"}},{"base_weights":[-1.643985E-3,3.87165E-2,-1.8139115E-1,-3.8704976E-1,7.694306E-2,-2.86986E-2,-9.332226E-1,-4.8887184E-1,-8.97279E-2,1.2456587E-2,2.980253E-1,-4.1341886E-1,6.1346525E-1,-1.9583103E-1,-5.275143E-1,-4.314577E-2,-7.523202E-2,1.2701939E-2,-3.4046337E-2,1.1522538E-2,-3.4802444E-2,-8.624988E-2,4.3714456E-2,-2.234259E-2,-2.2589281E-1,2.2001627E-1,-7.936672E-3,-4.5007903E-2,-7.9137534E-2],"categories":[],"categories_nodes":[],"categories_segments":[],"categories_sizes":[],"default_left":[0,0,0,0,0,0,0,0,0,0,0,0,0,0,0,0,0,0,0,0,0,0,0,0,0,0,0,0,0],"id":36,"left_children":[1,3,5,7,9,11,13,15,17,19,21,23,25,-1,27,-1,-1,-1,-1,-1,-1,-1,-1,-1,-1,-1,-1,-1,-1],"loss_changes":[3.7506477E1,6.874529E1,1.0880271E2,1.0491463E1,5.5241447E1,1.9517879E2,6.550882E1,3.5929527E0,4.9344068E0,1.1121574E2,1.4164685E2,1.7270839E2,3.2557175E2,0E0,2.0139465E0,0E0,0E0,0E0,0E0,0E0,0E0,0E0,0E0,0E0,0E0,0E0,0E0,0E0,0E0],"parents":[2147483647,0,0,1,1,2,2,3,3,4,4,5,5,6,6,7,7,8,8,9,9,10,10,11,11,12,12,14,14],"right_children":[2,4,6,8,10,12,14,16,18,20,22,24,26,-1,28,-1,-1,-1,-1,-1,-1,-1,-1,-1,-1,-1,-1,-1,-1],"split_conditions":[7E0,3E0,2E1,5E0,6E0,1.4E1,2.1E1,4E0,6E0,5E0,7E0,1.3E1,1.6E1,-1.9583103E-1,2.3E1,-4.314577E-2,-7.523202E-2,1.2701939E-2,-3.4046337E-2,1.1522538E-2,-3.4802444E-2,-8.624988E-2,4.3714456E-2,-2.234259E-2,-2.2589281E-1,2.2001627E-1,-7.936672E-3,-4.5007903E-2,-7.9137534E-2],"split_indices":[0,1,1,0,0,1,1,0,0,0,1,1,1,0,1,0,0,0,0,0,0,0,0,0,0,0,0,0,0],"split_type":[0,0,0,0,0,0,0,0,0,0,0,0,0,0,0,0,0,0,0,0,0,0,0,0,0,0,0,0,0],"sum_hessian":[5.168E3,4.221E3,9.47E2,3.47E2,3.874E3,7.88E2,1.59E2,2.58E2,8.9E1,3E3,8.74E2,4.93E2,2.95E2,4.4E1,1.15E2,2.14E2,4.4E1,4.8E1,4.1E1,2.335E3,6.65E2,9.3E1,7.81E2,4.48E2,4.5E1,8.9E1,2.06E2,9.1E1,2.4E1],"tree_param":{"num_deleted":"0","num_feature":"2","num_nodes":"29","size_leaf_vector":"1"}},{"base_weights":[-1.5881009E-3,3.4928605E-2,-2.0495676E-1,-1.0228952E-1,1.1780903E-1,-4.461176E-1,-7.527995E-2,8.292198E-3,-2.4045263E-1,-1.8226286E-2,1.9806384E-1,-5.9541E-1,-3.474885E-1,4.1653354E-2,-4.758332E-1,-2.8963977E-2,3.1475578E-2,2.706803E-3,-5.680448E-2,3.1078218E-2,-7.887387E-2,8.404752E-2,7.2479653E-3,-5.298648E-2,-8.2754724E-2,-1.8121919E-2,-5.720928E-2,1.5470822E-2,-3.7647467E-2,-3.1970404E-2,-5.813405E-2],"categories":[],"categories_nodes":[],"categories_segments":[],"categories_sizes":[],"default_left":[0,0,0,0,0,0,0,0,0,0,0,0,0,0,0,0,0,0,0,0,0,0,0,0,0,0,0,0,0,0,0],"id":37,"left_children":[1,3,5,7,9,11,13,15,17,19,21,23,25,27,29,-1,-1,-1,-1,-1,-1,-1,-1,-1,-1,-1,-1,-1,-1,-1,-1],"loss_changes":[3.839398E1,4.9858574E1,2.4578243E1,2.522649E1,2.984111E1,3.8423576E0,2.4047722E1,8.3909424E1,6.434143E1,2.575528E2,1.3862234E2,1.2047844E0,6.1702538E0,1.8872263E1,1.7249851E0,0E0,0E0,0E0,0E0,0E0,0E0,0E0,0E0,0E0,0E0,0E0,0E0,0E0,0E0,0E0,0E0],"parents":[2147483647,0,0,1,1,2,2,3,3,4,4,5,5,6,6,7,7,8,8,9,9,10,10,11,11,12,12,13,13,14,14],"right_children":[2,4,6,8,10,12,14,16,18,20,22,24,26,28,30,-1,-1,-1,-1,-1,-1,-1,-1,-1,-1,-1,-1,-1,-1,-1,-1],"split_conditions":[2.1E1,1E1,4E0,5E0,4E0,2E0,7E0,5E0,6E0,1.8E1,5E0,2.3E1,3E0,2.3E1,2.2E1,-2.8963977E-2,3.1475578E-2,2.706803E-3,-5.680448E-2,3.1078218E-2,-7.887387E-2,8.404752E-2,7.2479653E-3,-5.298648E-2,-8.2754724E-2,-1.8121919E-2,-5.720928E-2,1.5470822E-2,-3.7647467E-2,-3.1970404E-2,-5.813405E-2],"split_indices":[1,1,0,0,0,0,0,1,1,1,0,1,0,1,1,0,0,0,0,0,0,0,0,0,0,0,0,0,0,0,0],"split_type":[0,0,0,0,0,0,0,0,0,0,0,0,0,0,0,0,0,0,0,0,0,0,0,0,0,0,0,0,0,0,0],"sum_hessian":[5.168E3,4.382E3,7.86E2,1.65E3,2.732E3,2.74E2,5.12E2,9.17E2,7.33E2,1.014E3,1.718E3,1.07E2,1.67E2,3.97E2,1.15E2,4.65E2,4.52E2,4.04E2,3.29E2,7.11E2,3.03E2,2.8E2,1.438E3,8.6E1,2.1E1,9.7E1,7E1,3.13E2,8.4E1,4.8E1,6.7E1],"tree_param":{"num_deleted":"0","num_feature":"2","num_nodes":"31","size_leaf_vector":"1"}},{"base_weights":[-1.4933589E-3,3.143394E-2,-1.8487184E-1,-4.996982E-2,1.6669238E-1,-4.0227342E-1,-6.797065E-2,-1.5914623E-1,1.3834132E-1,4.2393166E-1,2.7208522E-2,-5.371259E-1,-3.1318805E-1,1.6919321E-1,-2.4380426E-1,-9.2379255E-3,-2.5522688E-1,-2.9629683E-2,5.222568E-2,1.2867661E-1,1.6122026E-2,1.4625524E-2,-4.9078073E-2,-4.774874E-2,-7.485542E-2,-1.6328225E-2,-5.156892E-2,4.1819733E-2,1.9086925E-4,-7.1417727E-3,-7.8666575E-2],"categories":[],"categories_nodes":[],"categories_segments":[],"categories_sizes":[],"default_left":[0,0,0,0,0,0,0,0,0,0,0,0,0,0,0,0,0,0,0,0,0,0,0,0,0,0,0,0,0,0,0],"id":38,"left_children":[1,3,5,7,9,11,13,15,17,19,21,23,25,27,29,-1,-1,-1,-1,-1,-1,-1,-1,-1,-1,-1,-1,-1,-1,-1,-1],"loss_changes":[3.1217049E1,4.8267548E1,1.9973864E1,5.6292366E1,5.908402E1,3.1354637E0,2.1434055E1,2.766657E2,1.6785341E2,1.3103821E2,6.599158E1,1.0043755E0,5.015621E0,9.121546E0,2.7550512E1,0E0,0E0,0E0,0E0,0E0,0E0,0E0,0E0,0E0,0E0,0E0,0E0,0E0,0E0,0E0,0E0],"parents":[2147483647,0,0,1,1,2,2,3,3,4,4,5,5,6,6,7,7,8,8,9,9,10,10,11,11,12,12,13,13,14,14],"right_children":[2,4,6,8,10,12,14,16,18,20,22,24,26,28,30,-1,-1,-1,-1,-1,-1,-1,-1,-1,-1,-1,-1,-1,-1,-1,-1],"split_conditions":[2.1E1,1.5E1,4E0,6E0,1.7E1,2E0,6E0,1.4E1,9E0,2E0,7E0,2.3E1,3E0,2.2E1,2.3E1,-9.2379255E-3,-2.5522688E-1,-2.9629683E-2,5.222568E-2,1.2867661E-1,1.6122026E-2,1.4625524E-2,-4.9078073E-2,-4.774874E-2,-7.485542E-2,-1.6328225E-2,-5.156892E-2,4.1819733E-2,1.9086925E-4,-7.1417727E-3,-7.8666575E-2],"split_indices":[1,1,0,0,1,0,0,1,1,0,0,1,0,1,1,0,0,0,0,0,0,0,0,0,0,0,0,0,0,0,0],"split_type":[0,0,0,0,0,0,0,0,0,0,0,0,0,0,0,0,0,0,0,0,0,0,0,0,0,0,0,0,0,0,0],"sum_hessian":[5.168E3,4.382E3,7.86E2,2.736E3,1.646E3,2.74E2,5.12E2,1.732E3,1.004E3,5.78E2,1.068E3,1.07E2,1.67E2,2.18E2,2.94E2,1.686E3,4.6E1,4.71E2,5.33E2,1.34E2,4.44E2,8.69E2,1.99E2,8.6E1,2.1E1,9.7E1,7E1,8.7E1,1.31E2,2.24E2,7E1],"tree_param":{"num_deleted":"0","num_feature":"2","num_nodes":"31","size_leaf_vector":"1"}},{"base_weights":[-1.4149523E-3,2.8260339E-2,-1.6668229E-1,-4.5061342E-2,1.5008985E-1,-3.6273885E-1,-6.125881E-2,-1.4338459E-1,1.2452995E-1,3.817878E-1,2.4455402E-2,-4.845486E-1,-2.8227344E-1,3.970711E-2,-4.0714827E-1,-8.314717E-3,-2.3024729E-1,-2.667299E-2,4.701294E-2,1.1590419E-1,1.4513368E-2,-5.5709034E-2,1.1341557E-2,-4.3028753E-2,-6.771014E-2,-1.4712079E-2,-4.6484653E-2,1.3066876E-2,-2.9678304E-2,-2.8139014E-2,-4.9178064E-2],"categories":[],"categories_nodes":[],"categories_segments":[],"categories_sizes":[],"default_left":[0,0,0,0,0,0,0,0,0,0,0,0,0,0,0,0,0,0,0,0,0,0,0,0,0,0,0,0,0,0,0],"id":39,"left_children":[1,3,5,7,9,11,13,15,17,19,21,23,25,27,29,-1,-1,-1,-1,-1,-1,-1,-1,-1,-1,-1,-1,-1,-1,-1,-1],"loss_changes":[2.5355328E1,3.9158978E1,1.6244255E1,4.5656693E1,4.793359E1,2.558628E0,1.7931688E1,2.2519891E2,1.3602068E2,1.06333275E2,5.536726E1,8.370495E-1,4.077051E0,1.2220644E1,1.0962296E0,0E0,0E0,0E0,0E0,0E0,0E0,0E0,0E0,0E0,0E0,0E0,0E0,0E0,0E0,0E0,0E0],"parents":[2147483647,0,0,1,1,2,2,3,3,4,4,5,5,6,6,7,7,8,8,9,9,10,10,11,11,12,12,13,13,14,14],"right_children":[2,4,6,8,10,12,14,16,18,20,22,24,26,28,30,-1,-1,-1,-1,-1,-1,-1,-1,-1,-1,-1,-1,-1,-1,-1,-1],"split_conditions":[2.1E1,1.5E1,4E0,6E0,1.7E1,2E0,7E0,1.4E1,9E0,2E0,2E0,2.3E1,3E0,2.3E1,2.2E1,-8.314717E-3,-2.3024729E-1,-2.667299E-2,4.701294E-2,1.1590419E-1,1.4513368E-2,-5.5709034E-2,1.1341557E-2,-4.3028753E-2,-6.771014E-2,-1.4712079E-2,-4.6484653E-2,1.3066876E-2,-2.9678304E-2,-2.8139014E-2,-4.9178064E-2],"split_indices":[1,1,0,0,1,0,0,1,1,0,0,1,0,1,1,0,0,0,0,0,0,0,0,0,0,0,0,0,0,0,0],"split_type":[0,0,0,0,0,0,0,0,0,0,0,0,0,0,0,0,0,0,0,0,0,0,0,0,0,0,0,0,0,0,0],"sum_hessian":[5.168E3,4.382E3,7.86E2,2.736E3,1.646E3,2.74E2,5.12E2,1.732E3,1.004E3,5.78E2,1.068E3,1.07E2,1.67E2,3.97E2,1.15E2,1.686E3,4.6E1,4.71E2,5.33E2,1.34E2,4.44E2,1.41E2,9.27E2,8.6E1,2.1E1,9.7E1,7E1,3.13E2,8.4E1,4.8E1,6.7E1],"tree_param":{"num_deleted":"0","num_feature":"2","num_nodes":"31","size_leaf_vector":"1"}},{"base_weights":[-1.3504069E-3,3.2434657E-2,-1.5181369E-1,-3.058978E-1,6.281073E-2,-2.9366188E-2,-7.546841E-1,-3.9410475E-1,-4.865893E-2,9.694205E-3,2.4491343E-1,-3.7045926E-1,5.399897E-1,-1.7370193E-1,-3.6709988E-1,-3.4221243E-2,-6.33277E-2,1.2911903E-2,-2.54908E-2,9.372391E-3,-2.8505517E-2,-6.962841E-2,3.5773654E-2,-1.8812813E-2,-2.1421161E-1,1.9093026E-1,-5.7972367E-3,-2.5382528E-2,-4.433257E-2],"categories":[],"categories_nodes":[],"categories_segments":[],"categories_sizes":[],"default_left":[0,0,0,0,0,0,0,0,0,0,0,0,0,0,0,0,0,0,0,0,0,0,0,0,0,0,0,0,0],"id":40,"left_children":[1,3,5,7,9,11,13,15,17,19,21,23,25,-1,27,-1,-1,-1,-1,-1,-1,-1,-1,-1,-1,-1,-1,-1,-1],"loss_changes":[2.628108E1,4.3409595E1,6.995918E1,7.877033E0,3.7479195E1,1.5342648E2,6.0280365E1,2.9977875E0,3.3329015E0,7.435458E1,9.316429E1,1.5917294E2,2.4247467E2,0E0,8.890705E-1,0E0,0E0,0E0,0E0,0E0,0E0,0E0,0E0,0E0,0E0,0E0,0E0,0E0,0E0],"parents":[2147483647,0,0,1,1,2,2,3,3,4,4,5,5,6,6,7,7,8,8,9,9,10,10,11,11,12,12,14,14],"right_children":[2,4,6,8,10,12,14,16,18,20,22,24,26,-1,28,-1,-1,-1,-1,-1,-1,-1,-1,-1,-1,-1,-1,-1,-1],"split_conditions":[7E0,3E0,2E1,5E0,6E0,1.4E1,2.1E1,4E0,6E0,5E0,7E0,1.3E1,1.6E1,-1.7370193E-1,2.2E1,-3.4221243E-2,-6.33277E-2,1.2911903E-2,-2.54908E-2,9.372391E-3,-2.8505517E-2,-6.962841E-2,3.5773654E-2,-1.8812813E-2,-2.1421161E-1,1.9093026E-1,-5.7972367E-3,-2.5382528E-2,-4.433257E-2],"split_indices":[0,1,1,0,0,1,1,0,0,0,1,1,1,0,1,0,0,0,0,0,0,0,0,0,0,0,0,0,0],"split_type":[0,0,0,0,0,0,0,0,0,0,0,0,0,0,0,0,0,0,0,0,0,0,0,0,0,0,0,0,0],"sum_hessian":[5.168E3,4.221E3,9.47E2,3.47E2,3.874E3,7.88E2,1.59E2,2.58E2,8.9E1,3E3,8.74E2,4.93E2,2.95E2,4.4E1,1.15E2,2.14E2,4.4E1,4.8E1,4.1E1,2.335E3,6.65E2,9.3E1,7.81E2,4.48E2,4.5E1,8.9E1,2.06E2,4.8E1,6.7E1],"tree_param":{"num_deleted":"0","num_feature":"2","num_nodes":"29","size_leaf_vector":"1"}},{"base_weights":[-1.3034613E-3,2.6066368E-2,-1.5373124E-1,-3.5989948E-2,1.291763E-1,-3.3642846E-1,-5.5494465E-2,-1.24622904E-1,1.168826E-1,3.24343E-1,2.3347786E-2,-4.4640455E-1,-2.63727E-1,1.565709E-1,-2.1273793E-1,-7.09294E-3,-2.0492254E-1,4.799738E-2,-1.9541739E-2,9.2740886E-2,6.5087355E-3,-5.1108014E-2,1.0509932E-2,-3.9701786E-2,-6.2141526E-2,-1.4183561E-2,-4.28257E-2,3.7274625E-2,1.126788E-3,-6.388869E-3,-6.81447E-2],"categories":[],"categories_nodes":[],"categories_segments":[],"categories_sizes":[],"default_left":[0,0,0,0,0,0,0,0,0,0,0,0,0,0,0,0,0,0,0,0,0,0,0,0,0,0,0,0,0,0,0],"id":41,"left_children":[1,3,5,7,9,11,13,15,17,19,21,23,25,27,29,-1,-1,-1,-1,-1,-1,-1,-1,-1,-1,-1,-1,-1,-1,-1,-1],"loss_changes":[2.1568676E1,2.8049814E1,1.4106083E1,3.7099674E1,3.4009903E1,2.0810108E0,1.7139751E1,1.7894054E2,1.1405414E2,9.0465256E1,4.6758648E1,6.867523E-1,3.3084621E0,6.8747916E0,2.0537724E1,0E0,0E0,0E0,0E0,0E0,0E0,0E0,0E0,0E0,0E0,0E0,0E0,0E0,0E0,0E0,0E0],"parents":[2147483647,0,0,1,1,2,2,3,3,4,4,5,5,6,6,7,7,8,8,9,9,10,10,11,11,12,12,13,13,14,14],"right_children":[2,4,6,8,10,12,14,16,18,20,22,24,26,28,30,-1,-1,-1,-1,-1,-1,-1,-1,-1,-1,-1,-1,-1,-1,-1,-1],"split_conditions":[2.1E1,1.5E1,4E0,6E0,1.7E1,2E0,6E0,1.4E1,7E0,3E0,2E0,2.3E1,3E0,2.2E1,2.3E1,-7.09294E-3,-2.0492254E-1,4.799738E-2,-1.9541739E-2,9.2740886E-2,6.5087355E-3,-5.1108014E-2,1.0509932E-2,-3.9701786E-2,-6.2141526E-2,-1.4183561E-2,-4.28257E-2,3.7274625E-2,1.126788E-3,-6.388869E-3,-6.81447E-2],"split_indices":[1,1,0,0,1,0,0,1,0,0,0,1,0,1,1,0,0,0,0,0,0,0,0,0,0,0,0,0,0,0,0],"split_type":[0,0,0,0,0,0,0,0,0,0,0,0,0,0,0,0,0,0,0,0,0,0,0,0,0,0,0,0,0,0,0],"sum_hessian":[5.168E3,4.382E3,7.86E2,2.736E3,1.646E3,2.74E2,5.12E2,1.732E3,1.004E3,5.78E2,1.068E3,1.07E2,1.67E2,2.18E2,2.94E2,1.686E3,4.6E1,4.64E2,5.4E2,1.73E2,4.05E2,1.41E2,9.27E2,8.6E1,2.1E1,9.7E1,7E1,8.7E1,1.31E2,2.24E2,7E1],"tree_param":{"num_deleted":"0","num_feature":"2","num_nodes":"31","size_leaf_vector":"1"}},{"base_weights":[-1.234793E-3,2.685067E-2,-1.2631454E-1,-6.742329E-2,1.1460327E-1,-1.5947664E-2,-6.697717E-1,1.1219854E-1,-5.2071196E-1,-3.0212042E-1,2.0606065E-1,-3.1438327E-1,4.8217103E-1,-1.5774532E-1,-3.1188002E-1,1.974893E-3,1.2027686E-1,-1.15741335E-1,-2.0348359E-2,1.8505123E-2,-5.239181E-2,5.1077243E-2,1.0815015E-2,-1.4985943E-2,-1.9134445E-1,1.7276622E-1,-6.167621E-3,-2.2270203E-2,-3.7155416E-2],"categories":[],"categories_nodes":[],"categories_segments":[],"categories_sizes":[],"default_left":[0,0,0,0,0,0,0,0,0,0,0,0,0,0,0,0,0,0,0,0,0,0,0,0,0,0,0,0,0],"id":42,"left_children":[1,3,5,7,9,11,13,15,17,19,21,23,25,-1,27,-1,-1,-1,-1,-1,-1,-1,-1,-1,-1,-1,-1,-1,-1],"loss_changes":[1.816169E1,3.493543E1,5.6850048E1,1.6583064E2,8.34142E1,1.1744145E2,5.1484283E1,1.4707668E2,1.1650876E2,4.2670036E1,5.346782E1,1.296766E2,2.0060422E2,0E0,5.345621E-1,0E0,0E0,0E0,0E0,0E0,0E0,0E0,0E0,0E0,0E0,0E0,0E0,0E0,0E0],"parents":[2147483647,0,0,1,1,2,2,3,3,4,4,5,5,6,6,7,7,8,8,9,9,10,10,11,11,12,12,14,14],"right_children":[2,4,6,8,10,12,14,16,18,20,22,24,26,-1,28,-1,-1,-1,-1,-1,-1,-1,-1,-1,-1,-1,-1,-1,-1],"split_conditions":[7E0,4E0,2E1,1.8E1,8E0,1.4E1,2.1E1,1.7E1,2E1,5E0,5E0,1.3E1,1.6E1,-1.5774532E-1,2.2E1,1.974893E-3,1.2027686E-1,-1.15741335E-1,-2.0348359E-2,1.8505123E-2,-5.239181E-2,5.1077243E-2,1.0815015E-2,-1.4985943E-2,-1.9134445E-1,1.7276622E-1,-6.167621E-3,-2.2270203E-2,-3.7155416E-2],"split_indices":[0,0,1,1,1,1,1,1,1,0,0,1,1,0,1,0,0,0,0,0,0,0,0,0,0,0,0,0,0],"split_type":[0,0,0,0,0,0,0,0,0,0,0,0,0,0,0,0,0,0,0,0,0,0,0,0,0,0,0,0,0],"sum_hessian":[5.168E3,4.221E3,9.47E2,2.035E3,2.186E3,7.88E2,1.59E2,1.458E3,5.77E2,3.93E2,1.793E3,4.93E2,2.95E2,4.4E1,1.15E2,1.345E3,1.13E2,1.91E2,3.86E2,1.23E2,2.7E2,4.35E2,1.358E3,4.48E2,4.5E1,8.9E1,2.06E2,4.8E1,6.7E1],"tree_param":{"num_deleted":"0","num_feature":"2","num_nodes":"29","size_leaf_vector":"1"}},{"base_weights":[-1.1579556E-3,2.340984E-2,-1.3798068E-1,-3.117703E-2,1.141086E-1,-2.8308877E-1,-5.9924737E-2,-1.1640873E-1,1.1582566E-1,2.4315678E-1,-1.9866094E-2,-3.825471E-1,-2.174662E-1,1.1046835E-1,-1.862168E-1,-6.7784027E-3,-1.8592483E-1,4.395031E-2,-1.625955E-2,6.143805E-2,-5.2042335E-2,-3.844336E-2,6.8945564E-2,-3.3765793E-2,-5.4267496E-2,-1.0765585E-2,-3.6597252E-2,3.04615E-2,-1.9799622E-3,-5.20693E-3,-6.087094E-2],"categories":[],"categories_nodes":[],"categories_segments":[],"categories_sizes":[],"default_left":[0,0,0,0,0,0,0,0,0,0,0,0,0,0,0,0,0,0,0,0,0,0,0,0,0,0,0,0,0,0,0],"id":43,"left_children":[1,3,5,7,9,11,13,15,17,19,21,23,25,27,29,-1,-1,-1,-1,-1,-1,-1,-1,-1,-1,-1,-1,-1,-1,-1,-1],"loss_changes":[1.7378475E1,2.1703623E1,8.89703E0,3.4306145E1,2.8480125E1,1.7116547E0,1.105997E1,1.4673715E2,9.06407E1,2.3814188E2,2.0946895E2,5.9306526E-1,2.700265E0,5.54478E0,1.668782E1,0E0,0E0,0E0,0E0,0E0,0E0,0E0,0E0,0E0,0E0,0E0,0E0,0E0,0E0,0E0,0E0],"parents":[2147483647,0,0,1,1,2,2,3,3,4,4,5,5,6,6,7,7,8,8,9,9,10,10,11,11,12,12,13,13,14,14],"right_children":[2,4,6,8,10,12,14,16,18,20,22,24,26,28,30,-1,-1,-1,-1,-1,-1,-1,-1,-1,-1,-1,-1,-1,-1,-1,-1],"split_conditions":[2.1E1,1.5E1,4E0,6E0,5E0,2E0,6E0,1.4E1,7E0,1.9E1,1.9E1,2.3E1,3E0,2.2E1,2.3E1,-6.7784027E-3,-1.8592483E-1,4.395031E-2,-1.625955E-2,6.143805E-2,-5.2042335E-2,-3.844336E-2,6.8945564E-2,-3.3765793E-2,-5.4267496E-2,-1.0765585E-2,-3.6597252E-2,3.04615E-2,-1.9799622E-3,-5.20693E-3,-6.087094E-2],"split_indices":[1,1,0,0,0,0,0,1,0,1,1,1,0,1,1,0,0,0,0,0,0,0,0,0,0,0,0,0,0,0,0],"split_type":[0,0,0,0,0,0,0,0,0,0,0,0,0,0,0,0,0,0,0,0,0,0,0,0,0,0,0,0,0,0,0],"sum_hessian":[5.168E3,4.382E3,7.86E2,2.736E3,1.646E3,2.74E2,5.12E2,1.732E3,1.004E3,8.38E2,8.08E2,1.07E2,1.67E2,2.18E2,2.94E2,1.686E3,4.6E1,4.64E2,5.4E2,5.64E2,2.74E2,5.34E2,2.74E2,8.6E1,2.1E1,9.7E1,7E1,8.7E1,1.31E2,2.24E2,7E1],"tree_param":{"num_deleted":"0","num_feature":"2","num_nodes":"31","size_leaf_vector":"1"}},{"base_weights":[-1.0998151E-3,2.1040319E-2,-1.2440236E-1,-2.81195E-2,1.0272179E-1,-2.5527215E-1,-5.4005492E-2,-1.0487881E-1,1.04270555E-1,2.1885248E-1,-1.784233E-2,-3.4510753E-1,-1.9600135E-1,9.955153E-2,-1.67819E-1,-6.100939E-3,-1.6772796E-1,-1.1898204E-2,4.8774187E-2,5.530516E-2,-4.6857063E-2,-3.4606274E-2,6.2076043E-2,-3.0428026E-2,-4.9087416E-2,-9.699986E-3,-3.2989074E-2,2.7449975E-2,-1.7834794E-3,-4.688538E-3,-5.486957E-2],"categories":[],"categories_nodes":[],"categories_segments":[],"categories_sizes":[],"default_left":[0,0,0,0,0,0,0,0,0,0,0,0,0,0,0,0,0,0,0,0,0,0,0,0,0,0,0,0,0,0,0],"id":44,"left_children":[1,3,5,7,9,11,13,15,17,19,21,23,25,27,29,-1,-1,-1,-1,-1,-1,-1,-1,-1,-1,-1,-1,-1,-1,-1,-1],"loss_changes":[1.4113651E1,1.7602589E1,7.236704E0,2.7824797E1,2.3063877E1,1.3966274E0,8.982338E0,1.19440575E2,8.609705E1,1.9300781E2,1.6978323E2,4.93371E-1,2.194882E0,4.5023956E0,1.3562209E1,0E0,0E0,0E0,0E0,0E0,0E0,0E0,0E0,0E0,0E0,0E0,0E0,0E0,0E0,0E0,0E0],"parents":[2147483647,0,0,1,1,2,2,3,3,4,4,5,5,6,6,7,7,8,8,9,9,10,10,11,11,12,12,13,13,14,14],"right_children":[2,4,6,8,10,12,14,16,18,20,22,24,26,28,30,-1,-1,-1,-1,-1,-1,-1,-1,-1,-1,-1,-1,-1,-1,-1,-1],"split_conditions":[2.1E1,1.5E1,4E0,6E0,5E0,2E0,6E0,1.4E1,1.1E1,1.9E1,1.9E1,2.3E1,3E0,2.2E1,2.3E1,-6.100939E-3,-1.6772796E-1,-1.1898204E-2,4.8774187E-2,5.530516E-2,-4.6857063E-2,-3.4606274E-2,6.2076043E-2,-3.0428026E-2,-4.9087416E-2,-9.699986E-3,-3.2989074E-2,2.7449975E-2,-1.7834794E-3,-4.688538E-3,-5.486957E-2],"split_indices":[1,1,0,0,0,0,0,1,1,1,1,1,0,1,1,0,0,0,0,0,0,0,0,0,0,0,0,0,0,0,0],"split_type":[0,0,0,0,0,0,0,0,0,0,0,0,0,0,0,0,0,0,0,0,0,0,0,0,0,0,0,0,0,0,0],"sum_hessian":[5.168E3,4.382E3,7.86E2,2.736E3,1.646E3,2.74E2,5.12E2,1.732E3,1.004E3,8.38E2,8.08E2,1.07E2,1.67E2,2.18E2,2.94E2,1.686E3,4.6E1,6.35E2,3.69E2,5.64E2,2.74E2,5.34E2,2.74E2,8.6E1,2.1E1,9.7E1,7E1,8.7E1,1.31E2,2.24E2,7E1],"tree_param":{"num_deleted":"0","num_feature":"2","num_nodes":"31","size_leaf_vector":"1"}},{"base_weights":[-1.0394639E-3,2.2852473E-2,-1.0744317E-1,-2.5764883E-1,4.80374E-2,-3.935569E-3,-6.171935E-1,-3.399512E-1,-1.7938092E-2,-3.5541017E-2,1.2215222E-1,-2.7171946E-1,4.4298732E-1,-1.5513231E-1,-2.4949501E-1,-2.902366E-2,-5.699221E-2,1.8735813E-2,-2.5702326E-2,5.519414E-2,-1.770885E-2,4.6895154E-2,6.0978084E-4,-1.1883818E-2,-1.7580669E-1,1.573926E-1,-5.086522E-3,-1.9119294E-2,-2.8783778E-2],"categories":[],"categories_nodes":[],"categories_segments":[],"categories_sizes":[],"default_left":[0,0,0,0,0,0,0,0,0,0,0,0,0,0,0,0,0,0,0,0,0,0,0,0,0,0,0,0,0],"id":45,"left_children":[1,3,5,7,9,11,13,15,17,19,21,23,25,-1,27,-1,-1,-1,-1,-1,-1,-1,-1,-1,-1,-1,-1,-1,-1],"loss_changes":[1.314304E1,2.9838293E1,5.0016933E1,6.8595104E0,2.400764E1,9.4546906E1,5.4569443E1,2.7957115E0,4.465651E0,1.5160916E2,8.266569E1,1.12045E2,1.654011E2,0E0,2.0428133E-1,0E0,0E0,0E0,0E0,0E0,0E0,0E0,0E0,0E0,0E0,0E0,0E0,0E0,0E0],"parents":[2147483647,0,0,1,1,2,2,3,3,4,4,5,5,6,6,7,7,8,8,9,9,10,10,11,11,12,12,14,14],"right_children":[2,4,6,8,10,12,14,16,18,20,22,24,26,-1,28,-1,-1,-1,-1,-1,-1,-1,-1,-1,-1,-1,-1,-1,-1],"split_conditions":[7E0,3E0,2E1,5E0,4E0,1.4E1,2.1E1,4E0,6E0,8E0,5E0,1.3E1,1.6E1,-1.5513231E-1,2.2E1,-2.902366E-2,-5.699221E-2,1.8735813E-2,-2.5702326E-2,5.519414E-2,-1.770885E-2,4.6895154E-2,6.0978084E-4,-1.1883818E-2,-1.7580669E-1,1.573926E-1,-5.086522E-3,-1.9119294E-2,-2.8783778E-2],"split_indices":[0,1,1,0,0,1,1,0,0,1,0,1,1,0,1,0,0,0,0,0,0,0,0,0,0,0,0,0,0],"split_type":[0,0,0,0,0,0,0,0,0,0,0,0,0,0,0,0,0,0,0,0,0,0,0,0,0,0,0,0,0],"sum_hessian":[5.168E3,4.221E3,9.47E2,3.47E2,3.874E3,7.88E2,1.59E2,2.58E2,8.9E1,1.821E3,2.053E3,4.93E2,2.95E2,4.4E1,1.15E2,2.14E2,4.4E1,4.8E1,4.1E1,3.53E2,1.468E3,5.14E2,1.539E3,4.48E2,4.5E1,8.9E1,2.06E2,4.8E1,6.7E1],"tree_param":{"num_deleted":"0","num_feature":"2","num_nodes":"29","size_leaf_vector":"1"}},{"base_weights":[-9.831423E-4,1.841907E-2,-1.09037675E-1,-3.817386E-2,8.138517E-2,-2.1254493E-1,-5.3338777E-2,-1.0657002E-2,-5.148298E-1,2.0858102E-1,-4.0372763E-2,-2.9378825E-1,-1.5905194E-1,6.6281274E-2,-1.4196065E-1,-1.018832E-2,3.3445992E-3,-1.4068894E-1,2.4247864E-2,4.4174537E-2,-4.2044945E-2,-2.587225E-2,5.846513E-2,-2.5669679E-2,-4.2711403E-2,-6.9870814E-3,-2.7990688E-2,2.2309093E-2,-3.8760626E-3,-3.2998365E-3,-4.852642E-2],"categories":[],"categories_nodes":[],"categories_segments":[],"categories_sizes":[],"default_left":[0,0,0,0,0,0,0,0,0,0,0,0,0,0,0,0,0,0,0,0,0,0,0,0,0,0,0,0,0,0,0],"id":46,"left_children":[1,3,5,7,9,11,13,15,17,19,21,23,25,27,29,-1,-1,-1,-1,-1,-1,-1,-1,-1,-1,-1,-1,-1,-1,-1,-1],"loss_changes":[1.0838801E1,1.5621649E1,4.5259075E0,3.0279526E1,3.214416E1,1.1484089E0,5.4476976E0,8.7904005E0,8.546223E1,1.4905324E2,1.4495E2,4.24448E-1,1.7911434E0,3.615924E0,1.1019094E1,0E0,0E0,0E0,0E0,0E0,0E0,0E0,0E0,0E0,0E0,0E0,0E0,0E0,0E0,0E0,0E0],"parents":[2147483647,0,0,1,1,2,2,3,3,4,4,5,5,6,6,7,7,8,8,9,9,10,10,11,11,12,12,13,13,14,14],"right_children":[2,4,6,8,10,12,14,16,18,20,22,24,26,28,30,-1,-1,-1,-1,-1,-1,-1,-1,-1,-1,-1,-1,-1,-1,-1,-1],"split_conditions":[2.1E1,1.3E1,4E0,1.2E1,5E0,2E0,6E0,3E0,5E0,1.9E1,1.9E1,2.3E1,3E0,2.2E1,2.3E1,-1.018832E-2,3.3445992E-3,-1.4068894E-1,2.4247864E-2,4.4174537E-2,-4.2044945E-2,-2.587225E-2,5.846513E-2,-2.5669679E-2,-4.2711403E-2,-6.9870814E-3,-2.7990688E-2,2.2309093E-2,-3.8760626E-3,-3.2998365E-3,-4.852642E-2],"split_indices":[1,1,0,1,0,0,0,0,0,1,1,1,0,1,1,0,0,0,0,0,0,0,0,0,0,0,0,0,0,0,0],"split_type":[0,0,0,0,0,0,0,0,0,0,0,0,0,0,0,0,0,0,0,0,0,0,0,0,0,0,0,0,0,0,0],"sum_hessian":[5.168E3,4.382E3,7.86E2,2.308E3,2.074E3,2.74E2,5.12E2,2.183E3,1.25E2,1.014E3,1.06E3,1.07E2,1.67E2,2.18E2,2.94E2,7.11E2,1.472E3,5.7E1,6.8E1,7.4E2,2.74E2,7.86E2,2.74E2,8.6E1,2.1E1,9.7E1,7E1,8.7E1,1.31E2,2.24E2,7E1],"tree_param":{"num_deleted":"0","num_feature":"2","num_nodes":"31","size_leaf_vector":"1"}},{"base_weights":[-9.283124E-4,2.0653415E-2,-9.7043425E-2,-2.286419E-1,4.3036412E-2,-2.294952E-3,-5.6366533E-1,-3.0042377E-1,-1.9529125E-2,3.6819691E-3,1.7796172E-1,-2.465347E-1,4.0532917E-1,-1.456804E-1,-2.1232994E-1,-3.5746988E-2,-1.2466362E-2,1.657283E-2,-2.351978E-2,2.9685631E-2,-5.788495E-3,-6.586718E-2,2.7830137E-2,-1.1134218E-2,-1.5607719E-1,1.4438681E-1,-4.816763E-3,-1.692315E-2,-2.4026368E-2],"categories":[],"categories_nodes":[],"categories_segments":[],"categories_sizes":[],"default_left":[0,0,0,0,0,0,0,0,0,0,0,0,0,0,0,0,0,0,0,0,0,0,0,0,0,0,0,0,0],"id":47,"left_children":[1,3,5,7,9,11,13,15,17,19,21,23,25,-1,27,-1,-1,-1,-1,-1,-1,-1,-1,-1,-1,-1,-1,-1,-1],"loss_changes":[1.0724216E1,2.3568502E1,4.1911407E1,5.2177887E0,2.0575247E1,7.86512E1,4.9897266E1,2.5522823E0,3.6348588E0,5.4184757E1,7.363736E1,8.759769E1,1.3947786E2,0E0,9.899187E-2,0E0,0E0,0E0,0E0,0E0,0E0,0E0,0E0,0E0,0E0,0E0,0E0,0E0,0E0],"parents":[2147483647,0,0,1,1,2,2,3,3,4,4,5,5,6,6,7,7,8,8,9,9,10,10,11,11,12,12,14,14],"right_children":[2,4,6,8,10,12,14,16,18,20,22,24,26,-1,28,-1,-1,-1,-1,-1,-1,-1,-1,-1,-1,-1,-1,-1,-1],"split_conditions":[7E0,3E0,2E1,5E0,6E0,1.4E1,2.1E1,2E0,6E0,8E0,7E0,1.3E1,1.6E1,-1.456804E-1,2.2E1,-3.5746988E-2,-1.2466362E-2,1.657283E-2,-2.351978E-2,2.9685631E-2,-5.788495E-3,-6.586718E-2,2.7830137E-2,-1.1134218E-2,-1.5607719E-1,1.4438681E-1,-4.816763E-3,-1.692315E-2,-2.4026368E-2],"split_indices":[0,1,1,0,0,1,1,1,0,1,1,1,1,0,1,0,0,0,0,0,0,0,0,0,0,0,0,0,0],"split_type":[0,0,0,0,0,0,0,0,0,0,0,0,0,0,0,0,0,0,0,0,0,0,0,0,0,0,0,0,0],"sum_hessian":[5.168E3,4.221E3,9.47E2,3.47E2,3.874E3,7.88E2,1.59E2,2.58E2,8.9E1,3E3,8.74E2,4.93E2,2.95E2,4.4E1,1.15E2,1.94E2,6.4E1,4.8E1,4.1E1,5.2E2,2.48E3,9.3E1,7.81E2,4.48E2,4.5E1,8.9E1,2.06E2,4.8E1,6.7E1],"tree_param":{"num_deleted":"0","num_feature":"2","num_nodes":"29","size_leaf_vector":"1"}},{"base_weights":[-8.902244E-4,-5.3345684E-2,3.31877E-2,7.911446E-2,-3.8761213E-1,3.4349355E-1,-3.4162518E-2,5.521588E-3,9.4733286E-1,-1.4947276E0,-1.5846205E-1,6.8874955E-1,-3.9937887E-1,-1.0797235E-1,1.7220749E-1,2.1030406E-2,-1.4380057E-2,1.1750505E-1,8.965577E-3,-5.341175E-2,-1.829546E-1,-5.377933E-2,6.291983E-3,-8.574457E-3,3.131022E-1,-6.341081E-2,1.5983084E-1,1.3347116E-3,-5.894741E-2,9.167002E-2,-1.4232246E-3],"categories":[],"categories_nodes":[],"categories_segments":[],"categories_sizes":[],"default_left":[0,0,0,0,0,0,0,0,0,0,0,0,0,0,0,0,0,0,0,0,0,0,0,0,0,0,0,0,0,0,0],"id":48,"left_children":[1,3,5,7,9,11,13,15,17,19,21,23,25,27,29,-1,-1,-1,-1,-1,-1,-1,-1,-1,-1,-1,-1,-1,-1,-1,-1],"loss_changes":[9.241736E0,9.017861E1,6.550972E1,9.321712E1,1.463992E2,1.4364804E2,3.9256577E1,4.118898E1,2.2159782E1,3.0864197E1,4.034283E1,7.2283124E2,8.448047E1,1.10880554E2,9.42603E1,0E0,0E0,0E0,0E0,0E0,0E0,0E0,0E0,0E0,0E0,0E0,0E0,0E0,0E0,0E0,0E0],"parents":[2147483647,0,0,1,1,2,2,3,3,4,4,5,5,6,6,7,7,8,8,9,9,10,10,11,11,12,12,13,13,14,14],"right_children":[2,4,6,8,10,12,14,16,18,20,22,24,26,28,30,-1,-1,-1,-1,-1,-1,-1,-1,-1,-1,-1,-1,-1,-1,-1,-1],"split_conditions":[4E0,1.8E1,5E0,1.7E1,1.9E1,1.9E1,1.9E1,8E0,3E0,2E0,2E0,1.6E1,2.3E1,1.6E1,2E1,2.1030406E-2,-1.4380057E-2,1.1750505E-1,8.965577E-3,-5.341175E-2,-1.829546E-1,-5.377933E-2,6.291983E-3,-8.574457E-3,3.131022E-1,-6.341081E-2,1.5983084E-1,1.3347116E-3,-5.894741E-2,9.167002E-2,-1.4232246E-3],"split_indices":[0,1,0,1,1,1,1,1,0,0,0,1,1,1,1,0,0,0,0,0,0,0,0,0,0,0,0,0,0,0,0],"split_type":[0,0,0,0,0,0,0,0,0,0,0,0,0,0,0,0,0,0,0,0,0,0,0,0,0,0,0,0,0,0,0],"sum_hessian":[5.168E3,2.035E3,3.133E3,1.458E3,5.77E2,5.58E2,2.575E3,1.345E3,1.13E2,9.8E1,4.79E2,3.81E2,1.77E2,1.897E3,6.78E2,5.67E2,7.78E2,8.9E1,2.4E1,2.6E1,7.2E1,1.76E2,3.03E2,2.9E2,9.1E1,1.59E2,1.8E1,1.516E3,3.81E2,1.35E2,5.43E2],"tree_param":{"num_deleted":"0","num_feature":"2","num_nodes":"31","size_leaf_vector":"1"}},{"base_weights":[-7.4675697E-4,1.8463237E-2,-8.629934E-2,-2.1812586E-1,3.97057E-2,-8.664101E-4,-5.070511E-1,-2.864873E-1,-1.8973175E-2,3.7765156E-3,1.6288716E-1,-2.2355177E-1,3.7078032E-1,-1.3129698E-1,-1.9003917E-1,-3.3614866E-2,-1.3309586E-2,1.4818628E-2,-2.135408E-2,2.5405297E-2,-4.8782057E-3,4.3821834E-2,-9.574847E-3,-1.0156453E-2,-1.4093934E-1,1.2997659E-1,-3.4917616E-3,-1.5126007E-2,-2.1518825E-2],"categories":[],"categories_nodes":[],"categories_segments":[],"categories_sizes":[],"default_left":[0,0,0,0,0,0,0,0,0,0,0,0,0,0,0,0,0,0,0,0,0,0,0,0,0,0,0,0,0],"id":49,"left_children":[1,3,5,7,9,11,13,15,17,19,21,23,25,-1,27,-1,-1,-1,-1,-1,-1,-1,-1,-1,-1,-1,-1,-1,-1],"loss_changes":[8.496662E0,2.1227314E1,3.407642E1,4.7323647E0,1.7149397E1,6.538075E1,4.0628212E1,1.9282246E0,2.9587874E0,3.948806E1,6.2351105E1,7.131769E1,1.1160408E2,0E0,8.0580235E-2,0E0,0E0,0E0,0E0,0E0,0E0,0E0,0E0,0E0,0E0,0E0,0E0,0E0,0E0],"parents":[2147483647,0,0,1,1,2,2,3,3,4,4,5,5,6,6,7,7,8,8,9,9,10,10,11,11,12,12,14,14],"right_children":[2,4,6,8,10,12,14,16,18,20,22,24,26,-1,28,-1,-1,-1,-1,-1,-1,-1,-1,-1,-1,-1,-1,-1,-1],"split_conditions":[7E0,3E0,2E1,5E0,6E0,1.4E1,2.1E1,2E0,6E0,8E0,1.5E1,1.3E1,1.6E1,-1.3129698E-1,2.2E1,-3.3614866E-2,-1.3309586E-2,1.4818628E-2,-2.135408E-2,2.5405297E-2,-4.8782057E-3,4.3821834E-2,-9.574847E-3,-1.0156453E-2,-1.4093934E-1,1.2997659E-1,-3.4917616E-3,-1.5126007E-2,-2.1518825E-2],"split_indices":[0,1,1,0,0,1,1,1,0,1,1,1,1,0,1,0,0,0,0,0,0,0,0,0,0,0,0,0,0],"split_type":[0,0,0,0,0,0,0,0,0,0,0,0,0,0,0,0,0,0,0,0,0,0,0,0,0,0,0,0,0],"sum_hessian":[5.168E3,4.221E3,9.47E2,3.47E2,3.874E3,7.88E2,1.59E2,2.58E2,8.9E1,3E3,8.74E2,4.93E2,2.95E2,4.4E1,1.15E2,1.94E2,6.4E1,4.8E1,4.1E1,5.2E2,2.48E3,4.23E2,4.51E2,4.48E2,4.5E1,8.9E1,2.06E2,4.8E1,6.7E1],"tree_param":{"num_deleted":"0","num_feature":"2","num_nodes":"29","size_leaf_vector":"1"}}]},"name":"gbtree"},"learner_model_param":{"base_score":"[1.3864552E1]","boost_from_average":"1","num_class":"0","num_feature":"2","num_target":"1"},"objective":{"name":"reg:squarederror","reg_loss_param":{"scale_pos_weight":"1"}}},"version":[3,2,0]}