{"learner":{"attributes":{},"feature_names":["day_of_week","hour_of_day"],"feature_types":[],"gradient_booster":{"model":{"cats":{"enc":[],"feature_segments":[],"sorted_idx":[]},"gbtree_model_param":{"num_parallel_tree":"1","num_trees":"50"},"iteration_indptr":[0,1,2,3,4,5,6,7,8,9,10,11,12,13,14,15,16,17,18,19,20,21,22,23,24,25,26,27,28,29,30,31,32,33,34,35,36,37,38,39,40,41,42,43,44,45,46,47,48,49,50],"tree_info":[0,0,0,0,0,0,0,0,0,0,0,0,0,0,0,0,0,0,0,0,0,0,0,0,0,0,0,0,0,0,0,0,0,0,0,0,0,0,0,0,0,0,0,0,0,0,0,0,0,0],"trees":[{"base_weights":[-1.18079235E-7,-1.0555954E1,1.2694591E0,-1.1067062E1,-6.795576E0,2.6830318E0,-5.505576E0,-1.222063E0,-9.7030514E-1,-2.326566E-1,-9.28191E-1,-2.3830128E0,3.3878214E0,-8.777593E0,-3.8684473E0,1.4903323E-1,-7.427611E-1,4.150806E-1,-5.423033E-2,-6.253197E-1,-1.0642016E0,-1.5390395E-1,-5.7142425E-1],"categories":[],"categories_nodes":[],"categories_segments":[],"categories_sizes":[],"default_left":[0,0,0,0,0,0,0,0,0,0,0,0,0,0,0,0,0,0,0,0,0,0,0],"id":0,"left_children":[1,3,5,7,9,11,13,-1,-1,-1,-1,15,17,19,21,-1,-1,-1,-1,-1,-1,-1,-1],"loss_changes":[6.927982E4,9.914844E2,4.421265E4,6.4770703E2,7.450952E2,1.3643795E4,4.235342E3,0E0,0E0,0E0,0E0,9.136001E3,1.0056641E4,1.1806875E3,2.2828984E3,0E0,0E0,0E0,0E0,0E0,0E0,0E0,0E0],"parents":[2147483647,0,0,1,1,2,2,3,3,4,4,5,5,6,6,11,11,12,12,13,13,14,14],"right_children":[2,4,6,8,10,12,14,-1,-1,-1,-1,16,18,20,22,-1,-1,-1,-1,-1,-1,-1,-1],"split_conditions":[4E0,3E0,2.1E1,5E0,2E0,7E0,4E0,-1.222063E0,-9.7030514E-1,-2.326566E-1,-9.28191E-1,5E0,1.9E1,2.2E1,2.2E1,1.4903323E-1,-7.427611E-1,4.150806E-1,-5.423033E-2,-6.253197E-1,-1.0642016E0,-1.5390395E-1,-5.7142425E-1],"split_indices":[1,1,1,0,0,1,0,0,0,0,0,0,1,1,1,0,0,0,0,0,0,0,0],"split_type":[0,0,0,0,0,0,0,0,0,0,0,0,0,0,0,0,0,0,0,0,0,0,0],"sum_hessian":[5.168E3,5.54E2,4.614E3,4.86E2,6.8E1,3.818E3,7.96E2,2.59E2,2.27E2,2.5E1,4.3E1,4.66E2,3.352E3,2.64E2,5.32E2,2.64E2,2.02E2,2.807E3,5.45E2,1.14E2,1.5E2,2.36E2,2.96E2],"tree_param":{"num_deleted":"0","num_feature":"2","num_nodes":"23","size_leaf_vector":"1"}},{"base_weights":[-1.1612728E-3,-9.5064E0,1.1419392E0,-9.964858E0,-6.132842E0,2.4146671E0,-4.958049E0,-1.1003268E0,-8.7370014E-1,-2.1028578E-1,-8.3748144E-1,-2.145983E0,3.0491464E0,-7.906209E0,-3.4829633E0,1.3418613E-1,-6.688509E-1,3.7358725E-1,-4.88172E-2,-5.6333154E-1,-9.584862E-1,-1.3857849E-1,-5.144742E-1],"categories":[],"categories_nodes":[],"categories_segments":[],"categories_sizes":[],"default_left":[0,0,0,0,0,0,0,0,0,0,0,0,0,0,0,0,0,0,0,0,0,0,0],"id":1,"left_children":[1,3,5,7,9,11,13,-1,-1,-1,-1,15,17,19,21,-1,-1,-1,-1,-1,-1,-1,-1],"loss_changes":[5.6174324E4,7.9726953E2,3.5841105E4,5.247969E2,6.0581177E2,1.1057348E4,3.4384453E3,0E0,0E0,0E0,0E0,7.4079473E3,8.146824E3,9.5708594E2,1.8503999E3,0E0,0E0,0E0,0E0,0E0,0E0,0E0,0E0],"parents":[2147483647,0,0,1,1,2,2,3,3,4,4,5,5,6,6,11,11,12,12,13,13,14,14],"right_children":[2,4,6,8,10,12,14,-1,-1,-1,-1,16,18,20,22,-1,-1,-1,-1,-1,-1,-1,-1],"split_conditions":[4E0,3E0,2.1E1,5E0,2E0,7E0,4E0,-1.1003268E0,-8.7370014E-1,-2.1028578E-1,-8.3748144E-1,5E0,1.9E1,2.2E1,2.2E1,1.3418613E-1,-6.688509E-1,3.7358725E-1,-4.88172E-2,-5.6333154E-1,-9.584862E-1,-1.3857849E-1,-5.144742E-1],"split_indices":[1,1,1,0,0,1,0,0,0,0,0,0,1,1,1,0,0,0,0,0,0,0,0],"split_type":[0,0,0,0,0,0,0,0,0,0,0,0,0,0,0,0,0,0,0,0,0,0,0],"sum_hessian":[5.168E3,5.54E2,4.614E3,4.86E2,6.8E1,3.818E3,7.96E2,2.59E2,2.27E2,2.5E1,4.3E1,4.66E2,3.352E3,2.64E2,5.32E2,2.64E2,2.02E2,2.807E3,5.45E2,1.14E2,1.5E2,2.36E2,2.96E2],"tree_param":{"num_deleted":"0","num_feature":"2","num_nodes":"23","size_leaf_vector":"1"}},{"base_weights":[-2.0913284E-3,-8.561205E0,1.0272282E0,-8.972425E0,-5.534743E0,2.1731453E0,-4.4649725E0,-9.9071735E-1,-7.8671336E-1,-1.9006597E-1,-7.5563663E-1,-2.8263764E0,2.649964E0,-7.1213303E0,-3.1358924E0,2.575239E-3,-6.9579583E-1,3.2224205E-1,-4.394437E-2,-5.074882E-1,-8.632723E-1,-1.2477912E-1,-4.6320006E-1],"categories":[],"categories_nodes":[],"categories_segments":[],"categories_sizes":[],"default_left":[0,0,0,0,0,0,0,0,0,0,0,0,0,0,0,0,0,0,0,0,0,0,0],"id":2,"left_children":[1,3,5,7,9,11,13,-1,-1,-1,-1,15,17,19,21,-1,-1,-1,-1,-1,-1,-1,-1],"loss_changes":[4.554801E4,6.410625E2,2.90547E4,4.2521094E2,4.9256372E2,9.111475E3,2.7914883E3,0E0,0E0,0E0,0E0,3.9241853E3,6.1683535E3,7.758301E2,1.4998403E3,0E0,0E0,0E0,0E0,0E0,0E0,0E0,0E0],"parents":[2147483647,0,0,1,1,2,2,3,3,4,4,5,5,6,6,11,11,12,12,13,13,14,14],"right_children":[2,4,6,8,10,12,14,-1,-1,-1,-1,16,18,20,22,-1,-1,-1,-1,-1,-1,-1,-1],"split_conditions":[4E0,3E0,2.1E1,5E0,2E0,6E0,4E0,-9.9071735E-1,-7.8671336E-1,-1.9006597E-1,-7.5563663E-1,5E0,1.9E1,2.2E1,2.2E1,2.575239E-3,-6.9579583E-1,3.2224205E-1,-4.394437E-2,-5.074882E-1,-8.632723E-1,-1.2477912E-1,-4.6320006E-1],"split_indices":[1,1,1,0,0,1,0,0,0,0,0,0,1,1,1,0,0,0,0,0,0,0,0],"split_type":[0,0,0,0,0,0,0,0,0,0,0,0,0,0,0,0,0,0,0,0,0,0,0],"sum_hessian":[5.168E3,5.54E2,4.614E3,4.86E2,6.8E1,3.818E3,7.96E2,2.59E2,2.27E2,2.5E1,4.3E1,3.32E2,3.486E3,2.64E2,5.32E2,1.97E2,1.35E2,2.941E3,5.45E2,1.14E2,1.5E2,2.36E2,2.96E2],"tree_param":{"num_deleted":"0","num_feature":"2","num_nodes":"23","size_leaf_vector":"1"}},{"base_weights":[-2.868002E-3,-7.709991E0,9.239914E-1,-8.078833E0,-4.9949746E0,2.160343E0,-3.2042458E0,-8.920266E-1,-7.0838704E0,-1.7179035E-1,-6.8179035E-1,-1.8249389E0,2.76273E0,-1.6127352E0,-5.3974214E0,-6.28994E-1,-7.3819786E-1,1.1247951E-1,-5.666587E-1,3.7680387E-1,1.760184E-1,-3.523358E-1,-4.9448766E-2,-7.775167E-1,-4.1703606E-1],"categories":[],"categories_nodes":[],"categories_segments":[],"categories_sizes":[],"default_left":[0,0,0,0,0,0,0,0,0,0,0,0,0,0,0,0,0,0,0,0,0,0,0,0,0],"id":3,"left_children":[1,3,5,7,9,11,13,-1,15,-1,-1,17,19,21,23,-1,-1,-1,-1,-1,-1,-1,-1,-1,-1],"loss_changes":[3.6931457E4,5.154297E2,2.356166E4,3.4452344E2,4.004845E2,8.532264E3,3.7051484E3,0E0,7.529297E0,0E0,0E0,5.2983433E3,3.1036465E3,1.318645E3,1.2717578E3,0E0,0E0,0E0,0E0,0E0,0E0,0E0,0E0,0E0,0E0],"parents":[2147483647,0,0,1,1,2,2,3,3,4,4,5,5,6,6,8,8,11,11,12,12,13,13,14,14],"right_children":[2,4,6,8,10,12,14,-1,16,-1,-1,18,20,22,24,-1,-1,-1,-1,-1,-1,-1,-1,-1,-1],"split_conditions":[4E0,3E0,2E1,5E0,2E0,7E0,2.2E1,-8.920266E-1,1E0,-1.7179035E-1,-6.8179035E-1,5E0,5E0,4E0,4E0,-6.28994E-1,-7.3819786E-1,1.1247951E-1,-5.666587E-1,3.7680387E-1,1.760184E-1,-3.523358E-1,-4.9448766E-2,-7.775167E-1,-4.1703606E-1],"split_indices":[1,1,1,0,0,1,1,0,1,0,0,0,0,0,0,0,0,0,0,0,0,0,0,0,0],"split_type":[0,0,0,0,0,0,0,0,0,0,0,0,0,0,0,0,0,0,0,0,0,0,0,0,0],"sum_hessian":[5.168E3,5.54E2,4.614E3,4.86E2,6.8E1,3.551E3,1.063E3,2.59E2,2.27E2,2.5E1,4.3E1,4.66E2,3.085E3,6.17E2,4.46E2,6.8E1,1.59E2,2.64E2,2.02E2,1.539E3,1.546E3,2.27E2,3.9E2,1.5E2,2.96E2],"tree_param":{"num_deleted":"0","num_feature":"2","num_nodes":"25","size_leaf_vector":"1"}},{"base_weights":[-3.4733603E-3,-6.9446E0,8.312675E-1,-7.2755885E0,-4.507848E0,1.7672366E0,-3.6546767E0,-8.0316705E-1,-6.3814793E0,-1.5527208E-1,-6.1516085E0,-2.3826354E0,2.1630325E0,-5.8226953E0,-2.5699122E0,-5.670062E-1,-6.6483945E-1,-5.147068E-1,-7.099703E-1,-8.872075E-3,-5.704786E-1,2.794299E-1,9.329255E-3,-4.2225346E-1,-7.0027995E-1,-1.7418794E-1,-5.4991406E-1],"categories":[],"categories_nodes":[],"categories_segments":[],"categories_sizes":[],"default_left":[0,0,0,0,0,0,0,0,0,0,0,0,0,0,0,0,0,0,0,0,0,0,0,0,0,0,0],"id":4,"left_children":[1,3,5,7,9,11,13,-1,15,-1,17,19,21,23,25,-1,-1,-1,-1,-1,-1,-1,-1,-1,-1,-1,-1],"loss_changes":[2.9955174E4,4.1483008E2,1.9383486E4,2.7796875E2,3.256173E2,6.277868E3,1.8594131E3,0E0,5.5976562E0,0E0,5.362793E0,2.5371968E3,4.555707E3,4.7084473E2,1.2832109E3,0E0,0E0,0E0,0E0,0E0,0E0,0E0,0E0,0E0,0E0,0E0,0E0],"parents":[2147483647,0,0,1,1,2,2,3,3,4,4,5,5,6,6,8,8,10,10,11,11,12,12,13,13,14,14],"right_children":[2,4,6,8,10,12,14,-1,16,-1,18,20,22,24,26,-1,-1,-1,-1,-1,-1,-1,-1,-1,-1,-1,-1],"split_conditions":[4E0,3E0,2.1E1,5E0,2E0,6E0,4E0,-8.0316705E-1,1E0,-1.5527208E-1,7E0,5E0,1.8E1,2.2E1,7E0,-5.670062E-1,-6.6483945E-1,-5.147068E-1,-7.099703E-1,-8.872075E-3,-5.704786E-1,2.794299E-1,9.329255E-3,-4.2225346E-1,-7.0027995E-1,-1.7418794E-1,-5.4991406E-1],"split_indices":[1,1,1,0,0,1,0,0,1,0,0,0,1,1,0,0,0,0,0,0,0,0,0,0,0,0,0],"split_type":[0,0,0,0,0,0,0,0,0,0,0,0,0,0,0,0,0,0,0,0,0,0,0,0,0,0,0],"sum_hessian":[5.168E3,5.54E2,4.614E3,4.86E2,6.8E1,3.818E3,7.96E2,2.59E2,2.27E2,2.5E1,4.3E1,3.32E2,3.486E3,2.64E2,5.32E2,6.8E1,1.59E2,2.4E1,1.9E1,1.97E2,1.35E2,2.671E3,8.15E2,1.14E2,1.5E2,4.16E2,1.16E2],"tree_param":{"num_deleted":"0","num_feature":"2","num_nodes":"27","size_leaf_vector":"1"}},{"base_weights":[-4.2000054E-3,-6.256293E0,7.4767774E-1,-6.552208E0,-4.077062E0,1.9313864E0,-2.140705E0,-7.2315925E-1,-5.748734E0,-1.4034203E-1,-5.564281E0,-6.8696326E-1,2.7191408E0,-9.860797E-1,-4.450333E0,-5.111273E-1,-5.98771E-1,-4.65295E-1,-6.425231E-1,2.1218255E-1,-4.091538E-1,3.5079202E-1,1.9332048E-1,-2.6865917E-1,-4.127919E-3,-6.307157E-1,-3.4913072E-1],"categories":[],"categories_nodes":[],"categories_segments":[],"categories_sizes":[],"default_left":[0,0,0,0,0,0,0,0,0,0,0,0,0,0,0,0,0,0,0,0,0,0,0,0,0,0,0],"id":5,"left_children":[1,3,5,7,9,11,13,-1,15,-1,17,19,21,23,25,-1,-1,-1,-1,-1,-1,-1,-1,-1,-1,-1,-1],"loss_changes":[2.4303162E4,3.3118555E2,1.5782838E4,2.2426562E2,2.6655518E2,6.754872E3,3.5743975E3,0E0,4.1279297E0,0E0,4.626587E0,7.2572314E3,1.553582E3,1.4394425E3,7.739717E2,0E0,0E0,0E0,0E0,0E0,0E0,0E0,0E0,0E0,0E0,0E0,0E0],"parents":[2147483647,0,0,1,1,2,2,3,3,4,4,5,5,6,6,8,8,10,10,11,11,12,12,13,13,14,14],"right_children":[2,4,6,8,10,12,14,-1,16,-1,18,20,22,24,26,-1,-1,-1,-1,-1,-1,-1,-1,-1,-1,-1,-1],"split_conditions":[4E0,3E0,1.9E1,5E0,2E0,9E0,2.2E1,-7.2315925E-1,1E0,-1.4034203E-1,7E0,5E0,5E0,4E0,4E0,-5.111273E-1,-5.98771E-1,-4.65295E-1,-6.425231E-1,2.1218255E-1,-4.091538E-1,3.5079202E-1,1.9332048E-1,-2.6865917E-1,-4.127919E-3,-6.307157E-1,-3.4913072E-1],"split_indices":[1,1,1,0,0,1,1,0,1,0,0,0,0,0,0,0,0,0,0,0,0,0,0,0,0,0,0],"split_type":[0,0,0,0,0,0,0,0,0,0,0,0,0,0,0,0,0,0,0,0,0,0,0,0,0,0,0],"sum_hessian":[5.168E3,5.54E2,4.614E3,4.86E2,6.8E1,3.273E3,1.341E3,2.59E2,2.27E2,2.5E1,4.3E1,7.57E2,2.516E3,8.95E2,4.46E2,6.8E1,1.59E2,2.4E1,1.9E1,4.15E2,3.42E2,1.254E3,1.262E3,3.19E2,5.76E2,1.5E2,2.96E2],"tree_param":{"num_deleted":"0","num_feature":"2","num_nodes":"27","size_leaf_vector":"1"}},{"base_weights":[-4.551268E-3,-4.3171577E0,8.885813E-1,-5.900751E0,-2.3831751E0,2.1728723E0,-1.9275682E0,-6.5112144E-1,-5.1787286E0,-4.0627518E-1,-4.832703E0,3.2686958E0,1.0733342E0,-8.8777626E-1,-4.007492E0,-4.6075532E-1,-5.3926814E-1,-1.7986159E-1,5.1464774E-2,-3.931851E-1,-5.804717E-1,3.4404516E-1,1.5686487E-1,-2.9801267E-1,1.7400376E-1,-2.868776E-1,-1.9933987E-2,-5.680619E-1,-3.143352E-1],"categories":[],"categories_nodes":[],"categories_segments":[],"categories_sizes":[],"default_left":[0,0,0,0,0,0,0,0,0,0,0,0,0,0,0,0,0,0,0,0,0,0,0,0,0,0,0,0,0],"id":6,"left_children":[1,3,5,7,9,11,13,-1,15,17,19,21,23,25,27,-1,-1,-1,-1,-1,-1,-1,-1,-1,-1,-1,-1,-1,-1],"loss_changes":[1.9913424E4,2.7025E3,1.5494751E4,1.8093555E2,1.9398674E3,3.5413066E3,2.8987695E3,0E0,3.0151367E0,2.868648E2,1.339165E2,4.2470898E2,3.9777969E3,1.221386E3,6.2842334E2,0E0,0E0,0E0,0E0,0E0,0E0,0E0,0E0,0E0,0E0,0E0,0E0,0E0,0E0],"parents":[2147483647,0,0,1,1,2,2,3,3,4,4,5,5,6,6,8,8,9,9,10,10,11,11,12,12,13,13,14,14],"right_children":[2,4,6,8,10,12,14,-1,16,18,20,22,24,26,28,-1,-1,-1,-1,-1,-1,-1,-1,-1,-1,-1,-1,-1,-1],"split_conditions":[6E0,3E0,1.9E1,5E0,5E0,5E0,2.2E1,-6.5112144E-1,1E0,2E0,7E0,1.8E1,9E0,3E0,4E0,-4.6075532E-1,-5.3926814E-1,-1.7986159E-1,5.1464774E-2,-3.931851E-1,-5.804717E-1,3.4404516E-1,1.5686487E-1,-2.9801267E-1,1.7400376E-1,-2.868776E-1,-1.9933987E-2,-5.680619E-1,-3.143352E-1],"split_indices":[1,1,1,0,0,0,1,0,1,0,0,1,1,0,0,0,0,0,0,0,0,0,0,0,0,0,0,0,0],"split_type":[0,0,0,0,0,0,0,0,0,0,0,0,0,0,0,0,0,0,0,0,0,0,0,0,0,0,0,0,0],"sum_hessian":[5.168E3,8.86E2,4.282E3,4.86E2,4E2,2.941E3,1.341E3,2.59E2,2.27E2,2.22E2,1.78E2,1.472E3,1.469E3,8.95E2,4.46E2,6.8E1,1.59E2,8.8E1,1.34E2,9.5E1,8.3E1,1.336E3,1.36E2,2.07E2,1.262E3,2.3E2,6.65E2,1.5E2,2.96E2],"tree_param":{"num_deleted":"0","num_feature":"2","num_nodes":"29","size_leaf_vector":"1"}},{"base_weights":[-4.7860453E-3,-3.888546E0,7.995333E-1,-5.3140664E0,-2.147606E0,1.955713E0,-1.7356977E0,-5.862597E-1,-4.6652417E0,-3.6622334E-1,-4.354872E0,2.9421659E0,9.659166E-1,-7.9934126E-1,-3.6087172E0,-4.1534755E-1,-4.856783E-1,-1.6207747E-1,4.63564E-2,-3.5427618E-1,-5.231155E-1,2.4181895E-1,3.4621498E-1,-2.6835468E-1,1.566172E-1,-2.5831398E-1,-1.7943611E-2,-5.4987276E-1,-2.9679736E-1],"categories":[],"categories_nodes":[],"categories_segments":[],"categories_sizes":[],"default_left":[0,0,0,0,0,0,0,0,0,0,0,0,0,0,0,0,0,0,0,0,0,0,0,0,0,0,0,0,0],"id":7,"left_children":[1,3,5,7,9,11,13,-1,15,17,19,21,23,25,27,-1,-1,-1,-1,-1,-1,-1,-1,-1,-1,-1,-1,-1,-1],"loss_changes":[1.6149945E4,2.1898965E3,1.2557649E4,1.4597266E2,1.5751313E3,2.8696885E3,2.3507334E3,0E0,2.177246E0,2.3289673E2,1.08850586E2,3.9296094E2,3.224399E3,9.9032074E2,5.2500244E2,0E0,0E0,0E0,0E0,0E0,0E0,0E0,0E0,0E0,0E0,0E0,0E0,0E0,0E0],"parents":[2147483647,0,0,1,1,2,2,3,3,4,4,5,5,6,6,8,8,9,9,10,10,11,11,12,12,13,13,14,14],"right_children":[2,4,6,8,10,12,14,-1,16,18,20,22,24,26,28,-1,-1,-1,-1,-1,-1,-1,-1,-1,-1,-1,-1,-1,-1],"split_conditions":[6E0,3E0,1.9E1,5E0,5E0,5E0,2.2E1,-5.862597E-1,1E0,2E0,7E0,1.3E1,9E0,3E0,3E0,-4.1534755E-1,-4.856783E-1,-1.6207747E-1,4.63564E-2,-3.5427618E-1,-5.231155E-1,2.4181895E-1,3.4621498E-1,-2.6835468E-1,1.566172E-1,-2.5831398E-1,-1.7943611E-2,-5.4987276E-1,-2.9679736E-1],"split_indices":[1,1,1,0,0,0,1,0,1,0,0,1,1,0,0,0,0,0,0,0,0,0,0,0,0,0,0,0,0],"split_type":[0,0,0,0,0,0,0,0,0,0,0,0,0,0,0,0,0,0,0,0,0,0,0,0,0,0,0,0,0],"sum_hessian":[5.168E3,8.86E2,4.282E3,4.86E2,4E2,2.941E3,1.341E3,2.59E2,2.27E2,2.22E2,1.78E2,1.472E3,1.469E3,8.95E2,4.46E2,6.8E1,1.59E2,8.8E1,1.34E2,9.5E1,8.3E1,7.36E2,7.36E2,2.07E2,1.262E3,2.3E2,6.65E2,1.11E2,3.35E2],"tree_param":{"num_deleted":"0","num_feature":"2","num_nodes":"29","size_leaf_vector":"1"}},{"base_weights":[-4.912395E-3,-3.5024877E0,7.19429E-1,-4.7857137E0,-1.9353219E0,1.7603035E0,-1.5629647E0,-5.278592E-1,-4.202669E0,-3.3011964E-1,-3.924287E0,2.6483483E0,8.692488E-1,-7.1971554E-1,-3.2497392E0,-3.7441477E-1,-4.37414E-1,-1.460518E-1,4.1755117E-2,-3.1921765E-1,-4.7142673E-1,2.808176E-1,1.0692406E-1,-3.2508284E-1,1.3088137E-1,-2.0163803E-1,6.52662E-5,-4.6354514E-1,-2.534277E-1],"categories":[],"categories_nodes":[],"categories_segments":[],"categories_sizes":[],"default_left":[0,0,0,0,0,0,0,0,0,0,0,0,0,0,0,0,0,0,0,0,0,0,0,0,0,0,0,0,0],"id":8,"left_children":[1,3,5,7,9,11,13,-1,15,17,19,21,23,25,27,-1,-1,-1,-1,-1,-1,-1,-1,-1,-1,-1,-1,-1,-1],"loss_changes":[1.3097864E4,1.7745186E3,1.01778125E4,1.17765625E2,1.2789738E3,2.3256924E3,1.9064834E3,0E0,1.548584E0,1.890818E2,8.847632E1,3.6876074E2,2.666485E3,8.3693353E2,4.3141895E2,0E0,0E0,0E0,0E0,0E0,0E0,0E0,0E0,0E0,0E0,0E0,0E0,0E0,0E0],"parents":[2147483647,0,0,1,1,2,2,3,3,4,4,5,5,6,6,8,8,9,9,10,10,11,11,12,12,13,13,14,14],"right_children":[2,4,6,8,10,12,14,-1,16,18,20,22,24,26,28,-1,-1,-1,-1,-1,-1,-1,-1,-1,-1,-1,-1,-1,-1],"split_conditions":[6E0,3E0,1.9E1,5E0,5E0,5E0,2.2E1,-5.278592E-1,1E0,2E0,7E0,1.8E1,8E0,4E0,4E0,-3.7441477E-1,-4.37414E-1,-1.460518E-1,4.1755117E-2,-3.1921765E-1,-4.7142673E-1,2.808176E-1,1.0692406E-1,-3.2508284E-1,1.3088137E-1,-2.0163803E-1,6.52662E-5,-4.6354514E-1,-2.534277E-1],"split_indices":[1,1,1,0,0,0,1,0,1,0,0,1,1,0,0,0,0,0,0,0,0,0,0,0,0,0,0,0,0],"split_type":[0,0,0,0,0,0,0,0,0,0,0,0,0,0,0,0,0,0,0,0,0,0,0,0,0,0,0,0,0],"sum_hessian":[5.168E3,8.86E2,4.282E3,4.86E2,4E2,2.941E3,1.341E3,2.59E2,2.27E2,2.22E2,1.78E2,1.472E3,1.469E3,8.95E2,4.46E2,6.8E1,1.59E2,8.8E1,1.34E2,9.5E1,8.3E1,1.336E3,1.36E2,1.41E2,1.328E3,3.19E2,5.76E2,1.5E2,2.96E2],"tree_param":{"num_deleted":"0","num_feature":"2","num_nodes":"29","size_leaf_vector":"1"}},{"base_weights":[-4.993721E-3,-3.1547582E0,6.473168E-1,-4.309893E0,-1.7440214E0,1.3193568E0,-2.2937756E0,-4.7527632E-1,-3.7859628E0,-2.9757535E-1,-3.5362754E0,1.6590543E0,-2.6033777E-1,-3.6368995E0,-1.62169E0,-3.3751598E-1,-3.9394593E-1,-1.3161075E-1,3.7610564E-2,-2.8762838E-1,-4.2484528E-1,2.0415492E-1,3.701174E-2,-3.9733487E-1,1.9080728E-2,-2.8987566E-1,-4.174976E-1,-8.9403056E-2,-4.2012826E-1],"categories":[],"categories_nodes":[],"categories_segments":[],"categories_sizes":[],"default_left":[0,0,0,0,0,0,0,0,0,0,0,0,0,0,0,0,0,0,0,0,0,0,0,0,0,0,0,0,0],"id":9,"left_children":[1,3,5,7,9,11,13,-1,15,17,19,21,23,25,27,-1,-1,-1,-1,-1,-1,-1,-1,-1,-1,-1,-1,-1,-1],"loss_changes":[1.0622397E4,1.4379307E3,8.468511E3,9.500586E1,1.0384994E3,1.8716201E3,7.135493E2,0E0,1.0808105E0,1.5350995E2,7.191577E1,1.414189E3,1.035974E3,9.31499E1,9.967196E2,0E0,0E0,0E0,0E0,0E0,0E0,0E0,0E0,0E0,0E0,0E0,0E0,0E0,0E0],"parents":[2147483647,0,0,1,1,2,2,3,3,4,4,5,5,6,6,8,8,9,9,10,10,11,11,12,12,13,13,14,14],"right_children":[2,4,6,8,10,12,14,-1,16,18,20,22,24,26,28,-1,-1,-1,-1,-1,-1,-1,-1,-1,-1,-1,-1,-1,-1],"split_conditions":[6E0,3E0,2.1E1,5E0,5E0,7E0,4E0,-4.7527632E-1,1E0,2E0,7E0,1.8E1,9E0,2.2E1,7E0,-3.3751598E-1,-3.9394593E-1,-1.3161075E-1,3.7610564E-2,-2.8762838E-1,-4.2484528E-1,2.0415492E-1,3.701174E-2,-3.9733487E-1,1.9080728E-2,-2.8987566E-1,-4.174976E-1,-8.9403056E-2,-4.2012826E-1],"split_indices":[1,1,1,0,0,0,0,0,1,0,0,1,1,1,0,0,0,0,0,0,0,0,0,0,0,0,0,0,0],"split_type":[0,0,0,0,0,0,0,0,0,0,0,0,0,0,0,0,0,0,0,0,0,0,0,0,0,0,0,0,0],"sum_hessian":[5.168E3,8.86E2,4.282E3,4.86E2,4E2,3.486E3,7.96E2,2.59E2,2.27E2,2.22E2,1.78E2,2.869E3,6.17E2,2.64E2,5.32E2,6.8E1,1.59E2,8.8E1,1.34E2,9.5E1,8.3E1,2.212E3,6.57E2,6.6E1,5.51E2,1.14E2,1.5E2,4.16E2,1.16E2],"tree_param":{"num_deleted":"0","num_feature":"2","num_nodes":"29","size_leaf_vector":"1"}},{"base_weights":[-5.145878E-3,-2.841552E0,5.822689E-1,-3.8813818E0,-1.5716305E0,1.1873816E0,-2.065925E0,-4.2793146E-1,-3.410575E0,-2.6823947E-1,-3.186628E0,1.4932327E0,-2.3491639E-1,-1.6716161E0,-3.9367788E0,-3.0425355E-1,-3.5479757E-1,-1.18597545E-1,3.3877343E-2,-2.591652E-1,-3.8286647E-1,1.8374866E-1,3.3316147E-2,-3.581944E-1,1.7176073E-2,-3.0727226E-1,-8.68915E-2,-3.3010632E-1,-6.678171E-1],"categories":[],"categories_nodes":[],"categories_segments":[],"categories_sizes":[],"default_left":[0,0,0,0,0,0,0,0,0,0,0,0,0,0,0,0,0,0,0,0,0,0,0,0,0,0,0,0,0],"id":10,"left_children":[1,3,5,7,9,11,13,-1,15,17,19,21,23,25,27,-1,-1,-1,-1,-1,-1,-1,-1,-1,-1,-1,-1,-1,-1],"loss_changes":[8.613968E3,1.1651855E3,6.8657705E3,7.664453E1,8.4323944E2,1.5172363E3,5.813613E2,0E0,7.348633E-1,1.2463007E2,5.8454956E1,1.1455479E3,8.418119E2,7.396118E2,2.1845386E2,0E0,0E0,0E0,0E0,0E0,0E0,0E0,0E0,0E0,0E0,0E0,0E0,0E0,0E0],"parents":[2147483647,0,0,1,1,2,2,3,3,4,4,5,5,6,6,8,8,9,9,10,10,11,11,12,12,13,13,14,14],"right_children":[2,4,6,8,10,12,14,-1,16,18,20,22,24,26,28,-1,-1,-1,-1,-1,-1,-1,-1,-1,-1,-1,-1,-1,-1],"split_conditions":[6E0,3E0,2.1E1,5E0,5E0,7E0,2.3E1,-4.2793146E-1,1E0,2E0,7E0,1.8E1,9E0,4E0,7E0,-3.0425355E-1,-3.5479757E-1,-1.18597545E-1,3.3877343E-2,-2.591652E-1,-3.8286647E-1,1.8374866E-1,3.3316147E-2,-3.581944E-1,1.7176073E-2,-3.0727226E-1,-8.68915E-2,-3.3010632E-1,-6.678171E-1],"split_indices":[1,1,1,0,0,0,1,0,1,0,0,1,1,0,0,0,0,0,0,0,0,0,0,0,0,0,0,0,0],"split_type":[0,0,0,0,0,0,0,0,0,0,0,0,0,0,0,0,0,0,0,0,0,0,0,0,0,0,0,0,0],"sum_hessian":[5.168E3,8.86E2,4.282E3,4.86E2,4E2,3.486E3,7.96E2,2.59E2,2.27E2,2.22E2,1.78E2,2.869E3,6.17E2,6.59E2,1.37E2,6.8E1,1.59E2,8.8E1,1.34E2,9.5E1,8.3E1,2.212E3,6.57E2,6.6E1,5.51E2,2.39E2,4.2E2,1.13E2,2.4E1],"tree_param":{"num_deleted":"0","num_feature":"2","num_nodes":"29","size_leaf_vector":"1"}},{"base_weights":[-5.275329E-3,-2.5594418E0,5.2368826E-1,-3.4954758E0,-1.4162798E0,1.298836E0,-1.17602E0,-3.8530293E0,-3.0724082E0,-2.4179532E-1,-2.8715522E0,2.0254588E0,5.698468E-1,-5.4735255E-1,-2.4335368E0,-3.9698714E-1,-3.3973917E-1,-2.6397893E-1,-3.1643647E-1,-8.2222015E-2,5.7839226E-2,-2.3351867E-1,-3.4503564E-1,1.5088855E-1,2.539284E-1,-2.9508507E-1,9.455949E-2,-1.6476928E-1,6.383666E-3,-3.7709618E-1,-1.9804859E-1],"categories":[],"categories_nodes":[],"categories_segments":[],"categories_sizes":[],"default_left":[0,0,0,0,0,0,0,0,0,0,0,0,0,0,0,0,0,0,0,0,0,0,0,0,0,0,0,0,0,0,0],"id":11,"left_children":[1,3,5,7,9,11,13,15,17,19,21,23,25,27,29,-1,-1,-1,-1,-1,-1,-1,-1,-1,-1,-1,-1,-1,-1,-1,-1],"loss_changes":[6.984974E3,9.441738E2,5.644488E3,6.183008E1,6.846929E2,1.5572236E3,1.0595995E3,3.544922E-1,7.17041E-1,1.0663632E2,4.7513428E1,3.8714453E2,1.9474467E3,6.026795E2,2.6337866E2,0E0,0E0,0E0,0E0,0E0,0E0,0E0,0E0,0E0,0E0,0E0,0E0,0E0,0E0,0E0,0E0],"parents":[2147483647,0,0,1,1,2,2,3,3,4,4,5,5,6,6,7,7,8,8,9,9,10,10,11,11,12,12,13,13,14,14],"right_children":[2,4,6,8,10,12,14,16,18,20,22,24,26,28,30,-1,-1,-1,-1,-1,-1,-1,-1,-1,-1,-1,-1,-1,-1,-1,-1],"split_conditions":[6E0,3E0,1.9E1,5E0,5E0,5E0,2.2E1,2E0,6E0,3E0,7E0,1.3E1,8E0,4E0,3E0,-3.9698714E-1,-3.3973917E-1,-2.6397893E-1,-3.1643647E-1,-8.2222015E-2,5.7839226E-2,-2.3351867E-1,-3.4503564E-1,1.5088855E-1,2.539284E-1,-2.9508507E-1,9.455949E-2,-1.6476928E-1,6.383666E-3,-3.7709618E-1,-1.9804859E-1],"split_indices":[1,1,1,0,0,0,1,1,0,0,0,1,1,0,0,0,0,0,0,0,0,0,0,0,0,0,0,0,0,0,0],"split_type":[0,0,0,0,0,0,0,0,0,0,0,0,0,0,0,0,0,0,0,0,0,0,0,0,0,0,0,0,0,0,0],"sum_hessian":[5.168E3,8.86E2,4.282E3,4.86E2,4E2,2.941E3,1.341E3,2.59E2,2.27E2,2.22E2,1.78E2,1.472E3,1.469E3,8.95E2,4.46E2,2E2,5.9E1,4.5E1,1.82E2,1.3E2,9.2E1,9.5E1,8.3E1,7.36E2,7.36E2,1.41E2,1.328E3,3.19E2,5.76E2,1.11E2,3.35E2],"tree_param":{"num_deleted":"0","num_feature":"2","num_nodes":"31","size_leaf_vector":"1"}},{"base_weights":[-5.2216137E-3,-2.3056624E0,4.711959E-1,-3.1486328E0,-1.2761555E0,9.681477E-1,-1.7036374E0,-3.47056E0,-2.767713E0,-2.1772517E-1,-2.5876293E0,1.2326136E0,-2.616019E-1,-1.3628212E0,-3.3212824E0,-3.5748595E-1,-3.063315E-1,-2.4483268E-1,-2.8881502E-1,-5.5238348E-2,9.8192655E-2,-2.1041007E-1,-3.1094283E-1,1.5142646E-1,2.8348539E-2,-3.0605426E-1,7.859852E-3,-2.521156E-1,-6.992508E-2,-2.738276E-1,-5.84694E-1],"categories":[],"categories_nodes":[],"categories_segments":[],"categories_sizes":[],"default_left":[0,0,0,0,0,0,0,0,0,0,0,0,0,0,0,0,0,0,0,0,0,0,0,0,0,0,0,0,0,0,0],"id":12,"left_children":[1,3,5,7,9,11,13,15,17,19,21,23,25,27,29,-1,-1,-1,-1,-1,-1,-1,-1,-1,-1,-1,-1,-1,-1,-1,-1],"loss_changes":[5.6661567E3,7.657588E2,4.630661E3,5.0115234E1,5.560662E2,1.1343884E3,4.34875E2,9.25293E-2,1.6990967E0,9.007097E1,3.8619873E1,7.667871E2,5.887006E2,5.0553735E2,1.8719092E2,0E0,0E0,0E0,0E0,0E0,0E0,0E0,0E0,0E0,0E0,0E0,0E0,0E0,0E0,0E0,0E0],"parents":[2147483647,0,0,1,1,2,2,3,3,4,4,5,5,6,6,7,7,8,8,9,9,10,10,11,11,12,12,13,13,14,14],"right_children":[2,4,6,8,10,12,14,16,18,20,22,24,26,28,30,-1,-1,-1,-1,-1,-1,-1,-1,-1,-1,-1,-1,-1,-1,-1,-1],"split_conditions":[6E0,3E0,2.1E1,5E0,5E0,7E0,2.3E1,2E0,1E0,4E0,7E0,1.8E1,9E0,4E0,7E0,-3.5748595E-1,-3.063315E-1,-2.4483268E-1,-2.8881502E-1,-5.5238348E-2,9.8192655E-2,-2.1041007E-1,-3.1094283E-1,1.5142646E-1,2.8348539E-2,-3.0605426E-1,7.859852E-3,-2.521156E-1,-6.992508E-2,-2.738276E-1,-5.84694E-1],"split_indices":[1,1,1,0,0,0,1,1,1,0,0,1,1,0,0,0,0,0,0,0,0,0,0,0,0,0,0,0,0,0,0],"split_type":[0,0,0,0,0,0,0,0,0,0,0,0,0,0,0,0,0,0,0,0,0,0,0,0,0,0,0,0,0,0,0],"sum_hessian":[5.168E3,8.86E2,4.282E3,4.86E2,4E2,3.486E3,7.96E2,2.59E2,2.27E2,2.22E2,1.78E2,2.869E3,6.17E2,6.59E2,1.37E2,2E2,5.9E1,6.8E1,1.59E2,1.74E2,4.8E1,9.5E1,8.3E1,2.212E3,6.57E2,6.6E1,5.51E2,2.39E2,4.2E2,1.13E2,2.4E1],"tree_param":{"num_deleted":"0","num_feature":"2","num_nodes":"31","size_leaf_vector":"1"}},{"base_weights":[-5.2749766E-3,-2.0769856E0,4.23773E-1,-2.8362286E0,-1.1497328E0,1.1551489E0,-7.887953E-1,-3.126057E-1,-2.4932823E0,-1.9575971E-1,-2.331779E0,7.1501267E-1,2.1500907E0,-2.1890655E0,-3.4614164E-1,-2.1210039E-1,-2.5732362E-1,-9.327938E-2,2.9158687E-2,-1.8958823E-1,-2.8021872E-1,1.0281604E-1,-7.55901E-2,2.5515583E-1,1.0853924E-1,-1.7942245E-1,-3.1425214E-1,1.8532623E-2,-2.184728E-1],"categories":[],"categories_nodes":[],"categories_segments":[],"categories_sizes":[],"default_left":[0,0,0,0,0,0,0,0,0,0,0,0,0,0,0,0,0,0,0,0,0,0,0,0,0,0,0,0,0],"id":13,"left_children":[1,3,5,7,9,11,13,-1,15,17,19,21,23,25,27,-1,-1,-1,-1,-1,-1,-1,-1,-1,-1,-1,-1,-1,-1],"loss_changes":[4.595414E3,6.2119604E2,3.7992607E3,4.0611572E1,4.517273E2,1.1685579E3,9.984159E2,0E0,1.3284912E0,8.037158E1,3.1391235E1,8.5475397E2,3.4730542E2,1.4005298E2,1.1983903E3,0E0,0E0,0E0,0E0,0E0,0E0,0E0,0E0,0E0,0E0,0E0,0E0,0E0,0E0],"parents":[2147483647,0,0,1,1,2,2,3,3,4,4,5,5,6,6,8,8,9,9,10,10,11,11,12,12,13,13,14,14],"right_children":[2,4,6,8,10,12,14,-1,16,18,20,22,24,26,28,-1,-1,-1,-1,-1,-1,-1,-1,-1,-1,-1,-1,-1,-1],"split_conditions":[6E0,3E0,1.8E1,5E0,5E0,1.5E1,3E0,-3.126057E-1,6E0,2E0,7E0,7E0,1.7E1,2.2E1,7E0,-2.1210039E-1,-2.5732362E-1,-9.327938E-2,2.9158687E-2,-1.8958823E-1,-2.8021872E-1,1.0281604E-1,-7.55901E-2,2.5515583E-1,1.0853924E-1,-1.7942245E-1,-3.1425214E-1,1.8532623E-2,-2.184728E-1],"split_indices":[1,1,1,0,0,1,0,0,0,0,0,0,1,1,0,0,0,0,0,0,0,0,0,0,0,0,0,0,0],"split_type":[0,0,0,0,0,0,0,0,0,0,0,0,0,0,0,0,0,0,0,0,0,0,0,0,0,0,0,0,0],"sum_hessian":[5.168E3,8.86E2,4.282E3,4.86E2,4E2,2.671E3,1.611E3,2.59E2,2.27E2,2.22E2,1.78E2,1.853E3,8.18E2,3.86E2,1.225E3,4.5E1,1.82E2,8.8E1,1.34E2,9.5E1,8.3E1,1.528E3,3.25E2,5.93E2,2.25E2,2.75E2,1.11E2,9.51E2,2.74E2],"tree_param":{"num_deleted":"0","num_feature":"2","num_nodes":"29","size_leaf_vector":"1"}},{"base_weights":[-5.0604823E-3,-1.8707703E0,3.8132516E-1,-2.5542114E0,-1.0360909E0,7.997481E-1,-1.4498194E0,-2.8146536E0,-2.246013E0,-1.7647101E-1,-2.1012256E0,1.0116622E0,-1.8567783E-1,-1.1693028E0,-3.0701783E0,-2.9081014E-1,-2.4546932E-1,-1.9685225E-1,-2.3516431E-1,-4.648834E-2,8.571746E-2,-1.7082688E-1,-2.5253046E-1,1.2251761E-1,2.9203046E-2,-2.6845944E-1,1.1796908E-2,-2.2675101E-1,-4.6859715E-2,-2.497993E-1,-5.0759E-1],"categories":[],"categories_nodes":[],"categories_segments":[],"categories_sizes":[],"default_left":[0,0,0,0,0,0,0,0,0,0,0,0,0,0,0,0,0,0,0,0,0,0,0,0,0,0,0,0,0,0,0],"id":14,"left_children":[1,3,5,7,9,11,13,15,17,19,21,23,25,27,29,-1,-1,-1,-1,-1,-1,-1,-1,-1,-1,-1,-1,-1,-1,-1,-1],"loss_changes":[3.7269604E3,5.0334644E2,3.2827637E3,3.2768555E1,3.6678918E2,7.283633E2,3.586764E2,1.6074219E0,2.053833E0,6.687839E1,2.5515442E1,4.4062158E2,4.6924783E2,5.229807E2,1.2159485E2,0E0,0E0,0E0,0E0,0E0,0E0,0E0,0E0,0E0,0E0,0E0,0E0,0E0,0E0,0E0,0E0],"parents":[2147483647,0,0,1,1,2,2,3,3,4,4,5,5,6,6,7,7,8,8,9,9,10,10,11,11,12,12,13,13,14,14],"right_children":[2,4,6,8,10,12,14,16,18,20,22,24,26,28,30,-1,-1,-1,-1,-1,-1,-1,-1,-1,-1,-1,-1,-1,-1,-1,-1],"split_conditions":[6E0,3E0,2.1E1,5E0,5E0,7E0,7E0,2E0,1E0,4E0,7E0,1.8E1,9E0,4E0,2.3E1,-2.9081014E-1,-2.4546932E-1,-1.9685225E-1,-2.3516431E-1,-4.648834E-2,8.571746E-2,-1.7082688E-1,-2.5253046E-1,1.2251761E-1,2.9203046E-2,-2.6845944E-1,1.1796908E-2,-2.2675101E-1,-4.6859715E-2,-2.497993E-1,-5.0759E-1],"split_indices":[1,1,1,0,0,0,0,1,1,0,0,1,1,0,1,0,0,0,0,0,0,0,0,0,0,0,0,0,0,0,0],"split_type":[0,0,0,0,0,0,0,0,0,0,0,0,0,0,0,0,0,0,0,0,0,0,0,0,0,0,0,0,0,0,0],"sum_hessian":[5.168E3,8.86E2,4.282E3,4.86E2,4E2,3.486E3,7.96E2,2.59E2,2.27E2,2.22E2,1.78E2,2.869E3,6.17E2,6.8E2,1.16E2,2E2,5.9E1,6.8E1,1.59E2,1.74E2,4.8E1,9.5E1,8.3E1,2.212E3,6.57E2,6.6E1,5.51E2,2.64E2,4.16E2,9.2E1,2.4E1],"tree_param":{"num_deleted":"0","num_feature":"2","num_nodes":"31","size_leaf_vector":"1"}},{"base_weights":[-5.036231E-3,-1.685218E0,3.4292695E-1,-2.3007786E0,-9.3343943E-1,7.9648024E-1,-1.0299909E0,-2.5352511E0,-2.0233066E0,-1.5864766E-1,-1.8934681E0,1.279461E0,3.1510073E-1,-7.723753E-1,-2.7530322E0,-2.618738E-1,-2.213315E-1,-1.7745233E-1,-2.1179488E-1,-7.945956E-2,2.617821E-2,-1.5392213E-1,-2.2757803E-1,1.5296893E-1,4.0218695E-3,-2.1399496E-1,6.778124E-2,-1.6384293E-1,-2.393502E-2,-2.326343E-1,-4.588614E-1],"categories":[],"categories_nodes":[],"categories_segments":[],"categories_sizes":[],"default_left":[0,0,0,0,0,0,0,0,0,0,0,0,0,0,0,0,0,0,0,0,0,0,0,0,0,0,0,0,0,0,0],"id":15,"left_children":[1,3,5,7,9,11,13,15,17,19,21,23,25,27,29,-1,-1,-1,-1,-1,-1,-1,-1,-1,-1,-1,-1,-1,-1,-1,-1],"loss_changes":[3.022589E3,4.083252E2,2.6678079E3,2.6554443E1,2.9797238E2,7.482374E2,4.7016443E2,1.1921387E0,1.6099854E0,5.9831837E1,2.0739563E1,4.9825854E2,1.4386777E3,4.2753748E2,9.741016E1,0E0,0E0,0E0,0E0,0E0,0E0,0E0,0E0,0E0,0E0,0E0,0E0,0E0,0E0,0E0,0E0],"parents":[2147483647,0,0,1,1,2,2,3,3,4,4,5,5,6,6,7,7,8,8,9,9,10,10,11,11,12,12,13,13,14,14],"right_children":[2,4,6,8,10,12,14,16,18,20,22,24,26,28,30,-1,-1,-1,-1,-1,-1,-1,-1,-1,-1,-1,-1,-1,-1,-1,-1],"split_conditions":[6E0,3E0,2E1,5E0,5E0,5E0,2.3E1,2E0,1E0,2E0,7E0,1.8E1,9E0,4E0,7E0,-2.618738E-1,-2.213315E-1,-1.7745233E-1,-2.1179488E-1,-7.945956E-2,2.617821E-2,-1.5392213E-1,-2.2757803E-1,1.5296893E-1,4.0218695E-3,-2.1399496E-1,6.778124E-2,-1.6384293E-1,-2.393502E-2,-2.326343E-1,-4.588614E-1],"split_indices":[1,1,1,0,0,0,1,1,1,0,0,1,1,0,0,0,0,0,0,0,0,0,0,0,0,0,0,0,0,0,0],"split_type":[0,0,0,0,0,0,0,0,0,0,0,0,0,0,0,0,0,0,0,0,0,0,0,0,0,0,0,0,0,0,0],"sum_hessian":[5.168E3,8.86E2,4.282E3,4.86E2,4E2,3.219E3,1.063E3,2.59E2,2.27E2,2.22E2,1.78E2,1.606E3,1.613E3,9.26E2,1.37E2,2E2,5.9E1,6.8E1,1.59E2,8.8E1,1.34E2,9.5E1,8.3E1,1.336E3,2.7E2,2.07E2,1.406E3,3.52E2,5.74E2,1.13E2,2.4E1],"tree_param":{"num_deleted":"0","num_feature":"2","num_nodes":"31","size_leaf_vector":"1"}},{"base_weights":[-4.953672E-3,-1.51817E0,3.084313E-1,-2.0724921E0,-8.411798E-1,6.525626E-1,-1.1975843E0,-2.2835844E0,-1.8226831E0,-1.4302196E-1,-1.7062526E0,8.356754E-1,-1.9887137E-1,-9.451428E-1,-2.6566873E0,-2.3581672E-1,-1.9956724E-1,-1.5125988E-1,-1.8906678E-1,-5.4137804E-2,4.196411E-2,-1.3869026E-1,-2.0509115E-1,1.0014869E-1,2.7674446E-2,-9.8467685E-2,4.3816656E-2,-1.8719003E-1,-3.539298E-2,-2.2272013E-1,-4.1481072E-1],"categories":[],"categories_nodes":[],"categories_segments":[],"categories_sizes":[],"default_left":[0,0,0,0,0,0,0,0,0,0,0,0,0,0,0,0,0,0,0,0,0,0,0,0,0,0,0,0,0,0,0],"id":16,"left_children":[1,3,5,7,9,11,13,15,17,19,21,23,25,27,29,-1,-1,-1,-1,-1,-1,-1,-1,-1,-1,-1,-1,-1,-1,-1,-1],"loss_changes":[2.4517075E3,3.3112183E2,2.2205198E3,2.1518799E1,2.4194287E2,5.438187E2,2.9105457E2,8.769531E-1,1.9465332E0,5.021046E1,1.6857544E1,2.6570654E2,3.0979474E2,3.724649E2,6.5704895E1,0E0,0E0,0E0,0E0,0E0,0E0,0E0,0E0,0E0,0E0,0E0,0E0,0E0,0E0,0E0,0E0],"parents":[2147483647,0,0,1,1,2,2,3,3,4,4,5,5,6,6,7,7,8,8,9,9,10,10,11,11,12,12,13,13,14,14],"right_children":[2,4,6,8,10,12,14,16,18,20,22,24,26,28,30,-1,-1,-1,-1,-1,-1,-1,-1,-1,-1,-1,-1,-1,-1,-1,-1],"split_conditions":[6E0,3E0,2.1E1,5E0,5E0,7E0,7E0,2E0,6E0,3E0,7E0,1.8E1,1.4E1,4E0,2.3E1,-2.3581672E-1,-1.9956724E-1,-1.5125988E-1,-1.8906678E-1,-5.4137804E-2,4.196411E-2,-1.3869026E-1,-2.0509115E-1,1.0014869E-1,2.7674446E-2,-9.8467685E-2,4.3816656E-2,-1.8719003E-1,-3.539298E-2,-2.2272013E-1,-4.1481072E-1],"split_indices":[1,1,1,0,0,0,0,1,0,0,0,1,1,0,1,0,0,0,0,0,0,0,0,0,0,0,0,0,0,0,0],"split_type":[0,0,0,0,0,0,0,0,0,0,0,0,0,0,0,0,0,0,0,0,0,0,0,0,0,0,0,0,0,0,0],"sum_hessian":[5.168E3,8.86E2,4.282E3,4.86E2,4E2,3.486E3,7.96E2,2.59E2,2.27E2,2.22E2,1.78E2,2.869E3,6.17E2,6.8E2,1.16E2,2E2,5.9E1,4.5E1,1.82E2,1.3E2,9.2E1,9.5E1,8.3E1,2.212E3,6.57E2,2.76E2,3.41E2,2.64E2,4.16E2,9.2E1,2.4E1],"tree_param":{"num_deleted":"0","num_feature":"2","num_nodes":"31","size_leaf_vector":"1"}},{"base_weights":[-4.8297304E-3,-1.3676288E0,2.7740413E-1,-1.8668358E0,-7.579495E-1,5.87327E-1,-1.0789051E0,-2.0569005E0,-1.6419075E0,-1.2877433E-1,-1.5375478E0,7.521521E-1,-1.7907317E-1,-8.10635E-1,-2.3541183E0,-2.1235238E-1,-1.7994313E-1,-1.4259183E-1,-1.7247908E-1,-3.6190256E-2,7.064545E-2,-1.2496568E-1,-1.848262E-1,9.013831E-2,2.491122E-2,-2.1123429E-1,5.5905343E-3,-1.5188639E-1,-4.0496852E-2,-2.0273781E-1,-3.7498888E-1],"categories":[],"categories_nodes":[],"categories_segments":[],"categories_sizes":[],"default_left":[0,0,0,0,0,0,0,0,0,0,0,0,0,0,0,0,0,0,0,0,0,0,0,0,0,0,0,0,0,0,0],"id":17,"left_children":[1,3,5,7,9,11,13,15,17,19,21,23,25,27,29,-1,-1,-1,-1,-1,-1,-1,-1,-1,-1,-1,-1,-1,-1,-1,-1],"loss_changes":[1.9885217E3,2.6854895E2,1.8009983E3,1.7442627E1,1.9649408E2,4.406194E2,2.7074677E2,6.386719E-1,1.6222534E0,4.3677204E1,1.3702179E1,2.1522375E2,2.8086115E2,1.8900601E2,5.533307E1,0E0,0E0,0E0,0E0,0E0,0E0,0E0,0E0,0E0,0E0,0E0,0E0,0E0,0E0,0E0,0E0],"parents":[2147483647,0,0,1,1,2,2,3,3,4,4,5,5,6,6,7,7,8,8,9,9,10,10,11,11,12,12,13,13,14,14],"right_children":[2,4,6,8,10,12,14,16,18,20,22,24,26,28,30,-1,-1,-1,-1,-1,-1,-1,-1,-1,-1,-1,-1,-1,-1,-1,-1],"split_conditions":[6E0,3E0,2.1E1,5E0,5E0,7E0,2.3E1,2E0,1E0,4E0,7E0,1.8E1,9E0,4E0,7E0,-2.1235238E-1,-1.7994313E-1,-1.4259183E-1,-1.7247908E-1,-3.6190256E-2,7.064545E-2,-1.2496568E-1,-1.848262E-1,9.013831E-2,2.491122E-2,-2.1123429E-1,5.5905343E-3,-1.5188639E-1,-4.0496852E-2,-2.0273781E-1,-3.7498888E-1],"split_indices":[1,1,1,0,0,0,1,1,1,0,0,1,1,0,0,0,0,0,0,0,0,0,0,0,0,0,0,0,0,0,0],"split_type":[0,0,0,0,0,0,0,0,0,0,0,0,0,0,0,0,0,0,0,0,0,0,0,0,0,0,0,0,0,0,0],"sum_hessian":[5.168E3,8.86E2,4.282E3,4.86E2,4E2,3.486E3,7.96E2,2.59E2,2.27E2,2.22E2,1.78E2,2.869E3,6.17E2,6.59E2,1.37E2,2E2,5.9E1,6.8E1,1.59E2,1.74E2,4.8E1,9.5E1,8.3E1,2.212E3,6.57E2,6.6E1,5.51E2,2.39E2,4.2E2,1.13E2,2.4E1],"tree_param":{"num_deleted":"0","num_feature":"2","num_nodes":"31","size_leaf_vector":"1"}},{"base_weights":[-4.7030654E-3,-1.2319739E0,2.4946316E-1,-1.6816047E0,-6.828412E-1,7.087672E-1,-5.1201934E-1,-1.8527194E0,-1.4790984E0,-1.1574253E-1,-1.3855237E0,3.354068E-1,1.553091E0,-1.5932801E0,-1.7029016E-1,-1.912228E-1,-1.6224872E-1,-1.2108412E-1,-1.5384468E-1,-6.267159E-2,2.2197874E-2,-1.1259929E-1,-1.665636E-1,7.910698E-2,-1.1233858E-2,2.1999319E-1,1.0071909E-1,-1.9830815E-1,-1.15244985E-1,2.7010605E-2,-1.6942427E-1],"categories":[],"categories_nodes":[],"categories_segments":[],"categories_sizes":[],"default_left":[0,0,0,0,0,0,0,0,0,0,0,0,0,0,0,0,0,0,0,0,0,0,0,0,0,0,0,0,0,0,0],"id":18,"left_children":[1,3,5,7,9,11,13,15,17,19,21,23,25,27,29,-1,-1,-1,-1,-1,-1,-1,-1,-1,-1,-1,-1,-1,-1,-1,-1],"loss_changes":[1.6126775E3,2.1785815E2,1.4983505E3,1.4135132E1,1.5963425E2,8.417927E2,5.9536E2,4.5965576E-1,1.7670898E0,3.862146E1,1.1137421E1,3.7834378E2,2.869817E2,6.421527E1,8.232788E2,0E0,0E0,0E0,0E0,0E0,0E0,0E0,0E0,0E0,0E0,0E0,0E0,0E0,0E0,0E0,0E0],"parents":[2147483647,0,0,1,1,2,2,3,3,4,4,5,5,6,6,7,7,8,8,9,9,10,10,11,11,12,12,13,13,14,14],"right_children":[2,4,6,8,10,12,14,16,18,20,22,24,26,28,30,-1,-1,-1,-1,-1,-1,-1,-1,-1,-1,-1,-1,-1,-1,-1,-1],"split_conditions":[6E0,3E0,1.8E1,5E0,5E0,1.5E1,3E0,2E0,6E0,2E0,7E0,5E0,1.6E1,2E0,7E0,-1.912228E-1,-1.6224872E-1,-1.2108412E-1,-1.5384468E-1,-6.267159E-2,2.2197874E-2,-1.1259929E-1,-1.665636E-1,7.910698E-2,-1.1233858E-2,2.1999319E-1,1.0071909E-1,-1.9830815E-1,-1.15244985E-1,2.7010605E-2,-1.6942427E-1],"split_indices":[1,1,1,0,0,1,0,1,0,0,0,0,1,0,0,0,0,0,0,0,0,0,0,0,0,0,0,0,0,0,0],"split_type":[0,0,0,0,0,0,0,0,0,0,0,0,0,0,0,0,0,0,0,0,0,0,0,0,0,0,0,0,0,0,0],"sum_hessian":[5.168E3,8.86E2,4.282E3,4.86E2,4E2,2.671E3,1.611E3,2.59E2,2.27E2,2.22E2,1.78E2,1.853E3,8.18E2,3.86E2,1.225E3,2E2,5.9E1,4.5E1,1.82E2,8.8E1,1.34E2,9.5E1,8.3E1,9.18E2,9.35E2,3.73E2,4.45E2,2.03E2,1.83E2,9.51E2,2.74E2],"tree_param":{"num_deleted":"0","num_feature":"2","num_nodes":"31","size_leaf_vector":"1"}},{"base_weights":[-4.429254E-3,-1.0275255E0,2.4733883E-1,-1.454785E0,-5.175545E-1,5.2536625E-1,-9.2264026E-1,-1.5147345E0,-1.0105793E0,3.162642E-1,-1.6034875E0,6.972035E-1,-9.7420225E-3,-6.803515E-1,-2.0747268E0,-1.7561239E-1,-1.3855873E-1,-6.8583414E-3,-1.5442458E-1,-1.0851921E-2,1.5484826E-1,-1.143678E-1,-2.499526E-1,3.630225E-2,1.3981733E-1,-1.5647767E-1,4.4546552E-2,-4.9595993E-2,-1.7992124E-1,-1.8037806E-1,-3.2272527E-1],"categories":[],"categories_nodes":[],"categories_segments":[],"categories_sizes":[],"default_left":[0,0,0,0,0,0,0,0,0,0,0,0,0,0,0,0,0,0,0,0,0,0,0,0,0,0,0,0,0,0,0],"id":19,"left_children":[1,3,5,7,9,11,13,15,17,19,21,23,25,27,29,-1,-1,-1,-1,-1,-1,-1,-1,-1,-1,-1,-1,-1,-1,-1,-1],"loss_changes":[1.3317008E3,2.2171265E2,1.3500974E3,1.3248779E1,4.2336224E2,3.083203E2,2.2106116E2,1.2748901E1,3.4581184E1,1.3887592E2,8.077881E1,5.940209E2,5.7831366E2,1.3527124E2,3.727234E1,0E0,0E0,0E0,0E0,0E0,0E0,0E0,0E0,0E0,0E0,0E0,0E0,0E0,0E0,0E0,0E0],"parents":[2147483647,0,0,1,1,2,2,3,3,4,4,5,5,6,6,7,7,8,8,9,9,10,10,11,11,12,12,13,13,14,14],"right_children":[2,4,6,8,10,12,14,16,18,20,22,24,26,28,30,-1,-1,-1,-1,-1,-1,-1,-1,-1,-1,-1,-1,-1,-1,-1,-1],"split_conditions":[7E0,4E0,2.1E1,3E0,5E0,1.8E1,2.3E1,3E0,2E0,5E0,6E0,1.5E1,3E0,7E0,7E0,-1.7561239E-1,-1.3855873E-1,-6.8583414E-3,-1.5442458E-1,-1.0851921E-2,1.5484826E-1,-1.143678E-1,-2.499526E-1,3.630225E-2,1.3981733E-1,-1.5647767E-1,4.4546552E-2,-4.9595993E-2,-1.7992124E-1,-1.8037806E-1,-3.2272527E-1],"split_indices":[1,1,1,1,0,1,1,0,0,1,1,1,0,0,0,0,0,0,0,0,0,0,0,0,0,0,0,0,0,0,0],"split_type":[0,0,0,0,0,0,0,0,0,0,0,0,0,0,0,0,0,0,0,0,0,0,0,0,0,0,0,0,0,0,0],"sum_hessian":[5.168E3,1.02E3,4.148E3,5.54E2,4.66E2,3.352E3,7.96E2,4.86E2,6.8E1,2.64E2,2.02E2,2.537E3,8.15E2,6.59E2,1.37E2,1.65E2,3.21E2,2.5E1,4.3E1,1.97E2,6.7E1,1.35E2,6.7E1,1.719E3,8.18E2,1.84E2,6.31E2,5.67E2,9.2E1,1.13E2,2.4E1],"tree_param":{"num_deleted":"0","num_feature":"2","num_nodes":"31","size_leaf_vector":"1"}},{"base_weights":[-4.250462E-3,-9.254545E-1,2.2244358E-1,-1.3101631E0,-4.6627086E-1,4.728485E-1,-8.312956E-1,-1.3639061E0,-9.11859E-1,2.8518116E-1,-1.4449334E0,6.078263E-1,-1.4874879E-1,-6.126643E-1,-1.8708998E0,-1.5815695E-1,-1.2474588E-1,-6.1989273E-3,-1.3933305E-1,-9.772215E-3,1.3959117E-1,-1.030151E-1,-2.2532494E-1,1.7529665E-2,7.238436E-2,2.02776E-2,-1.1227971E-1,-1.21009566E-1,-2.7063057E-2,-1.6249849E-1,-2.917436E-1],"categories":[],"categories_nodes":[],"categories_segments":[],"categories_sizes":[],"default_left":[0,0,0,0,0,0,0,0,0,0,0,0,0,0,0,0,0,0,0,0,0,0,0,0,0,0,0,0,0,0,0],"id":20,"left_children":[1,3,5,7,9,11,13,15,17,19,21,23,25,27,29,-1,-1,-1,-1,-1,-1,-1,-1,-1,-1,-1,-1,-1,-1,-1,-1],"loss_changes":[1.0796556E3,1.7975073E2,1.0951543E3,1.0636597E1,3.438523E2,2.8141327E2,1.8000397E2,1.0370728E1,2.814761E1,1.1284154E2,6.5739685E1,1.3812158E2,2.0532655E2,1.34538E2,3.077472E1,0E0,0E0,0E0,0E0,0E0,0E0,0E0,0E0,0E0,0E0,0E0,0E0,0E0,0E0,0E0,0E0],"parents":[2147483647,0,0,1,1,2,2,3,3,4,4,5,5,6,6,7,7,8,8,9,9,10,10,11,11,12,12,13,13,14,14],"right_children":[2,4,6,8,10,12,14,16,18,20,22,24,26,28,30,-1,-1,-1,-1,-1,-1,-1,-1,-1,-1,-1,-1,-1,-1,-1,-1],"split_conditions":[7E0,4E0,2.1E1,3E0,5E0,7E0,2.3E1,3E0,2E0,5E0,6E0,2E0,1.8E1,4E0,7E0,-1.5815695E-1,-1.2474588E-1,-6.1989273E-3,-1.3933305E-1,-9.772215E-3,1.3959117E-1,-1.030151E-1,-2.2532494E-1,1.7529665E-2,7.238436E-2,2.02776E-2,-1.1227971E-1,-1.21009566E-1,-2.7063057E-2,-1.6249849E-1,-2.917436E-1],"split_indices":[1,1,1,1,0,0,1,0,0,1,1,0,1,0,0,0,0,0,0,0,0,0,0,0,0,0,0,0,0,0,0],"split_type":[0,0,0,0,0,0,0,0,0,0,0,0,0,0,0,0,0,0,0,0,0,0,0,0,0,0,0,0,0,0,0],"sum_hessian":[5.168E3,1.02E3,4.148E3,5.54E2,4.66E2,3.352E3,7.96E2,4.86E2,6.8E1,2.64E2,2.02E2,2.754E3,5.98E2,6.59E2,1.37E2,1.65E2,3.21E2,2.5E1,4.3E1,1.97E2,6.7E1,1.35E2,6.7E1,5.83E2,2.171E3,4.4E2,1.58E2,2.39E2,4.2E2,1.13E2,2.4E1],"tree_param":{"num_deleted":"0","num_feature":"2","num_nodes":"31","size_leaf_vector":"1"}},{"base_weights":[-4.063475E-3,-8.3352315E-1,2.0005375E-1,-1.1799188E0,-4.2006898E-1,5.7486373E-1,-3.9018676E-1,-1.2280965E0,-8.2278216E-1,2.5715292E-1,-1.3020577E0,2.7393845E-1,1.2061416E0,-1.2817029E0,-1.0845192E-1,-1.3617972E-1,-1.07024446E-1,-5.602881E-3,-1.2571642E-1,-8.799931E-3,1.2583733E-1,-9.278935E-2,-2.0312384E-1,4.394837E-2,-4.8943266E-2,2.0475696E-1,8.133248E-2,-1.6089866E-1,-9.118791E-2,2.5424445E-2,-1.3636464E-1],"categories":[],"categories_nodes":[],"categories_segments":[],"categories_sizes":[],"default_left":[0,0,0,0,0,0,0,0,0,0,0,0,0,0,0,0,0,0,0,0,0,0,0,0,0,0,0,0,0,0,0],"id":21,"left_children":[1,3,5,7,9,11,13,15,17,19,21,23,25,27,29,-1,-1,-1,-1,-1,-1,-1,-1,-1,-1,-1,-1,-1,-1,-1,-1],"loss_changes":[8.753147E2,1.4573071E2,9.1809937E2,8.538879E0,2.7927493E2,4.81807E2,4.0474887E2,8.820618E0,2.2910965E1,9.16877E1,5.3500427E1,2.1757573E2,2.6903625E2,4.5374207E1,5.5848865E2,0E0,0E0,0E0,0E0,0E0,0E0,0E0,0E0,0E0,0E0,0E0,0E0,0E0,0E0,0E0,0E0],"parents":[2147483647,0,0,1,1,2,2,3,3,4,4,5,5,6,6,7,7,8,8,9,9,10,10,11,11,12,12,13,13,14,14],"right_children":[2,4,6,8,10,12,14,16,18,20,22,24,26,28,30,-1,-1,-1,-1,-1,-1,-1,-1,-1,-1,-1,-1,-1,-1,-1,-1],"split_conditions":[7E0,4E0,1.8E1,3E0,5E0,1.5E1,3E0,5E0,2E0,5E0,6E0,7E0,3E0,2E0,7E0,-1.3617972E-1,-1.07024446E-1,-5.602881E-3,-1.2571642E-1,-8.799931E-3,1.2583733E-1,-9.278935E-2,-2.0312384E-1,4.394837E-2,-4.8943266E-2,2.0475696E-1,8.133248E-2,-1.6089866E-1,-9.118791E-2,2.5424445E-2,-1.3636464E-1],"split_indices":[1,1,1,1,0,1,0,0,0,1,1,0,0,0,0,0,0,0,0,0,0,0,0,0,0,0,0,0,0,0,0],"split_type":[0,0,0,0,0,0,0,0,0,0,0,0,0,0,0,0,0,0,0,0,0,0,0,0,0,0,0,0,0,0,0],"sum_hessian":[5.168E3,1.02E3,4.148E3,5.54E2,4.66E2,2.537E3,1.611E3,4.86E2,6.8E1,2.64E2,2.02E2,1.719E3,8.18E2,3.86E2,1.225E3,2.59E2,2.27E2,2.5E1,4.3E1,1.97E2,6.7E1,1.35E2,6.7E1,1.413E3,3.06E2,2.59E2,5.59E2,2.03E2,1.83E2,9.51E2,2.74E2],"tree_param":{"num_deleted":"0","num_feature":"2","num_nodes":"31","size_leaf_vector":"1"}},{"base_weights":[-3.780345E-3,-7.5071293E-1,1.8002827E-1,-1.0626017E0,-3.784453E-1,4.3623593E-1,-5.6323946E-1,-1.1057861E0,-7.424072E-1,2.31879E-1,-1.1733098E0,-1.4613415E-1,5.926E-1,-4.0078175E-1,-1.65045E0,-1.289006E-1,-1.007897E-1,-5.0641424E-3,-1.134305E-1,-7.924419E-3,1.1343866E-1,-8.357867E-2,-1.8311016E-1,5.0497334E-2,-1.0176312E-1,8.226236E-2,9.850219E-3,-9.649294E-2,-5.374715E-3,-1.4482526E-1,-2.5064522E-1],"categories":[],"categories_nodes":[],"categories_segments":[],"categories_sizes":[],"default_left":[0,0,0,0,0,0,0,0,0,0,0,0,0,0,0,0,0,0,0,0,0,0,0,0,0,0,0,0,0,0,0],"id":22,"left_children":[1,3,5,7,9,11,13,15,17,19,21,23,25,27,29,-1,-1,-1,-1,-1,-1,-1,-1,-1,-1,-1,-1,-1,-1,-1,-1],"loss_changes":[7.0980084E2,1.1814221E2,7.903434E2,6.8532715E0,2.2682547E2,2.811032E2,1.8726834E2,7.4352417E0,1.8648556E1,7.449951E1,4.3539642E1,3.7161847E2,2.7643945E2,1.8143504E2,2.0255249E1,0E0,0E0,0E0,0E0,0E0,0E0,0E0,0E0,0E0,0E0,0E0,0E0,0E0,0E0,0E0,0E0],"parents":[2147483647,0,0,1,1,2,2,3,3,4,4,5,5,6,6,7,7,8,8,9,9,10,10,11,11,12,12,13,13,14,14],"right_children":[2,4,6,8,10,12,14,16,18,20,22,24,26,28,30,-1,-1,-1,-1,-1,-1,-1,-1,-1,-1,-1,-1,-1,-1,-1,-1],"split_conditions":[7E0,4E0,2E1,3E0,5E0,1E1,2.3E1,3E0,2E0,5E0,6E0,5E0,1.7E1,4E0,7E0,-1.289006E-1,-1.007897E-1,-5.0641424E-3,-1.134305E-1,-7.924419E-3,1.1343866E-1,-8.357867E-2,-1.8311016E-1,5.0497334E-2,-1.0176312E-1,8.226236E-2,9.850219E-3,-9.649294E-2,-5.374715E-3,-1.4482526E-1,-2.5064522E-1],"split_indices":[1,1,1,1,0,1,1,0,0,1,1,0,1,0,0,0,0,0,0,0,0,0,0,0,0,0,0,0,0,0,0],"split_type":[0,0,0,0,0,0,0,0,0,0,0,0,0,0,0,0,0,0,0,0,0,0,0,0,0,0,0,0,0,0,0],"sum_hessian":[5.168E3,1.02E3,4.148E3,5.54E2,4.66E2,3.085E3,1.063E3,4.86E2,6.8E1,2.64E2,2.02E2,6.53E2,2.432E3,9.26E2,1.37E2,1.65E2,3.21E2,2.5E1,4.3E1,1.97E2,6.7E1,1.35E2,6.7E1,3.74E2,2.79E2,1.659E3,7.73E2,3.52E2,5.74E2,1.13E2,2.4E1],"tree_param":{"num_deleted":"0","num_feature":"2","num_nodes":"31","size_leaf_vector":"1"}},{"base_weights":[-3.5890462E-3,-6.7614067E-1,1.6191562E-1,-9.5696896E-1,-3.409462E-1,3.552297E-1,-6.5156513E-1,-1.0464141E0,-8.1911147E-1,2.0908877E-1,-1.0572926E0,-1.315991E-1,4.730189E-1,-4.8077455E-1,-1.6400849E0,-8.031642E-2,-1.1982335E-1,-6.309943E-2,-9.2825435E-2,-7.1360134E-3,1.0226152E-1,-7.528227E-2,-1.6506842E-1,4.5461092E-2,-9.162318E-2,7.404111E-2,4.617546E-3,-1.03274725E-1,-1.2884761E-2,-1.4542377E-1,-2.2658329E-1],"categories":[],"categories_nodes":[],"categories_segments":[],"categories_sizes":[],"default_left":[0,0,0,0,0,0,0,0,0,0,0,0,0,0,0,0,0,0,0,0,0,0,0,0,0,0,0,0,0,0,0],"id":23,"left_children":[1,3,5,7,9,11,13,15,17,19,21,23,25,27,29,-1,-1,-1,-1,-1,-1,-1,-1,-1,-1,-1,-1,-1,-1,-1,-1],"loss_changes":[5.754731E2,9.578259E1,6.52692E2,5.986389E0,1.8422632E2,1.9233392E2,1.3376889E2,1.1335327E1,3.9928436E0,6.0533405E1,3.5433334E1,3.012301E2,3.0812915E2,1.3215393E2,1.0311279E1,0E0,0E0,0E0,0E0,0E0,0E0,0E0,0E0,0E0,0E0,0E0,0E0,0E0,0E0,0E0,0E0],"parents":[2147483647,0,0,1,1,2,2,3,3,4,4,5,5,6,6,7,7,8,8,9,9,10,10,11,11,12,12,13,13,14,14],"right_children":[2,4,6,8,10,12,14,16,18,20,22,24,26,28,30,-1,-1,-1,-1,-1,-1,-1,-1,-1,-1,-1,-1,-1,-1,-1,-1],"split_conditions":[7E0,4E0,2.1E1,2E0,5E0,1E1,7E0,1E0,2E0,5E0,6E0,5E0,1.7E1,4E0,2.3E1,-8.031642E-2,-1.1982335E-1,-6.309943E-2,-9.2825435E-2,-7.1360134E-3,1.0226152E-1,-7.528227E-2,-1.6506842E-1,4.5461092E-2,-9.162318E-2,7.404111E-2,4.617546E-3,-1.03274725E-1,-1.2884761E-2,-1.4542377E-1,-2.2658329E-1],"split_indices":[1,1,1,1,0,1,0,1,0,1,1,0,1,0,1,0,0,0,0,0,0,0,0,0,0,0,0,0,0,0,0],"split_type":[0,0,0,0,0,0,0,0,0,0,0,0,0,0,0,0,0,0,0,0,0,0,0,0,0,0,0,0,0,0,0],"sum_hessian":[5.168E3,1.02E3,4.148E3,5.54E2,4.66E2,3.352E3,7.96E2,3.32E2,2.22E2,2.64E2,2.02E2,6.53E2,2.699E3,6.8E2,1.16E2,1.3E2,2.02E2,8.4E1,1.38E2,1.97E2,6.7E1,1.35E2,6.7E1,3.74E2,2.79E2,1.659E3,1.04E3,2.64E2,4.16E2,9.2E1,2.4E1],"tree_param":{"num_deleted":"0","num_feature":"2","num_nodes":"31","size_leaf_vector":"1"}},{"base_weights":[-3.4153617E-3,-6.0901743E-1,1.4561407E-1,-8.987865E-1,-3.44108E-1,2.704705E-1,-8.890368E-1,-1.076697E0,-8.042774E-1,1.736219E-1,-9.5304114E-1,4.4476533E-1,-1.9547053E-2,-6.4894134E-1,-1.4219393E0,-1.215048E-1,-8.120262E-2,-6.0125437E-2,-8.56263E-2,-5.5318507E-3,9.218585E-2,-7.44476E-2,-1.4880429E-1,1.6017286E-2,1.2680891E-1,-1.3666996E-1,1.7291937E-2,-1.1371537E-1,-1.5955225E-3,-2.0494233E-1,-1.264979E-1],"categories":[],"categories_nodes":[],"categories_segments":[],"categories_sizes":[],"default_left":[0,0,0,0,0,0,0,0,0,0,0,0,0,0,0,0,0,0,0,0,0,0,0,0,0,0,0,0,0,0,0],"id":24,"left_children":[1,3,5,7,9,11,13,15,17,19,21,23,25,27,29,-1,-1,-1,-1,-1,-1,-1,-1,-1,-1,-1,-1,-1,-1,-1,-1],"loss_changes":[4.66604E2,7.806534E1,5.3621985E2,7.32251E0,1.6883112E2,1.8719003E2,5.6269775E1,5.0918427E0,2.8836365E0,4.9728455E1,2.6341537E1,5.417599E2,3.6089706E2,9.578168E1,1.09991455E1,0E0,0E0,0E0,0E0,0E0,0E0,0E0,0E0,0E0,0E0,0E0,0E0,0E0,0E0,0E0,0E0],"parents":[2147483647,0,0,1,1,2,2,3,3,4,4,5,5,6,6,7,7,8,8,9,9,10,10,11,11,12,12,13,13,14,14],"right_children":[2,4,6,8,10,12,14,16,18,20,22,24,26,28,30,-1,-1,-1,-1,-1,-1,-1,-1,-1,-1,-1,-1,-1,-1,-1,-1],"split_conditions":[7E0,3E0,2.2E1,3E0,5E0,1.7E1,2.3E1,2E0,1E0,5E0,6E0,1.5E1,2E0,5E0,2E0,-1.215048E-1,-8.120262E-2,-6.0125437E-2,-8.56263E-2,-5.5318507E-3,9.218585E-2,-7.44476E-2,-1.4880429E-1,1.6017286E-2,1.2680891E-1,-1.3666996E-1,1.7291937E-2,-1.1371537E-1,-1.5955225E-3,-2.0494233E-1,-1.264979E-1],"split_indices":[1,1,1,0,0,1,1,1,1,1,1,1,0,0,0,0,0,0,0,0,0,0,0,0,0,0,0,0,0,0,0],"split_type":[0,0,0,0,0,0,0,0,0,0,0,0,0,0,0,0,0,0,0,0,0,0,0,0,0,0,0,0,0,0,0],"sum_hessian":[5.168E3,1.02E3,4.148E3,4.86E2,5.34E2,3.702E3,4.46E2,1.65E2,3.21E2,2.89E2,2.45E2,2.312E3,1.39E3,3.09E2,1.37E2,1.06E2,5.9E1,6.8E1,2.53E2,2.22E2,6.7E1,1.78E2,6.7E1,1.719E3,5.93E2,1.73E2,1.217E3,1.74E2,1.35E2,2.5E1,1.12E2],"tree_param":{"num_deleted":"0","num_feature":"2","num_nodes":"31","size_leaf_vector":"1"}},{"base_weights":[-3.249669E-3,-5.485907E-1,1.3095048E-1,-7.7765775E-1,-2.7518424E-1,3.2200673E-1,-4.2330754E-1,-8.5079116E-1,-6.6496235E-1,1.6934463E-1,-8.5412496E-1,5.784878E-1,6.647805E-2,-2.5308824E-1,-1.3905742E0,-6.347447E-2,-9.860192E-2,-5.106458E-2,-7.5454466E-2,-5.8755493E-3,8.3102815E-2,-6.041938E-2,-1.3414268E-1,4.3680742E-3,8.849057E-2,-2.4177837E-1,1.9292284E-2,-8.194252E-2,1.5206954E-2,-1.2809588E-1,-1.926875E-1],"categories":[],"categories_nodes":[],"categories_segments":[],"categories_sizes":[],"default_left":[0,0,0,0,0,0,0,0,0,0,0,0,0,0,0,0,0,0,0,0,0,0,0,0,0,0,0,0,0,0,0],"id":25,"left_children":[1,3,5,7,9,11,13,15,17,19,21,23,25,27,29,-1,-1,-1,-1,-1,-1,-1,-1,-1,-1,-1,-1,-1,-1,-1,-1],"loss_changes":[3.783643E2,6.3729614E1,4.3949243E2,4.008423E0,1.20329834E2,2.0221268E2,1.7483296E2,9.102936E0,2.6974564E0,4.0045303E1,2.3913269E1,2.52328E2,4.8641306E2,2.0801158E2,6.8788757E0,0E0,0E0,0E0,0E0,0E0,0E0,0E0,0E0,0E0,0E0,0E0,0E0,0E0,0E0,0E0,0E0],"parents":[2147483647,0,0,1,1,2,2,3,3,4,4,5,5,6,6,7,7,8,8,9,9,10,10,11,11,12,12,13,13,14,14],"right_children":[2,4,6,8,10,12,14,16,18,20,22,24,26,28,30,-1,-1,-1,-1,-1,-1,-1,-1,-1,-1,-1,-1,-1,-1,-1,-1],"split_conditions":[7E0,4E0,2E1,2E0,5E0,5E0,7E0,1E0,2E0,5E0,6E0,2E0,8E0,4E0,2.3E1,-6.347447E-2,-9.860192E-2,-5.106458E-2,-7.5454466E-2,-5.8755493E-3,8.3102815E-2,-6.041938E-2,-1.3414268E-1,4.3680742E-3,8.849057E-2,-2.4177837E-1,1.9292284E-2,-8.194252E-2,1.5206954E-2,-1.2809588E-1,-1.926875E-1],"split_indices":[1,1,1,1,0,0,0,1,0,1,1,0,1,0,1,0,0,0,0,0,0,0,0,0,0,0,0,0,0,0,0],"split_type":[0,0,0,0,0,0,0,0,0,0,0,0,0,0,0,0,0,0,0,0,0,0,0,0,0,0,0,0,0,0,0],"sum_hessian":[5.168E3,1.02E3,4.148E3,5.54E2,4.66E2,3.085E3,1.063E3,3.32E2,2.22E2,2.64E2,2.02E2,1.539E3,1.546E3,9.05E2,1.58E2,1.3E2,2.02E2,8.4E1,1.38E2,1.97E2,6.7E1,1.35E2,6.7E1,5.61E2,9.78E2,7.4E1,1.472E3,3.77E2,5.28E2,1.34E2,2.4E1],"tree_param":{"num_deleted":"0","num_feature":"2","num_nodes":"31","size_leaf_vector":"1"}},{"base_weights":[-3.1035573E-3,-3.584356E-1,1.6704202E-1,-5.230109E-2,-7.3370653E-1,5.745313E-1,-2.0127548E-1,-8.3285064E-1,2.5341454E-1,-8.7805307E-1,-9.6434034E-2,2.7913085E-1,1.1041908E0,-1.2037504E0,-5.1311262E-2,-9.022563E-2,-7.0280656E-2,-4.6973832E-2,7.563924E-2,-6.1084628E-2,-1.3953988E-1,2.1342058E-2,-6.249076E-2,1.6024779E-1,1.2225406E-2,2.061007E-1,6.7314856E-2,-1.4929427E-1,-8.680763E-2,1.697805E-2,-9.459782E-2],"categories":[],"categories_nodes":[],"categories_segments":[],"categories_sizes":[],"default_left":[0,0,0,0,0,0,0,0,0,0,0,0,0,0,0,0,0,0,0,0,0,0,0,0,0,0,0,0,0,0,0],"id":26,"left_children":[1,3,5,7,9,11,13,15,17,19,21,23,25,27,29,-1,-1,-1,-1,-1,-1,-1,-1,-1,-1,-1,-1,-1,-1,-1,-1],"loss_changes":[3.125682E2,1.9227638E2,5.2481433E2,2.2046303E2,6.909036E1,2.594181E2,2.7610434E2,1.7126007E0,2.4187193E2,8.3887726E1,2.3058365E1,2.2131592E2,2.4359503E2,2.1904755E1,3.1644833E2,0E0,0E0,0E0,0E0,0E0,0E0,0E0,0E0,0E0,0E0,0E0,0E0,0E0,0E0,0E0,0E0],"parents":[2147483647,0,0,1,1,2,2,3,3,4,4,5,5,6,6,7,7,8,8,9,9,10,10,11,11,12,12,13,13,14,14],"right_children":[2,4,6,8,10,12,14,16,18,20,22,24,26,28,30,-1,-1,-1,-1,-1,-1,-1,-1,-1,-1,-1,-1,-1,-1,-1,-1],"split_conditions":[1E1,5E0,1.7E1,3E0,9E0,1.5E1,2E0,3E0,2E0,6E0,7E0,1.1E1,3E0,2.1E1,7E0,-9.022563E-2,-7.0280656E-2,-4.6973832E-2,7.563924E-2,-6.1084628E-2,-1.3953988E-1,2.1342058E-2,-6.249076E-2,1.6024779E-1,1.2225406E-2,2.061007E-1,6.7314856E-2,-1.4929427E-1,-8.680763E-2,1.697805E-2,-9.459782E-2],"split_indices":[1,0,1,1,1,1,0,0,0,1,0,1,0,1,0,0,0,0,0,0,0,0,0,0,0,0,0,0,0,0,0],"split_type":[0,0,0,0,0,0,0,0,0,0,0,0,0,0,0,0,0,0,0,0,0,0,0,0,0,0,0,0,0,0,0],"sum_hessian":[5.168E3,1.673E3,3.495E3,9.22E2,7.51E2,1.659E3,1.836E3,2.59E2,6.63E2,6.12E2,1.39E2,1.066E3,5.93E2,2.38E2,1.598E3,1.65E2,9.4E1,2.72E2,3.91E2,4.05E2,2.07E2,8.8E1,5.1E1,1.12E2,9.54E2,1.83E2,4.1E2,1.26E2,1.12E2,1.282E3,3.16E2],"tree_param":{"num_deleted":"0","num_feature":"2","num_nodes":"31","size_leaf_vector":"1"}},{"base_weights":[-2.8399448E-3,6.707943E-2,-7.416014E-1,-3.2281518E-1,2.8105205E-1,-5.25293E-1,-1.2221377E0,-4.7213797E-2,-6.606573E-1,5.1734656E-1,-1.1406102E-3,-9.629748E-1,4.1762978E-2,-1.6901036E-1,-1.1036488E0,-7.501829E-2,2.2811629E-2,-7.905751E-2,-8.70842E-3,2.513788E-2,9.942326E-2,-1.0693741E-1,1.5146511E-2,-7.10953E-2,-1.03238165E-1,7.1781404E-2,-1.21261835E-1,-3.2097641E-3,-1.3478932E-1],"categories":[],"categories_nodes":[],"categories_segments":[],"categories_sizes":[],"default_left":[0,0,0,0,0,0,0,0,0,0,0,0,0,0,0,0,0,0,0,0,0,0,0,0,0,0,0,0,0],"id":27,"left_children":[1,3,5,7,9,11,13,15,17,19,21,23,25,-1,27,-1,-1,-1,-1,-1,-1,-1,-1,-1,-1,-1,-1,-1,-1],"loss_changes":[2.6704794E2,3.9411533E2,4.5821014E1,1.558345E2,2.0337636E2,7.697913E1,5.7866516E0,1.7881644E2,5.596817E1,2.1029837E2,2.2692075E2,2.3271332E0,1.1620195E2,0E0,2.9531128E1,0E0,0E0,0E0,0E0,0E0,0E0,0E0,0E0,0E0,0E0,0E0,0E0,0E0,0E0],"parents":[2147483647,0,0,1,1,2,2,3,3,4,4,5,5,6,6,7,7,8,8,9,9,10,10,11,11,12,12,14,14],"right_children":[2,4,6,8,10,12,14,16,18,20,22,24,26,-1,28,-1,-1,-1,-1,-1,-1,-1,-1,-1,-1,-1,-1,-1,-1],"split_conditions":[2.2E1,1E1,2.3E1,5E0,1.7E1,5E0,2E0,3E0,9E0,1.5E1,2E0,2E0,7E0,-1.6901036E-1,5E0,-7.501829E-2,2.2811629E-2,-7.905751E-2,-8.70842E-3,2.513788E-2,9.942326E-2,-1.0693741E-1,1.5146511E-2,-7.10953E-2,-1.03238165E-1,7.1781404E-2,-1.21261835E-1,-3.2097641E-3,-1.3478932E-1],"split_indices":[1,1,1,0,1,0,0,1,1,1,0,0,0,0,0,0,0,0,0,0,0,0,0,0,0,0,0,0,0],"split_type":[0,0,0,0,0,0,0,0,0,0,0,0,0,0,0,0,0,0,0,0,0,0,0,0,0,0,0,0,0],"sum_hessian":[5.168E3,4.722E3,4.46E2,1.673E3,3.049E3,3.09E2,1.37E2,9.22E2,7.51E2,1.659E3,1.39E3,1.74E2,1.35E2,2.5E1,1.12E2,2.59E2,6.63E2,6.12E2,1.39E2,1.066E3,5.93E2,1.73E2,1.217E3,4E1,1.34E2,8.8E1,4.7E1,2.1E1,9.1E1],"tree_param":{"num_deleted":"0","num_feature":"2","num_nodes":"29","size_leaf_vector":"1"}},{"base_weights":[-2.679033E-3,6.0349163E-2,-6.6862863E-1,-2.906173E-1,2.5295818E-1,-4.7348556E-1,-1.1021484E0,-4.2549178E-2,-5.947081E-1,4.6568784E-1,-1.0922985E-3,-8.676735E-1,3.7223108E-2,-1.5275936E-1,-9.945049E-1,-6.754532E-2,2.0533876E-2,-7.116463E-2,-7.843778E-3,2.262654E-2,8.949775E-2,-9.6305124E-2,1.3633131E-2,-6.415918E-2,-9.2990816E-2,1.2922145E-1,-5.5693652E-2,-2.9033488E-3,-1.2145688E-1],"categories":[],"categories_nodes":[],"categories_segments":[],"categories_sizes":[],"default_left":[0,0,0,0,0,0,0,0,0,0,0,0,0,0,0,0,0,0,0,0,0,0,0,0,0,0,0,0,0],"id":28,"left_children":[1,3,5,7,9,11,13,15,17,19,21,23,25,-1,27,-1,-1,-1,-1,-1,-1,-1,-1,-1,-1,-1,-1,-1,-1],"loss_changes":[2.170019E2,3.19345E2,3.7293625E1,1.2625325E2,1.6483493E2,6.2440002E1,4.800705E0,1.4494748E2,4.534375E1,1.7041495E2,1.8401573E2,1.8656616E0,1.0213014E2,0E0,2.3973305E1,0E0,0E0,0E0,0E0,0E0,0E0,0E0,0E0,0E0,0E0,0E0,0E0,0E0,0E0],"parents":[2147483647,0,0,1,1,2,2,3,3,4,4,5,5,6,6,7,7,8,8,9,9,10,10,11,11,12,12,14,14],"right_children":[2,4,6,8,10,12,14,16,18,20,22,24,26,-1,28,-1,-1,-1,-1,-1,-1,-1,-1,-1,-1,-1,-1,-1,-1],"split_conditions":[2.2E1,1E1,2.3E1,5E0,1.7E1,5E0,2E0,3E0,9E0,1.5E1,2E0,2E0,6E0,-1.5275936E-1,5E0,-6.754532E-2,2.0533876E-2,-7.116463E-2,-7.843778E-3,2.262654E-2,8.949775E-2,-9.6305124E-2,1.3633131E-2,-6.415918E-2,-9.2990816E-2,1.2922145E-1,-5.5693652E-2,-2.9033488E-3,-1.2145688E-1],"split_indices":[1,1,1,0,1,0,0,1,1,1,0,0,0,0,0,0,0,0,0,0,0,0,0,0,0,0,0,0,0],"split_type":[0,0,0,0,0,0,0,0,0,0,0,0,0,0,0,0,0,0,0,0,0,0,0,0,0,0,0,0,0],"sum_hessian":[5.168E3,4.722E3,4.46E2,1.673E3,3.049E3,3.09E2,1.37E2,9.22E2,7.51E2,1.659E3,1.39E3,1.74E2,1.35E2,2.5E1,1.12E2,2.59E2,6.63E2,6.12E2,1.39E2,1.066E3,5.93E2,1.73E2,1.217E3,4E1,1.34E2,4.3E1,9.2E1,2.1E1,9.1E1],"tree_param":{"num_deleted":"0","num_feature":"2","num_nodes":"29","size_leaf_vector":"1"}},{"base_weights":[-2.4997904E-3,5.4293595E-2,-6.0257286E-1,-2.6163092E-1,2.2767174E-1,-4.264068E-1,-9.9394166E-1,-3.8345374E-2,-5.353423E-1,1.3963071E0,1.8264674E-1,-7.8180414E-1,3.4041252E-2,-8.9506E-1,-1.4050843E-1,-4.9401935E-2,2.9452205E-2,-6.7136995E-2,-1.7154388E-2,1.7994826E-1,4.5470768E-3,3.270122E-2,-3.7029576E-3,-5.7899743E-2,-8.376061E-2,6.12566E-2,-1.0393492E-1,-1.3807096E-1,-7.43128E-2],"categories":[],"categories_nodes":[],"categories_segments":[],"categories_sizes":[],"default_left":[0,0,0,0,0,0,0,0,0,0,0,0,0,0,0,0,0,0,0,0,0,0,0,0,0,0,0,0,0],"id":29,"left_children":[1,3,5,7,9,11,13,15,17,19,21,23,25,27,-1,-1,-1,-1,-1,-1,-1,-1,-1,-1,-1,-1,-1,-1,-1],"loss_changes":[1.7619316E2,2.587591E2,3.0395004E1,1.0228731E2,1.602293E2,5.075563E1,4.3526764E0,1.4014525E2,3.709877E1,6.146071E1,9.318687E1,1.4955139E0,8.509035E1,7.3855286E0,0E0,0E0,0E0,0E0,0E0,0E0,0E0,0E0,0E0,0E0,0E0,0E0,0E0,0E0,0E0],"parents":[2147483647,0,0,1,1,2,2,3,3,4,4,5,5,6,6,7,7,8,8,9,9,10,10,11,11,12,12,13,13],"right_children":[2,4,6,8,10,12,14,16,18,20,22,24,26,28,-1,-1,-1,-1,-1,-1,-1,-1,-1,-1,-1,-1,-1,-1,-1],"split_conditions":[2.2E1,1E1,2.3E1,5E0,1.1E1,5E0,7E0,2E0,8E0,7E0,1.8E1,2E0,7E0,2E0,-1.4050843E-1,-4.9401935E-2,2.9452205E-2,-6.7136995E-2,-1.7154388E-2,1.7994826E-1,4.5470768E-3,3.270122E-2,-3.7029576E-3,-5.7899743E-2,-8.376061E-2,6.12566E-2,-1.0393492E-1,-1.3807096E-1,-7.43128E-2],"split_indices":[1,1,1,0,1,0,0,0,1,0,1,0,0,0,0,0,0,0,0,0,0,0,0,0,0,0,0,0,0],"split_type":[0,0,0,0,0,0,0,0,0,0,0,0,0,0,0,0,0,0,0,0,0,0,0,0,0,0,0,0,0],"sum_hessian":[5.168E3,4.722E3,4.46E2,1.673E3,3.049E3,3.09E2,1.37E2,9.22E2,7.51E2,1.12E2,2.937E3,1.74E2,1.35E2,1.13E2,2.4E1,3.89E2,5.33E2,5.46E2,2.05E2,8.6E1,2.6E1,1.772E3,1.165E3,4E1,1.34E2,8.8E1,4.7E1,2.5E1,8.8E1],"tree_param":{"num_deleted":"0","num_feature":"2","num_nodes":"29","size_leaf_vector":"1"}},{"base_weights":[-2.3326606E-3,4.88873E-2,-5.4351735E-1,-2.3552999E-1,2.049744E-1,-3.843608E-1,-8.971044E-1,-3.4532174E-2,-4.819202E-1,1.2583086E0,1.6439179E-1,-7.044333E-1,3.0323397E-2,-8.0741674E-1,-1.270196E-1,-3.198053E-2,4.270131E-2,-5.789518E-2,-5.3618294E-3,1.6216022E-1,4.109206E-3,2.9432913E-2,-3.332977E-3,-5.225099E-2,-7.544661E-2,1.10606514E-1,-4.7895577E-2,-1.2479489E-1,-6.6964984E-2],"categories":[],"categories_nodes":[],"categories_segments":[],"categories_sizes":[],"default_left":[0,0,0,0,0,0,0,0,0,0,0,0,0,0,0,0,0,0,0,0,0,0,0,0,0,0,0,0,0],"id":30,"left_children":[1,3,5,7,9,11,13,15,17,19,21,23,25,27,-1,-1,-1,-1,-1,-1,-1,-1,-1,-1,-1,-1,-1,-1,-1],"loss_changes":[1.4330847E2,2.0972052E2,2.481041E1,8.288635E1,1.301717E2,4.1167355E1,3.5921402E0,1.21664696E2,3.1221191E1,4.990274E1,7.549117E1,1.1986542E0,7.503774E1,6.0830536E0,0E0,0E0,0E0,0E0,0E0,0E0,0E0,0E0,0E0,0E0,0E0,0E0,0E0,0E0,0E0],"parents":[2147483647,0,0,1,1,2,2,3,3,4,4,5,5,6,6,7,7,8,8,9,9,10,10,11,11,12,12,13,13],"right_children":[2,4,6,8,10,12,14,16,18,20,22,24,26,28,-1,-1,-1,-1,-1,-1,-1,-1,-1,-1,-1,-1,-1,-1,-1],"split_conditions":[2.2E1,1E1,2.3E1,5E0,1.1E1,5E0,7E0,3E0,9E0,7E0,1.8E1,2E0,6E0,2E0,-1.270196E-1,-3.198053E-2,4.270131E-2,-5.789518E-2,-5.3618294E-3,1.6216022E-1,4.109206E-3,2.9432913E-2,-3.332977E-3,-5.225099E-2,-7.544661E-2,1.10606514E-1,-4.7895577E-2,-1.2479489E-1,-6.6964984E-2],"split_indices":[1,1,1,0,1,0,0,0,1,0,1,0,0,0,0,0,0,0,0,0,0,0,0,0,0,0,0,0,0],"split_type":[0,0,0,0,0,0,0,0,0,0,0,0,0,0,0,0,0,0,0,0,0,0,0,0,0,0,0,0,0],"sum_hessian":[5.168E3,4.722E3,4.46E2,1.673E3,3.049E3,3.09E2,1.37E2,9.22E2,7.51E2,1.12E2,2.937E3,1.74E2,1.35E2,1.13E2,2.4E1,5.7E2,3.52E2,6.12E2,1.39E2,8.6E1,2.6E1,1.772E3,1.165E3,4E1,1.34E2,4.3E1,9.2E1,2.5E1,8.8E1],"tree_param":{"num_deleted":"0","num_feature":"2","num_nodes":"29","size_leaf_vector":"1"}},{"base_weights":[-2.1464315E-3,7.348818E-2,-3.3596608E-1,-5.375425E-1,1.2861522E-1,-1.109706E-1,-8.9191496E-1,-3.479812E-1,-6.2104726E-1,1.8468976E-1,-3.9250425E-1,-5.639393E-1,1.115602E0,-1.7594679E-1,-7.2353464E-1,-2.7298117E-2,-6.022322E-2,-6.993995E-2,-3.7302803E-2,-5.0690263E-3,2.5062857E-2,-6.2449615E-2,-6.133295E-3,-3.4748018E-2,-2.6833314E-1,1.4801754E-1,-1.1428221E-2,-1.3008686E-2,-9.951799E-2],"categories":[],"categories_nodes":[],"categories_segments":[],"categories_sizes":[],"default_left":[0,0,0,0,0,0,0,0,0,0,0,0,0,0,0,0,0,0,0,0,0,0,0,0,0,0,0,0,0],"id":31,"left_children":[1,3,5,7,9,11,13,15,17,19,21,23,25,-1,27,-1,-1,-1,-1,-1,-1,-1,-1,-1,-1,-1,-1,-1,-1],"loss_changes":[1.3053325E2,1.4204851E2,1.1935815E2,5.308296E0,1.1307216E2,3.78992E2,3.889865E1,1.9141045E0,4.4224167E0,5.421089E1,2.8849426E1,2.275309E2,8.267163E1,0E0,3.7270645E1,0E0,0E0,0E0,0E0,0E0,0E0,0E0,0E0,0E0,0E0,0E0,0E0,0E0,0E0],"parents":[2147483647,0,0,1,1,2,2,3,3,4,4,5,5,6,6,7,7,8,8,9,9,10,10,11,11,12,12,14,14],"right_children":[2,4,6,8,10,12,14,16,18,20,22,24,26,-1,28,-1,-1,-1,-1,-1,-1,-1,-1,-1,-1,-1,-1,-1,-1],"split_conditions":[7E0,3E0,1.8E1,1E0,2.2E1,1.4E1,1.9E1,6E0,2E0,2E0,5E0,1.3E1,1.7E1,-1.7594679E-1,2E1,-2.7298117E-2,-6.022322E-2,-6.993995E-2,-3.7302803E-2,-5.0690263E-3,2.5062857E-2,-6.2449615E-2,-6.133295E-3,-3.4748018E-2,-2.6833314E-1,1.4801754E-1,-1.1428221E-2,-1.3008686E-2,-9.951799E-2],"split_indices":[0,1,1,1,1,1,1,0,1,0,0,1,1,0,1,0,0,0,0,0,0,0,0,0,0,0,0,0,0],"split_type":[0,0,0,0,0,0,0,0,0,0,0,0,0,0,0,0,0,0,0,0,0,0,0,0,0,0,0,0,0],"sum_hessian":[5.168E3,4.214E3,9.54E2,3.48E2,3.866E3,6.8E2,2.74E2,1.08E2,2.4E2,3.491E3,3.75E2,4.97E2,1.83E2,4.3E1,2.31E2,8.5E1,2.3E1,1.81E2,5.9E1,7.64E2,2.727E3,2.2E2,1.55E2,4.52E2,4.5E1,1.41E2,4.2E1,7.3E1,1.58E2],"tree_param":{"num_deleted":"0","num_feature":"2","num_nodes":"29","size_leaf_vector":"1"}},{"base_weights":[-2.0666807E-3,6.6081874E-2,-3.0284584E-1,-4.8434636E-1,1.15741394E-1,-1.00118E-1,-8.0377245E-1,-3.1398606E-1,-5.5938756E-1,1.6622682E-1,-3.534363E-1,-5.0815386E-1,1.0047841E0,-1.5875196E-1,-6.5166616E-1,-2.4600046E-2,-5.445184E-2,-6.2984385E-2,-3.3634704E-2,-1.9488467E-3,2.3940865E-2,-5.623291E-2,-5.5239163E-3,-3.1280883E-2,-2.4208312E-1,1.3332E-1,-1.03119165E-2,-1.1725364E-2,-8.96288E-2],"categories":[],"categories_nodes":[],"categories_segments":[],"categories_sizes":[],"default_left":[0,0,0,0,0,0,0,0,0,0,0,0,0,0,0,0,0,0,0,0,0,0,0,0,0,0,0,0,0],"id":32,"left_children":[1,3,5,7,9,11,13,15,17,19,21,23,25,-1,27,-1,-1,-1,-1,-1,-1,-1,-1,-1,-1,-1,-1,-1,-1],"loss_changes":[1.0597244E2,1.1526888E2,9.690147E1,4.285988E0,9.165496E1,3.0753238E2,3.1749008E1,1.5743923E0,3.5753784E0,4.746438E1,2.3390446E1,1.8531152E2,6.7086426E1,0E0,3.0224022E1,0E0,0E0,0E0,0E0,0E0,0E0,0E0,0E0,0E0,0E0,0E0,0E0,0E0,0E0],"parents":[2147483647,0,0,1,1,2,2,3,3,4,4,5,5,6,6,7,7,8,8,9,9,10,10,11,11,12,12,14,14],"right_children":[2,4,6,8,10,12,14,16,18,20,22,24,26,-1,28,-1,-1,-1,-1,-1,-1,-1,-1,-1,-1,-1,-1,-1,-1],"split_conditions":[7E0,3E0,1.8E1,1E0,2.2E1,1.4E1,1.9E1,6E0,2E0,1E1,5E0,1.3E1,1.7E1,-1.5875196E-1,2E1,-2.4600046E-2,-5.445184E-2,-6.2984385E-2,-3.3634704E-2,-1.9488467E-3,2.3940865E-2,-5.623291E-2,-5.5239163E-3,-3.1280883E-2,-2.4208312E-1,1.3332E-1,-1.03119165E-2,-1.1725364E-2,-8.96288E-2],"split_indices":[0,1,1,1,1,1,1,0,1,1,0,1,1,0,1,0,0,0,0,0,0,0,0,0,0,0,0,0,0],"split_type":[0,0,0,0,0,0,0,0,0,0,0,0,0,0,0,0,0,0,0,0,0,0,0,0,0,0,0,0,0],"sum_hessian":[5.168E3,4.214E3,9.54E2,3.48E2,3.866E3,6.8E2,2.74E2,1.08E2,2.4E2,3.491E3,3.75E2,4.97E2,1.83E2,4.3E1,2.31E2,8.5E1,2.3E1,1.81E2,5.9E1,9.87E2,2.504E3,2.2E2,1.55E2,4.52E2,4.5E1,1.41E2,4.2E1,7.3E1,1.58E2],"tree_param":{"num_deleted":"0","num_feature":"2","num_nodes":"29","size_leaf_vector":"1"}},{"base_weights":[-1.9811317E-3,5.9422553E-2,-2.7299112E-1,-4.3641505E-1,1.0415695E-1,-9.0327114E-2,-7.24341E-1,-4.9813974E-1,-2.5325018E-1,1.6973202E-1,-2.0287961E-1,-4.5788753E-1,9.049741E-1,-1.432376E-1,-5.869363E-1,-5.5383068E-2,-3.032729E-2,3.4411058E-3,-5.4167617E-2,-1.7541184E-3,2.5375757E-2,-7.286247E-3,-5.5107225E-2,-2.8159708E-2,-2.1840112E-1,1.20081894E-1,-9.304783E-3,-1.056866E-2,-8.072227E-2],"categories":[],"categories_nodes":[],"categories_segments":[],"categories_sizes":[],"default_left":[0,0,0,0,0,0,0,0,0,0,0,0,0,0,0,0,0,0,0,0,0,0,0,0,0,0,0,0,0],"id":33,"left_children":[1,3,5,7,9,11,13,15,17,19,21,23,25,-1,27,-1,-1,-1,-1,-1,-1,-1,-1,-1,-1,-1,-1,-1,-1],"loss_changes":[8.603362E1,9.3538345E1,7.866991E1,3.8195724E0,7.7892395E1,2.4954688E2,2.59133E1,2.6536407E0,7.4858465E0,5.015422E1,3.0789404E1,1.5092596E2,5.44395E1,0E0,2.4509644E1,0E0,0E0,0E0,0E0,0E0,0E0,0E0,0E0,0E0,0E0,0E0,0E0,0E0,0E0],"parents":[2147483647,0,0,1,1,2,2,3,3,4,4,5,5,6,6,7,7,8,8,9,9,10,10,11,11,12,12,14,14],"right_children":[2,4,6,8,10,12,14,16,18,20,22,24,26,-1,28,-1,-1,-1,-1,-1,-1,-1,-1,-1,-1,-1,-1,-1,-1],"split_conditions":[7E0,3E0,1.8E1,5E0,2.1E1,1.4E1,1.9E1,2E0,6E0,1E1,6E0,1.3E1,1.7E1,-1.432376E-1,2E1,-5.5383068E-2,-3.032729E-2,3.4411058E-3,-5.4167617E-2,-1.7541184E-3,2.5375757E-2,-7.286247E-3,-5.5107225E-2,-2.8159708E-2,-2.1840112E-1,1.20081894E-1,-9.304783E-3,-1.056866E-2,-8.072227E-2],"split_indices":[0,1,1,0,1,1,1,1,0,1,0,1,1,0,1,0,0,0,0,0,0,0,0,0,0,0,0,0,0],"split_type":[0,0,0,0,0,0,0,0,0,0,0,0,0,0,0,0,0,0,0,0,0,0,0,0,0,0,0,0,0],"sum_hessian":[5.168E3,4.214E3,9.54E2,3.48E2,3.866E3,6.8E2,2.74E2,2.59E2,8.9E1,3.186E3,6.8E2,4.97E2,1.83E2,4.3E1,2.31E2,2E2,5.9E1,4.5E1,4.4E1,9.87E2,2.199E3,4.96E2,1.84E2,4.52E2,4.5E1,1.41E2,4.2E1,7.3E1,1.58E2],"tree_param":{"num_deleted":"0","num_feature":"2","num_nodes":"29","size_leaf_vector":"1"}},{"base_weights":[-1.8883348E-3,-1.705878E-1,7.889106E-2,4.3035853E-3,-3.850215E-1,2.8044996E-1,-1.03290014E-1,-2.5205386E-1,4.189659E-1,-1.7718112E-1,-5.957301E-1,8.807383E-2,6.2554234E-1,-8.314025E-1,5.6044017E-3,1.0978973E-2,-1.3774224E-1,-1.0119491E-2,9.989127E-2,-7.957102E-3,-2.4629295E-2,-1.18388794E-1,-1.1317556E-2,1.0990136E-1,-3.163745E-3,1.5544693E-1,2.0815033E-2,-1.1991628E-1,-4.107214E-2,2.5806159E-2,-3.3422153E-2],"categories":[],"categories_nodes":[],"categories_segments":[],"categories_sizes":[],"default_left":[0,0,0,0,0,0,0,0,0,0,0,0,0,0,0,0,0,0,0,0,0,0,0,0,0,0,0,0,0,0,0],"id":34,"left_children":[1,3,5,7,9,11,13,15,17,19,21,23,25,27,29,-1,-1,-1,-1,-1,-1,-1,-1,-1,-1,-1,-1,-1,-1,-1,-1],"loss_changes":[7.0453705E1,6.278102E1,1.2840283E2,9.8222145E1,3.2827354E1,1.10148224E2,1.456556E2,2.3266664E2,1.06589035E2,2.5438871E0,1.0573024E2,1.2916405E2,2.2998615E2,3.6483124E1,1.3726686E2,0E0,0E0,0E0,0E0,0E0,0E0,0E0,0E0,0E0,0E0,0E0,0E0,0E0,0E0,0E0,0E0],"parents":[2147483647,0,0,1,1,2,2,3,3,4,4,5,5,6,6,7,7,8,8,9,9,10,10,11,11,12,12,13,13,14,14],"right_children":[2,4,6,8,10,12,14,16,18,20,22,24,26,28,30,-1,-1,-1,-1,-1,-1,-1,-1,-1,-1,-1,-1,-1,-1,-1,-1],"split_conditions":[1E1,5E0,1.7E1,3E0,5E0,1.5E1,2E0,8E0,5E0,7E0,8E0,1.1E1,3E0,2.1E1,6E0,1.0978973E-2,-1.3774224E-1,-1.0119491E-2,9.989127E-2,-7.957102E-3,-2.4629295E-2,-1.18388794E-1,-1.1317556E-2,1.0990136E-1,-3.163745E-3,1.5544693E-1,2.0815033E-2,-1.1991628E-1,-4.107214E-2,2.5806159E-2,-3.3422153E-2],"split_indices":[1,0,1,0,1,1,0,1,1,0,1,1,0,1,0,0,0,0,0,0,0,0,0,0,0,0,0,0,0,0,0],"split_type":[0,0,0,0,0,0,0,0,0,0,0,0,0,0,0,0,0,0,0,0,0,0,0,0,0,0,0,0,0,0,0],"sum_hessian":[5.168E3,1.673E3,3.495E3,9.22E2,7.51E2,1.659E3,1.836E3,5.7E2,3.52E2,3.79E2,3.72E2,1.066E3,5.93E2,2.38E2,1.598E3,4.32E2,1.38E2,1.86E2,1.66E2,1.58E2,2.21E2,1.67E2,2.05E2,1.12E2,9.54E2,1.83E2,4.1E2,1.26E2,1.12E2,9.17E2,6.81E2],"tree_param":{"num_deleted":"0","num_feature":"2","num_nodes":"31","size_leaf_vector":"1"}},{"base_weights":[-1.7158071E-3,1.6861541E-2,-6.7910355E-1,-1.53648E-1,1.018321E-1,-4.3953848E-1,-7.9410845E-1,3.8332532E-3,-3.4673515E-1,9.9008477E-1,7.088834E-2,-9.6733734E-2,2.0420283E-2,-1.4773755E-1,-5.712073E-1,-2.9826937E-2,3.332668E-2,-1.595489E-2,-5.3650476E-2,1.279143E-1,2.200501E-3,1.5142563E-2,-1.3083542E-2,-4.0698465E-2,-8.570976E-2],"categories":[],"categories_nodes":[],"categories_segments":[],"categories_sizes":[],"default_left":[0,0,0,0,0,0,0,0,0,0,0,0,0,0,0,0,0,0,0,0,0,0,0,0,0],"id":35,"left_children":[1,3,5,7,9,11,13,15,17,19,21,-1,-1,-1,23,-1,-1,-1,-1,-1,-1,-1,-1,-1,-1],"loss_changes":[6.5058495E1,7.292072E1,3.4530258E0,5.090367E1,9.225487E1,1.616653E1,1.3167809E1,9.1958885E1,2.6627129E1,3.1592812E1,5.2771496E1,0E0,0E0,0E0,2.9846E0,0E0,0E0,0E0,0E0,0E0,0E0,0E0,0E0,0E0,0E0],"parents":[2147483647,0,0,1,1,2,2,3,3,4,4,5,5,6,6,7,7,8,8,9,9,10,10,14,14],"right_children":[2,4,6,8,10,12,14,16,18,20,22,-1,-1,-1,24,-1,-1,-1,-1,-1,-1,-1,-1,-1,-1],"split_conditions":[2.3E1,1E1,5E0,5E0,1.1E1,2E0,6E0,5E0,5E0,7E0,2E1,-9.6733734E-2,2.0420283E-2,-1.4773755E-1,7E0,-2.9826937E-2,3.332668E-2,-1.595489E-2,-5.3650476E-2,1.279143E-1,2.200501E-3,1.5142563E-2,-1.3083542E-2,-4.0698465E-2,-8.570976E-2],"split_indices":[1,1,0,0,1,0,0,1,1,0,1,0,0,0,0,0,0,0,0,0,0,0,0,0,0],"split_type":[0,0,0,0,0,0,0,0,0,0,0,0,0,0,0,0,0,0,0,0,0,0,0,0,0],"sum_hessian":[5.168E3,5.031E3,1.37E2,1.673E3,3.358E3,4.6E1,9.1E1,9.22E2,7.51E2,1.12E2,3.246E3,2.5E1,2.1E1,2.1E1,7E1,4.81E2,4.41E2,3.79E2,3.72E2,8.6E1,2.6E1,2.32E3,9.26E2,4.6E1,2.4E1],"tree_param":{"num_deleted":"0","num_feature":"2","num_nodes":"25","size_leaf_vector":"1"}},{"base_weights":[-1.5992314E-3,4.787062E-2,-2.1993832E-1,-3.6739653E-1,8.5336454E-2,-6.129749E-2,-6.119909E-1,-2.2029456E-1,-4.3240365E-1,1.23747185E-1,-2.7161998E-1,-3.7869668E-1,7.980834E-1,-1.274529E-1,-4.836993E-1,-3.7671722E-2,-1.2776314E-2,-5.900636E-2,-3.1045413E-2,-7.6018795E-3,1.7972125E-2,-4.8581358E-2,3.3562146E-3,-2.1504505E-2,-1.9820769E-1,1.05415404E-1,-6.610525E-3,-7.72278E-3,-6.698326E-2],"categories":[],"categories_nodes":[],"categories_segments":[],"categories_sizes":[],"default_left":[0,0,0,0,0,0,0,0,0,0,0,0,0,0,0,0,0,0,0,0,0,0,0,0,0,0,0,0,0],"id":36,"left_children":[1,3,5,7,9,11,13,15,17,19,21,23,25,-1,27,-1,-1,-1,-1,-1,-1,-1,-1,-1,-1,-1,-1,-1,-1],"loss_changes":[5.584195E1,6.56097E1,5.9359238E1,3.2421227E0,5.3053883E1,1.8605641E2,2.275798E1,1.5295367E0,4.450409E0,3.90602E1,2.459469E1,1.3024686E2,4.0787674E1,0E0,1.75009E1,0E0,0E0,0E0,0E0,0E0,0E0,0E0,0E0,0E0,0E0,0E0,0E0,0E0,0E0],"parents":[2147483647,0,0,1,1,2,2,3,3,4,4,5,5,6,6,7,7,8,8,9,9,10,10,11,11,12,12,14,14],"right_children":[2,4,6,8,10,12,14,16,18,20,22,24,26,-1,28,-1,-1,-1,-1,-1,-1,-1,-1,-1,-1,-1,-1,-1,-1],"split_conditions":[7E0,3E0,1.8E1,1E0,2.2E1,1.4E1,1.9E1,2E0,3E0,2E0,5E0,1.3E1,1.7E1,-1.274529E-1,2E1,-3.7671722E-2,-1.2776314E-2,-5.900636E-2,-3.1045413E-2,-7.6018795E-3,1.7972125E-2,-4.8581358E-2,3.3562146E-3,-2.1504505E-2,-1.9820769E-1,1.05415404E-1,-6.610525E-3,-7.72278E-3,-6.698326E-2],"split_indices":[0,1,1,1,1,1,1,0,0,0,0,1,1,0,1,0,0,0,0,0,0,0,0,0,0,0,0,0,0],"split_type":[0,0,0,0,0,0,0,0,0,0,0,0,0,0,0,0,0,0,0,0,0,0,0,0,0,0,0,0,0],"sum_hessian":[5.168E3,4.214E3,9.54E2,3.48E2,3.866E3,6.8E2,2.74E2,1.08E2,2.4E2,3.491E3,3.75E2,4.97E2,1.83E2,4.3E1,2.31E2,3.9E1,6.9E1,1.03E2,1.37E2,7.64E2,2.727E3,2.2E2,1.55E2,4.52E2,4.5E1,1.41E2,4.2E1,7.3E1,1.58E2],"tree_param":{"num_deleted":"0","num_feature":"2","num_nodes":"29","size_leaf_vector":"1"}},{"base_weights":[-1.5358878E-3,1.4534706E-2,-5.8751917E-1,-1.3284624E-1,8.797953E-2,-3.4966058E-1,-7.026478E-1,9.736904E-3,-3.076752E-1,8.834971E-1,6.0267344E-2,-8.2761124E-2,2.3108378E-2,-1.3395569E-1,-4.9539927E-1,-3.261659E-2,2.5504095E-2,-1.2933311E-2,-4.8853934E-2,1.13493256E-1,4.0594316E-3,1.5817108E-2,-5.745712E-3,-3.7043706E-2,-7.105123E-2],"categories":[],"categories_nodes":[],"categories_segments":[],"categories_sizes":[],"default_left":[0,0,0,0,0,0,0,0,0,0,0,0,0,0,0,0,0,0,0,0,0,0,0,0,0],"id":37,"left_children":[1,3,5,7,9,11,13,15,17,19,21,-1,-1,-1,23,-1,-1,-1,-1,-1,-1,-1,-1,-1,-1],"loss_changes":[4.868553E1,5.4479904E1,3.533348E0,4.1731907E1,7.3997696E1,1.3236902E1,1.1480244E1,7.6136826E1,2.4193092E1,2.3902641E1,3.7432922E1,0E0,0E0,0E0,1.6453514E0,0E0,0E0,0E0,0E0,0E0,0E0,0E0,0E0,0E0,0E0],"parents":[2147483647,0,0,1,1,2,2,3,3,4,4,5,5,6,6,7,7,8,8,9,9,10,10,14,14],"right_children":[2,4,6,8,10,12,14,16,18,20,22,-1,-1,-1,24,-1,-1,-1,-1,-1,-1,-1,-1,-1,-1],"split_conditions":[2.3E1,1E1,5E0,5E0,1.1E1,2E0,6E0,2E0,5E0,7E0,1.8E1,-8.2761124E-2,2.3108378E-2,-1.3395569E-1,7E0,-3.261659E-2,2.5504095E-2,-1.2933311E-2,-4.8853934E-2,1.13493256E-1,4.0594316E-3,1.5817108E-2,-5.745712E-3,-3.7043706E-2,-7.105123E-2],"split_indices":[1,1,0,0,1,0,0,0,1,0,1,0,0,0,0,0,0,0,0,0,0,0,0,0,0],"split_type":[0,0,0,0,0,0,0,0,0,0,0,0,0,0,0,0,0,0,0,0,0,0,0,0,0],"sum_hessian":[5.168E3,5.031E3,1.37E2,1.673E3,3.358E3,4.6E1,9.1E1,9.22E2,7.51E2,1.12E2,3.246E3,2.5E1,2.1E1,2.1E1,7E1,3.89E2,5.33E2,3.79E2,3.72E2,8.6E1,2.6E1,1.772E3,1.474E3,4.6E1,2.4E1],"tree_param":{"num_deleted":"0","num_feature":"2","num_nodes":"25","size_leaf_vector":"1"}},{"base_weights":[-1.4294472E-3,4.16036E-2,-1.9135915E-1,-3.272038E-1,7.487802E-2,-5.0249267E-2,-5.4010266E-1,-1.8698129E-1,-3.8926625E-1,9.237275E-2,-5.0187737E-1,-3.2848707E-1,7.030805E-1,-1.1443575E-1,-4.231746E-1,-1.2734964E-2,-3.9287053E-2,-4.6112027E-2,-1.6482128E-2,-1.4664613E-3,1.9003889E-2,-3.159638E-2,-6.229959E-2,-1.7796608E-2,-1.8036507E-1,9.3377486E-2,-7.5097904E-3,-6.394113E-3,-5.8770355E-2],"categories":[],"categories_nodes":[],"categories_segments":[],"categories_sizes":[],"default_left":[0,0,0,0,0,0,0,0,0,0,0,0,0,0,0,0,0,0,0,0,0,0,0,0,0,0,0,0,0],"id":38,"left_children":[1,3,5,7,9,11,13,15,17,19,21,23,25,-1,27,-1,-1,-1,-1,-1,-1,-1,-1,-1,-1,-1,-1,-1,-1],"loss_changes":[4.2255512E1,5.175036E1,4.6969517E1,2.964405E0,3.9065098E1,1.4297183E2,1.8945686E1,1.2882171E0,3.8106728E0,3.924682E1,2.370161E0,1.1025647E2,3.310206E1,0E0,1.3674618E1,0E0,0E0,0E0,0E0,0E0,0E0,0E0,0E0,0E0,0E0,0E0,0E0,0E0,0E0],"parents":[2147483647,0,0,1,1,2,2,3,3,4,4,5,5,6,6,7,7,8,8,9,9,10,10,11,11,12,12,14,14],"right_children":[2,4,6,8,10,12,14,16,18,20,22,24,26,-1,28,-1,-1,-1,-1,-1,-1,-1,-1,-1,-1,-1,-1,-1,-1],"split_conditions":[7E0,3E0,1.8E1,1E0,2.3E1,1.4E1,1.9E1,6E0,2E0,4E0,5E0,1.3E1,1.7E1,-1.1443575E-1,2E1,-1.2734964E-2,-3.9287053E-2,-4.6112027E-2,-1.6482128E-2,-1.4664613E-3,1.9003889E-2,-3.159638E-2,-6.229959E-2,-1.7796608E-2,-1.8036507E-1,9.3377486E-2,-7.5097904E-3,-6.394113E-3,-5.8770355E-2],"split_indices":[0,1,1,1,1,1,1,0,1,0,0,1,1,0,1,0,0,0,0,0,0,0,0,0,0,0,0,0,0],"split_type":[0,0,0,0,0,0,0,0,0,0,0,0,0,0,0,0,0,0,0,0,0,0,0,0,0,0,0,0,0],"sum_hessian":[5.168E3,4.214E3,9.54E2,3.48E2,3.866E3,6.8E2,2.74E2,1.08E2,2.4E2,3.753E3,1.13E2,4.97E2,1.83E2,4.3E1,2.31E2,8.5E1,2.3E1,1.81E2,5.9E1,1.791E3,1.962E3,4.6E1,6.7E1,4.52E2,4.5E1,1.41E2,4.2E1,7.3E1,1.58E2],"tree_param":{"num_deleted":"0","num_feature":"2","num_nodes":"29","size_leaf_vector":"1"}},{"base_weights":[-1.3800358E-3,3.3868816E-2,-1.947826E-1,-5.9877552E-2,1.9104823E-1,-2.6107071E-2,-4.7264624E-1,3.3134785E-2,-1.5693751E-1,7.208838E-1,3.37528E-2,-2.732627E-1,8.066462E-1,-7.197248E-1,-2.590477E-1,-7.2710873E-3,7.374347E-2,-6.153984E-2,7.487691E-4,1.835082E-1,6.1585414E-3,-4.1100543E-2,2.8968263E-2,-7.039641E-3,-4.2256955E-2,1.261361E-1,-1.1522223E-1,-8.015201E-2,-5.3693157E-2,-6.3858675E-3,-5.04858E-2],"categories":[],"categories_nodes":[],"categories_segments":[],"categories_sizes":[],"default_left":[0,0,0,0,0,0,0,0,0,0,0,0,0,0,0,0,0,0,0,0,0,0,0,0,0,0,0,0,0,0,0],"id":39,"left_children":[1,3,5,7,9,11,13,15,17,19,21,23,25,27,29,-1,-1,-1,-1,-1,-1,-1,-1,-1,-1,-1,-1,-1,-1,-1,-1],"loss_changes":[3.5244797E1,6.444759E1,3.7342087E1,2.4741299E1,1.361544E2,1.0251281E2,1.5699028E1,1.0441954E2,1.0109256E2,2.746233E2,1.4365475E2,1.1601355E1,1.02996155E2,1.6479111E0,7.788414E0,0E0,0E0,0E0,0E0,0E0,0E0,0E0,0E0,0E0,0E0,0E0,0E0,0E0,0E0,0E0,0E0],"parents":[2147483647,0,0,1,1,2,2,3,3,4,4,5,5,6,6,7,7,8,8,9,9,10,10,11,11,12,12,13,13,14,14],"right_children":[2,4,6,8,10,12,14,16,18,20,22,24,26,28,30,-1,-1,-1,-1,-1,-1,-1,-1,-1,-1,-1,-1,-1,-1,-1,-1],"split_conditions":[2.1E1,1.5E1,6E0,5E0,1.6E1,5E0,2.2E1,1.3E1,6E0,3E0,4E0,2.2E1,2.3E1,7E0,7E0,-7.2710873E-3,7.374347E-2,-6.153984E-2,7.487691E-4,1.835082E-1,6.1585414E-3,-4.1100543E-2,2.8968263E-2,-7.039641E-3,-4.2256955E-2,1.261361E-1,-1.1522223E-1,-8.015201E-2,-5.3693157E-2,-6.3858675E-3,-5.04858E-2],"split_indices":[1,1,0,0,1,0,1,1,0,0,0,1,1,0,0,0,0,0,0,0,0,0,0,0,0,0,0,0,0,0,0],"split_type":[0,0,0,0,0,0,0,0,0,0,0,0,0,0,0,0,0,0,0,0,0,0,0,0,0,0,0,0,0,0,0],"sum_hessian":[5.168E3,4.372E3,7.96E2,2.739E3,1.633E3,4.96E2,3E2,1.399E3,1.34E3,3.73E2,1.26E3,3.83E2,1.13E2,1.38E2,1.62E2,1.217E3,1.82E2,3.53E2,9.87E2,1.38E2,2.35E2,4.6E2,8E2,1.63E2,2.2E2,9.2E1,2.1E1,9.3E1,4.5E1,9.1E1,7.1E1],"tree_param":{"num_deleted":"0","num_feature":"2","num_nodes":"31","size_leaf_vector":"1"}},{"base_weights":[-1.2509807E-3,3.7971083E-2,-1.7436066E-1,-2.8157532E-1,6.6800594E-2,-5.0048735E-2,-4.8156816E-1,-3.4162825E-1,-1.0496048E-1,1.0769268E-1,-1.2466766E-1,-2.9678357E-1,6.180165E-1,-1.0608317E-1,-3.696321E-1,-3.9967913E-2,-1.4146395E-2,1.7694762E-2,-3.9080076E-2,1.9398997E-2,-3.1233798E-3,-3.3970904E-2,1.2288311E-3,-1.6095586E-2,-1.6279395E-1,8.298982E-2,-9.605843E-3,-8.620943E-3,-4.992148E-2],"categories":[],"categories_nodes":[],"categories_segments":[],"categories_sizes":[],"default_left":[0,0,0,0,0,0,0,0,0,0,0,0,0,0,0,0,0,0,0,0,0,0,0,0,0,0,0,0,0],"id":40,"left_children":[1,3,5,7,9,11,13,15,17,19,21,23,25,-1,27,-1,-1,-1,-1,-1,-1,-1,-1,-1,-1,-1,-1,-1,-1],"loss_changes":[3.5102673E1,3.8848938E1,3.644692E1,3.665718E0,3.0290243E1,1.1243602E2,1.743901E1,2.9645844E0,7.3214126E0,3.8214935E1,2.0060444E1,8.978028E1,2.7918808E1,0E0,8.477549E0,0E0,0E0,0E0,0E0,0E0,0E0,0E0,0E0,0E0,0E0,0E0,0E0,0E0,0E0],"parents":[2147483647,0,0,1,1,2,2,3,3,4,4,5,5,6,6,7,7,8,8,9,9,10,10,11,11,12,12,14,14],"right_children":[2,4,6,8,10,12,14,16,18,20,22,24,26,-1,28,-1,-1,-1,-1,-1,-1,-1,-1,-1,-1,-1,-1,-1,-1],"split_conditions":[7E0,3E0,1.8E1,5E0,2.1E1,1.4E1,1.9E1,2E0,6E0,5E0,4E0,1.3E1,1.7E1,-1.0608317E-1,2E1,-3.9967913E-2,-1.4146395E-2,1.7694762E-2,-3.9080076E-2,1.9398997E-2,-3.1233798E-3,-3.3970904E-2,1.2288311E-3,-1.6095586E-2,-1.6279395E-1,8.298982E-2,-9.605843E-3,-8.620943E-3,-4.992148E-2],"split_indices":[0,1,1,0,1,1,1,1,0,0,0,1,1,0,1,0,0,0,0,0,0,0,0,0,0,0,0,0,0],"split_type":[0,0,0,0,0,0,0,0,0,0,0,0,0,0,0,0,0,0,0,0,0,0,0,0,0,0,0,0,0],"sum_hessian":[5.168E3,4.214E3,9.54E2,3.48E2,3.866E3,6.8E2,2.74E2,2.59E2,8.9E1,3.186E3,6.8E2,4.97E2,1.83E2,4.3E1,2.31E2,2E2,5.9E1,4.5E1,4.4E1,1.965E3,1.221E3,2.64E2,4.16E2,4.52E2,4.5E1,1.41E2,4.2E1,7.3E1,1.58E2],"tree_param":{"num_deleted":"0","num_feature":"2","num_nodes":"29","size_leaf_vector":"1"}},{"base_weights":[-1.1960104E-3,3.415209E-2,-1.5720758E-1,-6.3611865E-2,1.2475134E-1,-4.5198914E-2,-4.340101E-1,1.1778634E-1,-5.4288393E-1,5.277236E-1,-2.0927554E-2,-2.6746434E-1,5.566129E-1,-9.571597E-2,-3.3292133E-1,-8.457045E-3,5.2599054E-2,-7.553986E-2,-3.0586636E-2,-2.635783E-3,8.9877926E-2,-1.8352732E-2,3.8899776E-2,-1.4489573E-2,-1.4686842E-1,7.47492E-2,-8.667639E-3,-7.7704713E-3,-4.4960756E-2],"categories":[],"categories_nodes":[],"categories_segments":[],"categories_sizes":[],"default_left":[0,0,0,0,0,0,0,0,0,0,0,0,0,0,0,0,0,0,0,0,0,0,0,0,0,0,0,0,0],"id":41,"left_children":[1,3,5,7,9,11,13,15,17,19,21,23,25,-1,27,-1,-1,-1,-1,-1,-1,-1,-1,-1,-1,-1,-1,-1,-1],"loss_changes":[2.8510916E1,3.734163E1,2.958947E1,1.7637643E2,1.284566E2,9.124077E1,1.4224594E1,1.2163593E2,2.782486E1,1.19474365E2,1.0725063E2,7.310865E1,2.2658241E1,0E0,6.8740864E0,0E0,0E0,0E0,0E0,0E0,0E0,0E0,0E0,0E0,0E0,0E0,0E0,0E0,0E0],"parents":[2147483647,0,0,1,1,2,2,3,3,4,4,5,5,6,6,7,7,8,8,9,9,10,10,11,11,12,12,14,14],"right_children":[2,4,6,8,10,12,14,16,18,20,22,24,26,-1,28,-1,-1,-1,-1,-1,-1,-1,-1,-1,-1,-1,-1,-1,-1],"split_conditions":[7E0,4E0,1.8E1,1.8E1,5E0,1.4E1,1.9E1,1.3E1,2.1E1,1.3E1,1.9E1,1.3E1,1.7E1,-9.571597E-2,2E1,-8.457045E-3,5.2599054E-2,-7.553986E-2,-3.0586636E-2,-2.635783E-3,8.9877926E-2,-1.8352732E-2,3.8899776E-2,-1.4489573E-2,-1.4686842E-1,7.47492E-2,-8.667639E-3,-7.7704713E-3,-4.4960756E-2],"split_indices":[0,0,1,1,0,1,1,1,1,1,1,1,1,0,1,0,0,0,0,0,0,0,0,0,0,0,0,0,0],"split_type":[0,0,0,0,0,0,0,0,0,0,0,0,0,0,0,0,0,0,0,0,0,0,0,0,0,0,0,0,0],"sum_hessian":[5.168E3,4.214E3,9.54E2,2.027E3,2.187E3,6.8E2,2.74E2,1.471E3,5.56E2,5.8E2,1.607E3,4.97E2,1.83E2,4.3E1,2.31E2,9.84E2,4.87E2,2.92E2,2.64E2,2.33E2,3.47E2,1.151E3,4.56E2,4.52E2,4.5E1,1.41E2,4.2E1,7.3E1,1.58E2],"tree_param":{"num_deleted":"0","num_feature":"2","num_nodes":"29","size_leaf_vector":"1"}},{"base_weights":[-1.1146881E-3,1.0992376E-2,-4.4257578E-1,-1.4941315E-1,4.5307066E-2,-2.500501E-1,-5.361207E-1,-3.1962484E-1,-6.405492E-2,1.3136739E-1,-4.1400008E-2,-6.1494578E-2,1.9255614E-2,-1.080542E-1,-3.5987577E-1,-4.547244E-2,-2.4186026E-2,-1.2596438E-2,3.5335459E-3,1.0728246E-1,2.0626374E-3,-1.0514827E-1,3.313149E-3,-3.0623242E-2,-4.4633027E-2],"categories":[],"categories_nodes":[],"categories_segments":[],"categories_sizes":[],"default_left":[0,0,0,0,0,0,0,0,0,0,0,0,0,0,0,0,0,0,0,0,0,0,0,0,0],"id":42,"left_children":[1,3,5,7,9,11,13,15,17,19,21,-1,-1,-1,23,-1,-1,-1,-1,-1,-1,-1,-1,-1,-1],"loss_changes":[2.7632124E1,2.7704239E1,2.3512955E0,1.2866722E1,3.0943047E1,7.7091503E0,8.438673E0,2.9997845E0,3.6471477E0,2.1693858E2,1.5556946E2,0E0,0E0,0E0,1.9259739E-1,0E0,0E0,0E0,0E0,0E0,0E0,0E0,0E0,0E0,0E0],"parents":[2147483647,0,0,1,1,2,2,3,3,4,4,5,5,6,6,7,7,8,8,9,9,10,10,14,14],"right_children":[2,4,6,8,10,12,14,16,18,20,22,-1,-1,-1,24,-1,-1,-1,-1,-1,-1,-1,-1,-1,-1],"split_conditions":[2.3E1,6E0,5E0,3E0,5E0,2E0,6E0,2E0,4E0,8E0,8E0,-6.1494578E-2,1.9255614E-2,-1.080542E-1,7E0,-4.547244E-2,-2.4186026E-2,-1.2596438E-2,3.5335459E-3,1.0728246E-1,2.0626374E-3,-1.0514827E-1,3.313149E-3,-3.0623242E-2,-4.4633027E-2],"split_indices":[1,1,0,0,0,0,0,1,1,1,1,0,0,0,0,0,0,0,0,0,0,0,0,0,0],"split_type":[0,0,0,0,0,0,0,0,0,0,0,0,0,0,0,0,0,0,0,0,0,0,0,0,0],"sum_hessian":[5.168E3,5.031E3,1.37E2,8.86E2,4.145E3,4.6E1,9.1E1,2.95E2,5.91E2,2.08E3,2.065E3,2.5E1,2.1E1,2.1E1,7E1,1.06E2,1.89E2,3.64E2,2.27E2,2.18E2,1.862E3,1.41E2,1.924E3,4.6E1,2.4E1],"tree_param":{"num_deleted":"0","num_feature":"2","num_nodes":"25","size_leaf_vector":"1"}},{"base_weights":[-1.0604188E-3,2.8597247E-2,-1.6378553E-1,-4.5629725E-2,1.5304847E-1,-1.5386173E-2,-4.082729E-1,-1.5994187E-1,5.6898533E-3,5.9050125E-1,2.3182971E-2,-2.2877494E-1,7.03532E-1,-6.481364E-1,-2.0122196E-1,1.5334265E-2,-4.8486333E-2,2.6700536E-2,-1.0188051E-2,1.5793666E-1,5.5742747E-4,-7.794721E-2,1.498192E-2,-4.7795596E-3,-3.6204115E-2,1.0936069E-1,-9.773993E-2,-7.652009E-2,-3.9482765E-2,-8.354361E-3,-3.4879398E-2],"categories":[],"categories_nodes":[],"categories_segments":[],"categories_sizes":[],"default_left":[0,0,0,0,0,0,0,0,0,0,0,0,0,0,0,0,0,0,0,0,0,0,0,0,0,0,0,0,0,0,0],"id":43,"left_children":[1,3,5,7,9,11,13,15,17,19,21,23,25,27,29,-1,-1,-1,-1,-1,-1,-1,-1,-1,-1,-1,-1,-1,-1,-1,-1],"loss_changes":[2.4950521E1,4.040317E1,2.8910284E1,1.6074986E1,9.281389E1,7.640524E1,1.4818432E1,8.649649E1,5.321095E1,2.1631801E2,1.2829137E2,9.244175E0,7.581743E1,3.8197098E0,2.8015237E0,0E0,0E0,0E0,0E0,0E0,0E0,0E0,0E0,0E0,0E0,0E0,0E0,0E0,0E0,0E0,0E0],"parents":[2147483647,0,0,1,1,2,2,3,3,4,4,5,5,6,6,7,7,8,8,9,9,10,10,11,11,12,12,13,13,14,14],"right_children":[2,4,6,8,10,12,14,16,18,20,22,24,26,28,30,-1,-1,-1,-1,-1,-1,-1,-1,-1,-1,-1,-1,-1,-1,-1,-1],"split_conditions":[2.1E1,1.5E1,6E0,3E0,1.6E1,5E0,2.2E1,8E0,5E0,3E0,2E0,2.2E1,2.3E1,7E0,7E0,1.5334265E-2,-4.8486333E-2,2.6700536E-2,-1.0188051E-2,1.5793666E-1,5.5742747E-4,-7.794721E-2,1.498192E-2,-4.7795596E-3,-3.6204115E-2,1.0936069E-1,-9.773993E-2,-7.652009E-2,-3.9482765E-2,-8.354361E-3,-3.4879398E-2],"split_indices":[1,1,0,0,1,0,1,1,0,0,0,1,1,0,0,0,0,0,0,0,0,0,0,0,0,0,0,0,0,0,0],"split_type":[0,0,0,0,0,0,0,0,0,0,0,0,0,0,0,0,0,0,0,0,0,0,0,0,0,0,0,0,0,0,0],"sum_hessian":[5.168E3,4.372E3,7.96E2,2.739E3,1.633E3,4.96E2,3E2,8.48E2,1.891E3,3.73E2,1.26E3,3.83E2,1.13E2,1.38E2,1.62E2,4.32E2,4.16E2,5.51E2,1.34E3,1.38E2,2.35E2,1.71E2,1.089E3,1.63E2,2.2E2,9.2E1,2.1E1,9.3E1,4.5E1,9.1E1,7.1E1],"tree_param":{"num_deleted":"0","num_feature":"2","num_nodes":"31","size_leaf_vector":"1"}},{"base_weights":[-9.757439E-4,-1.406076E-1,2.7941937E-2,-3.0318007E-1,-5.9083845E-2,6.806633E-2,-1.4764364E-1,-1.2338589E-1,-3.5029054E-1,-1.1274233E-1,2.7075939E-2,1.8147963E-1,-4.538601E-2,-1.3906642E-2,-3.6797467E-1,-2.1208122E-2,2.9580721E-3,-8.375012E-2,-2.330549E-2,1.0609391E-2,-1.6320346E-2,1.4780988E-2,-2.7796162E-2,2.9163035E-3,7.548761E-2,-9.369585E-2,3.3621278E-3,-2.0600414E-2,6.332806E-2,-5.8415722E-2,-1.8136514E-2],"categories":[],"categories_nodes":[],"categories_segments":[],"categories_sizes":[],"default_left":[0,0,0,0,0,0,0,0,0,0,0,0,0,0,0,0,0,0,0,0,0,0,0,0,0,0,0,0,0,0,0],"id":44,"left_children":[1,3,5,7,9,11,13,15,17,19,21,23,25,27,29,-1,-1,-1,-1,-1,-1,-1,-1,-1,-1,-1,-1,-1,-1,-1,-1],"loss_changes":[2.0875467E1,1.1737955E1,3.0184917E1,2.463955E0,2.7399888E0,4.4875484E1,2.3479612E1,8.610212E-1,1.3170536E1,4.0479097E0,8.437957E0,1.522951E2,1.2288012E2,6.191901E1,1.2036919E1,0E0,0E0,0E0,0E0,0E0,0E0,0E0,0E0,0E0,0E0,0E0,0E0,0E0,0E0,0E0,0E0],"parents":[2147483647,0,0,1,1,2,2,3,3,4,4,5,5,6,6,7,7,8,8,9,9,10,10,11,11,12,12,13,13,14,14],"right_children":[2,4,6,8,10,12,14,16,18,20,22,24,26,28,30,-1,-1,-1,-1,-1,-1,-1,-1,-1,-1,-1,-1,-1,-1,-1,-1],"split_conditions":[6E0,3E0,2.1E1,1E0,4E0,5E0,6E0,2E0,2E0,1E0,7E0,4E0,8E0,5E0,2.2E1,-2.1208122E-2,2.9580721E-3,-8.375012E-2,-2.330549E-2,1.0609391E-2,-1.6320346E-2,1.4780988E-2,-2.7796162E-2,2.9163035E-3,7.548761E-2,-9.369585E-2,3.3621278E-3,-2.0600414E-2,6.332806E-2,-5.8415722E-2,-1.8136514E-2],"split_indices":[1,0,1,1,1,0,0,0,1,1,0,0,1,0,1,0,0,0,0,0,0,0,0,0,0,0,0,0,0,0,0],"split_type":[0,0,0,0,0,0,0,0,0,0,0,0,0,0,0,0,0,0,0,0,0,0,0,0,0,0,0,0,0,0,0],"sum_hessian":[5.168E3,8.86E2,4.282E3,2.95E2,5.91E2,3.486E3,7.96E2,6.2E1,2.33E2,3.64E2,2.27E2,1.743E3,1.743E3,4.96E2,3E2,3.9E1,2.3E1,4.4E1,1.89E2,6.8E1,2.96E2,1.63E2,6.4E1,1.378E3,3.65E2,1.41E2,1.602E3,3.83E2,1.13E2,1.38E2,1.62E2],"tree_param":{"num_deleted":"0","num_feature":"2","num_nodes":"31","size_leaf_vector":"1"}},{"base_weights":[-9.149605E-4,8.870711E-3,-3.5773078E-1,-1.267092E-1,3.787469E-2,-1.7034784E-1,-4.4957063E-1,-2.732852E-1,-5.320716E-2,7.049706E-2,-1.20098464E-1,-5.011967E-2,2.2839842E-2,-9.4455205E-2,-2.8986415E-1,-2.1229085E-2,-4.0835727E-2,-1.0148386E-2,2.431127E-3,3.292102E-2,4.43795E-3,1.7320007E-3,-3.7146263E-2,-2.503334E-2,-3.5258736E-2],"categories":[],"categories_nodes":[],"categories_segments":[],"categories_sizes":[],"default_left":[0,0,0,0,0,0,0,0,0,0,0,0,0,0,0,0,0,0,0,0,0,0,0,0,0],"id":45,"left_children":[1,3,5,7,9,11,13,15,17,19,21,-1,-1,-1,23,-1,-1,-1,-1,-1,-1,-1,-1,-1,-1],"loss_changes":[1.8051678E1,1.979242E1,2.2982903E0,9.541675E0,2.1374704E1,6.3149347E0,6.998968E0,2.3519459E0,2.217929E0,2.3209044E1,2.453131E1,0E0,0E0,0E0,8.777952E-2,0E0,0E0,0E0,0E0,0E0,0E0,0E0,0E0,0E0,0E0],"parents":[2147483647,0,0,1,1,2,2,3,3,4,4,5,5,6,6,7,7,8,8,9,9,10,10,14,14],"right_children":[2,4,6,8,10,12,14,16,18,20,22,-1,-1,-1,24,-1,-1,-1,-1,-1,-1,-1,-1,-1,-1],"split_conditions":[2.3E1,6E0,5E0,3E0,7E0,2E0,6E0,2E0,4E0,8E0,1.8E1,-5.011967E-2,2.2839842E-2,-9.4455205E-2,7E0,-2.1229085E-2,-4.0835727E-2,-1.0148386E-2,2.431127E-3,3.292102E-2,4.43795E-3,1.7320007E-3,-3.7146263E-2,-2.503334E-2,-3.5258736E-2],"split_indices":[1,1,0,0,0,0,0,0,1,1,1,0,0,0,0,0,0,0,0,0,0,0,0,0,0],"split_type":[0,0,0,0,0,0,0,0,0,0,0,0,0,0,0,0,0,0,0,0,0,0,0,0,0],"sum_hessian":[5.168E3,5.031E3,1.37E2,8.86E2,4.145E3,4.6E1,9.1E1,2.95E2,5.91E2,3.436E3,7.09E2,2.5E1,2.1E1,2.1E1,7E1,2.05E2,9E1,3.64E2,2.27E2,3.14E2,3.122E3,4.59E2,2.5E2,4.6E1,2.4E1],"tree_param":{"num_deleted":"0","num_feature":"2","num_nodes":"25","size_leaf_vector":"1"}},{"base_weights":[-8.720172E-4,1.6160706E-2,-1.8083775E-1,-7.914435E-2,6.8463825E-2,-3.054885E-1,-5.868509E-2,-2.7004835E-1,-2.1143027E-2,8.340712E-1,3.8994085E-2,-3.4445697E-1,-1.538934E-1,1.7689466E-1,-4.0629554E-1,2.2348382E-2,-1.8265271E-1,2.0321852E-2,-1.8043548E-2,3.2364156E-2,1.19265534E-1,1.2288145E-2,-4.45211E-3,-2.498213E-2,-5.7604976E-2,-4.5300473E-2,2.0659698E-2,6.4899005E-2,-4.8364373E-3,-8.543902E-2,-2.6172683E-2],"categories":[],"categories_nodes":[],"categories_segments":[],"categories_sizes":[],"default_left":[0,0,0,0,0,0,0,0,0,0,0,0,0,0,0,0,0,0,0,0,0,0,0,0,0,0,0,0,0,0,0],"id":46,"left_children":[1,3,5,7,9,11,13,15,17,19,21,23,25,27,29,-1,-1,-1,-1,-1,-1,-1,-1,-1,-1,-1,-1,-1,-1,-1,-1],"loss_changes":[1.5847492E1,2.35484E1,6.7882814E0,1.8529964E1,6.878235E1,1.2525349E0,1.8660898E1,2.9999542E2,4.5961414E1,2.0296616E1,2.0588709E1,3.691553E0,5.161447E0,1.4494137E1,5.736185E0,0E0,0E0,0E0,0E0,0E0,0E0,0E0,0E0,0E0,0E0,0E0,0E0,0E0,0E0,0E0,0E0],"parents":[2147483647,0,0,1,1,2,2,3,3,4,4,5,5,6,6,7,7,8,8,9,9,10,10,11,11,12,12,13,13,14,14],"right_children":[2,4,6,8,10,12,14,16,18,20,22,24,26,28,30,-1,-1,-1,-1,-1,-1,-1,-1,-1,-1,-1,-1,-1,-1,-1,-1],"split_conditions":[2.2E1,1E1,5E0,2E0,1.1E1,2.3E1,2.3E1,8E0,5E0,6E0,5E0,4E0,2E0,6E0,6E0,2.2348382E-2,-1.8265271E-1,2.0321852E-2,-1.8043548E-2,3.2364156E-2,1.19265534E-1,1.2288145E-2,-4.45211E-3,-2.498213E-2,-5.7604976E-2,-4.5300473E-2,2.0659698E-2,6.4899005E-2,-4.8364373E-3,-8.543902E-2,-2.6172683E-2],"split_indices":[1,1,0,0,1,1,1,1,0,0,0,0,0,0,0,0,0,0,0,0,0,0,0,0,0,0,0,0,0,0,0],"split_type":[0,0,0,0,0,0,0,0,0,0,0,0,0,0,0,0,0,0,0,0,0,0,0,0,0,0,0,0,0,0,0],"sum_hessian":[5.168E3,4.722E3,4.46E2,1.673E3,3.049E3,2.2E2,2.26E2,3.89E2,1.284E3,1.12E2,2.937E3,1.74E2,4.6E1,1.35E2,9.1E1,2.96E2,9.3E1,5.33E2,7.51E2,4.7E1,6.5E1,1.465E3,1.472E3,1.25E2,4.9E1,2.5E1,2.1E1,4.3E1,9.2E1,2.1E1,7E1],"tree_param":{"num_deleted":"0","num_feature":"2","num_nodes":"31","size_leaf_vector":"1"}},{"base_weights":[-8.155634E-4,-1.1736682E-1,2.3322139E-2,-2.3989302E-1,-2.2919647E-2,9.281468E-2,-4.5214698E-2,-1.8328765E-1,-3.277302E-1,-8.157534E-2,7.8896046E-2,2.723129E-1,-3.1099254E-1,-8.4881145E-1,1.1410277E-2,-2.3482842E-2,2.440173E-2,-5.236269E-2,-1.7985526E-2,-3.8079236E-2,-2.7172363E-3,2.4838505E-2,-2.3522055E-2,1.1795368E-2,8.754644E-2,-5.0148267E-2,-1.7525215E-2,-3.6381487E-2,-1.2772243E-1,2.9958948E-2,-9.799524E-3],"categories":[],"categories_nodes":[],"categories_segments":[],"categories_sizes":[],"default_left":[0,0,0,0,0,0,0,0,0,0,0,0,0,0,0,0,0,0,0,0,0,0,0,0,0,0,0,0,0,0,0],"id":47,"left_children":[1,3,5,7,9,11,13,15,17,19,21,23,25,27,29,-1,-1,-1,-1,-1,-1,-1,-1,-1,-1,-1,-1,-1,-1,-1,-1],"loss_changes":[1.45445795E1,1.025909E1,2.0403265E1,1.8591442E0,3.0044153E0,1.5425536E2,9.816105E1,5.276901E0,4.251055E0,5.1824293E0,9.854459E0,1.3703596E2,1.684858E1,2.903991E1,6.359061E1,0E0,0E0,0E0,0E0,0E0,0E0,0E0,0E0,0E0,0E0,0E0,0E0,0E0,0E0,0E0,0E0],"parents":[2147483647,0,0,1,1,2,2,3,3,4,4,5,5,6,6,7,7,8,8,9,9,10,10,11,11,12,12,13,13,14,14],"right_children":[2,4,6,8,10,12,14,16,18,20,22,24,26,28,30,-1,-1,-1,-1,-1,-1,-1,-1,-1,-1,-1,-1,-1,-1,-1,-1],"split_conditions":[6E0,4E0,5E0,4E0,4E0,1.9E1,8E0,3E0,2E0,5E0,7E0,4E0,2.1E1,7E0,1.3E1,-2.3482842E-2,2.440173E-2,-5.236269E-2,-1.7985526E-2,-3.8079236E-2,-2.7172363E-3,2.4838505E-2,-2.3522055E-2,1.1795368E-2,8.754644E-2,-5.0148267E-2,-1.7525215E-2,-3.6381487E-2,-1.2772243E-1,2.9958948E-2,-9.799524E-3],"split_indices":[1,0,0,1,1,1,1,1,0,0,0,0,1,1,1,0,0,0,0,0,0,0,0,0,0,0,0,0,0,0,0],"split_type":[0,0,0,0,0,0,0,0,0,0,0,0,0,0,0,0,0,0,0,0,0,0,0,0,0,0,0,0,0,0,0],"sum_hessian":[5.168E3,8.86E2,4.282E3,3.85E2,5.01E2,2.126E3,2.156E3,2.36E2,1.49E2,3.18E2,1.83E2,1.472E3,6.54E2,1.41E2,2.015E3,2.11E2,2.5E1,6.3E1,8.6E1,4.8E1,2.7E2,1.19E2,6.4E1,1.173E3,2.99E2,2.71E2,3.83E2,6.7E1,7.4E1,5.54E2,1.461E3],"tree_param":{"num_deleted":"0","num_feature":"2","num_nodes":"31","size_leaf_vector":"1"}},{"base_weights":[-7.7664305E-4,-4.6501417E-2,5.0781652E-2,-1.117358E-1,6.929045E-2,5.081745E-1,-3.240536E-2,-6.620615E-2,-1.9207935E-1,3.5838625E-1,-1.6443832E-1,1.391354E0,-1.4156608E-2,-2.935592E-1,1.0965686E-1,-1.3587447E-2,4.5199927E-2,-7.4147517E-3,8.365862E-2,-8.05252E-3,-5.6284048E-2,1.0392481E-1,2.0168701E-1,-3.6949888E-2,1.3151066E-1,1.9108731E-2,-4.400793E-2,4.8164546E-2,-1.8191395E-2],"categories":[],"categories_nodes":[],"categories_segments":[],"categories_sizes":[],"default_left":[0,0,0,0,0,0,0,0,0,0,0,0,0,0,0,0,0,0,0,0,0,0,0,0,0,0,0,0,0],"id":48,"left_children":[1,3,5,7,9,11,13,15,-1,17,19,21,23,25,27,-1,-1,-1,-1,-1,-1,-1,-1,-1,-1,-1,-1,-1,-1],"loss_changes":[1.2188235E1,2.0704632E1,9.247588E1,1.4426E2,6.681809E1,1.7255045E2,7.6347084E1,6.1832787E1,0E0,9.148426E1,1.8241528E1,2.8518402E1,1.11958984E2,5.1566685E1,1.4466615E2,0E0,0E0,0E0,0E0,0E0,0E0,0E0,0E0,0E0,0E0,0E0,0E0,0E0,0E0],"parents":[2147483647,0,0,1,1,2,2,3,3,4,4,5,5,6,6,7,7,9,9,10,10,11,11,12,12,13,13,14,14],"right_children":[2,4,6,8,10,12,14,16,-1,18,20,22,24,26,28,-1,-1,-1,-1,-1,-1,-1,-1,-1,-1,-1,-1,-1,-1],"split_conditions":[1.5E1,6E0,1.6E1,1.4E1,7E0,3E0,4E0,1.3E1,-1.9207935E-1,1E1,1.3E1,2E0,7E0,1.8E1,6E0,-1.3587447E-2,4.5199927E-2,-7.4147517E-3,8.365862E-2,-8.05252E-3,-5.6284048E-2,1.0392481E-1,2.0168701E-1,-3.6949888E-2,1.3151066E-1,1.9108731E-2,-4.400793E-2,4.8164546E-2,-1.8191395E-2],"split_indices":[1,0,1,1,0,0,0,1,0,1,1,0,0,1,0,0,0,0,0,0,0,0,0,0,0,0,0,0,0],"split_type":[0,0,0,0,0,0,0,0,0,0,0,0,0,0,0,0,0,0,0,0,0,0,0,0,0,0,0,0,0],"sum_hessian":[5.168E3,2.739E3,2.429E3,1.752E3,9.87E2,3.73E2,2.056E3,1.71E3,4.2E1,4.41E2,5.46E2,1.38E2,2.35E2,7.24E2,1.332E3,1.508E3,2.02E2,2.32E2,2.09E2,4.52E2,9.4E1,9E1,4.8E1,1.86E2,4.9E1,1.68E2,5.56E2,5.85E2,7.47E2],"tree_param":{"num_deleted":"0","num_feature":"2","num_nodes":"29","size_leaf_vector":"1"}},{"base_weights":[-6.4918154E-4,6.932229E-3,-2.7709126E-1,-4.190537E-2,6.528726E-2,-1.1998741E-1,-3.5433897E-1,-2.4172708E-3,-1.9842266E-1,4.5842656E-1,-1.1327005E-2,-3.5028007E-2,1.5763057E-2,-8.094557E-2,-2.0832624E-1,-5.703935E-3,1.7479159E-2,-5.0000645E-2,-1.0526826E-2,1.2544167E-1,-1.2340652E-3,-2.6066393E-2,1.31627275E-2,-1.728215E-2,-2.6674205E-2],"categories":[],"categories_nodes":[],"categories_segments":[],"categories_sizes":[],"default_left":[0,0,0,0,0,0,0,0,0,0,0,0,0,0,0,0,0,0,0,0,0,0,0,0,0],"id":49,"left_children":[1,3,5,7,9,11,13,15,17,19,21,-1,-1,-1,23,-1,-1,-1,-1,-1,-1,-1,-1,-1,-1],"loss_changes":[1.0835218E1,1.4343532E1,1.6322393E0,1.693428E1,6.907053E1,3.0600834E0,5.9450293E0,2.119843E1,1.5455175E1,1.4016302E2,6.847037E1,0E0,0E0,0E0,1.01157665E-1,0E0,0E0,0E0,0E0,0E0,0E0,0E0,0E0,0E0,0E0],"parents":[2147483647,0,0,1,1,2,2,3,3,4,4,5,5,6,6,7,7,8,8,9,9,10,10,14,14],"right_children":[2,4,6,8,10,12,14,16,18,20,22,-1,-1,-1,24,-1,-1,-1,-1,-1,-1,-1,-1,-1,-1],"split_conditions":[2.3E1,1.5E1,5E0,1.2E1,1.6E1,2E0,6E0,1E1,1.3E1,3E0,4E0,-3.5028007E-2,1.5763057E-2,-8.094557E-2,7E0,-5.703935E-3,1.7479159E-2,-5.0000645E-2,-1.0526826E-2,1.2544167E-1,-1.2340652E-3,-2.6066393E-2,1.31627275E-2,-1.728215E-2,-2.6674205E-2],"split_indices":[1,1,0,1,1,0,0,1,1,0,0,0,0,0,0,0,0,0,0,0,0,0,0,0,0],"split_type":[0,0,0,0,0,0,0,0,0,0,0,0,0,0,0,0,0,0,0,0,0,0,0,0,0],"sum_hessian":[5.168E3,5.031E3,1.37E2,2.739E3,2.292E3,4.6E1,9.1E1,2.188E3,5.51E2,3.73E2,1.919E3,2.5E1,2.1E1,2.1E1,7E1,1.673E3,5.15E2,1.29E2,4.22E2,1.38E2,2.35E2,6.99E2,1.22E3,4.6E1,2.4E1],"tree_param":{"num_deleted":"0","num_feature":"2","num_nodes":"25","size_leaf_vector":"1"}}]},"name":"gbtree"},"learner_model_param":{"base_score":"[1.3939629E1]","boost_from_average":"1","num_class":"0","num_feature":"2","num_target":"1"},"objective":{"name":"reg:squarederror","reg_loss_param":{"scale_pos_weight":"1"}}},"version":[3,2,0]}